{"learner":{"attributes":{},"feature_names":["recency","frequency","monetary","Gender","Age","Province","rfm_score_int"],"feature_types":["int","int","float","float","int","float","int"],"gradient_booster":{"model":{"gbtree_model_param":{"num_parallel_tree":"1","num_trees":"4"},"iteration_indptr":[0,1,2,3,4],"tree_info":[0,0,0,0],"trees":[{"base_weights":[-6.600727E-1,-7.4877137E-1,1.2731615E0,-8.260191E-1,-1.2456189E-1,9.2426777E-1,3.9246433E0,-8.268064E-1,2.9379604E0,-2.1638942E-1,9.6419716E-1,7.521034E-1,2.3743098E0,3.6058438E0,5.936379E0,-8.3302987E-1,-6.462261E-1,2.398773E0,5.5443606E0,1.9735748E-1,-2.3800452E-1,6.4943606E-1,2.3806102E0,6.2915534E-1,1.4014248E0,2.0144405E0,3.0667808E0,3.4614127E0,4.330457E0,5.4281197E0,6.47703E0,-8.0635774E-1,-8.428831E-1,-6.921172E-1,-4.2373952E-1,4.6374327E-1,3.2390797E0,4.8859897E0,9.3506575E-1,1.2219784E-1,1.9324154E0,-2.658462E-1,1.3980944E-1,4.6571675E-1,1.029384E0,1.8909004E0,3.504152E0,5.3841794E-1,9.758941E-1,1.1887431E0,2.2513504E0,1.378993E0,2.452286E0,3.4680789E0,1.6601356E0,2.6764474E0,3.5687807E0,4.745808E0,3.6179476E0,6.0329075E0,4.542266E0,9.3513364E-1,5.8256974E0,-8.1488836E-1,-7.3663867E-1,-8.369439E-1,-8.691266E-1,-7.116308E-1,-5.268266E-1,-4.8124483E-1,1.6493107E-1,-3.8526204E-1,3.7953022E-1,3.160824E-1,3.92867E0,7.597902E-1,5.8140916E-1,-1.6449058E-1,4.138485E-1,-1.8779716E-1,2.7470121E0,-1.7959481E-1,-2.9557067E-1,-3.3869166E-2,2.966893E-1,7.651434E-1,2.7132306E-1,-5.315374E-2,1.126195E0,1.6463622E0,5.287299E0,2.5845947E0,4.338946E0,3.6125073E-1,6.032354E-1,4.8993635E0,9.4276136E-1,8.319804E-1,1.8180531E0,3.0998526E0,1.8876977E0,2.6187296E0,9.8152333E-1,2.571403E0,-2.9316558E-2,4.182711E0,3.1440485E0,1.1891817E0,4.08553E0,5.9758797E0,2.263609E0,3.480778E0,4.95475E0,4.1696606E0,5.3844995E0,2.4203005E0,4.213996E0,5.3935957E0,6.563422E0,5.4662004E0,3.4242926E0,6.212122E0,2.6159477E-1,-8.173653E-1,-7.09626E-1,-7.7683765E-1,-6.6325045E-1,-8.5529673E-1,-8.333573E-1,-8.3351594E-1,-8.86744E-1,-6.744032E-1,-7.8089136E-1,-4.4972152E-1,-8.245462E-1,-2.0747477E-1,-5.716466E-1,-9.1076887E-1,6.7119414E-1,-1.0135227E0,1.4708504E-1,-1.6454034E-1,3.9987198E-1,6.0953517E0,3.0673392E0,-2.0163985E-1,9.350736E-1,8.2437795E-1,-1.0345163E-1,9.350232E-1,-1.645626E-1,3.8942065E0,1.6035128E0,-2.2045133E-1,9.4903074E-2,-3.5246292E-1,-2.1453437E-1,3.0805016E-1,-1.3537455E-1,1.1180028E0,2.3121372E-1,1.2282428E0,4.8216155E-1,6.309707E-2,6.998767E-1,5.6390804E-1,-1.645644E-1,1.9358153E0,9.7313267E-1,5.4897237E0,1.5271597E0,4.271843E0,9.351097E-1,1.827486E0,4.279129E0,2.247014E0,5.1157055E0,4.372408E-1,-3.1771618E-1,6.4312416E-1,1.7838879E-1,3.5902877E0,9.350997E-1,1.3068672E0,7.866321E-1,1.7190105E0,7.2486717E-1,8.766318E-1,2.162813E0,3.9468738E-1,3.4920115E0,1.4099929E0,2.5586536E0,9.232473E-1,3.3649158E0,4.97899E-1,1.7353066E0,3.6916268E0,2.4633117E0,5.849188E-1,-1.6455579E-1,4.5902114E0,2.3760705E0,2.963652E0,5.131778E0,2.4433832E0,7.417529E-1,3.3129387E0,9.350686E-1,4.4971848E-1,9.3511647E-1,1.8019732E0,5.5378685E0,3.265133E0,3.8754406E0,4.3919683E0,5.973992E0,9.351127E-1,3.7739801E0,6.2370276E0,4.5398426E0,7.3931503E-1,3.907369E0,4.0062E0,9.3508E-1,4.636876E0,9.351146E-1,6.38355E0,9.351254E-1,3.8457778E0,9.3511933E-1,2.2738404E0,9.350907E-1,3.9987198E-1,6.577938E0,-8.1376046E-1,-8.822972E-1,-7.883709E-1,-3.1607223E-1,-5.9063816E-1,-8.043795E-1,4.497878E-1,-6.768828E-1,-9.493771E-1,-8.504463E-1,-7.9426324E-1,-8.361727E-1,-7.803589E-1,-9.225948E-1,-8.6388373E-1,-9.188763E-1,-7.543161E-1,-5.837195E-1,-3.2864034E-1,-8.0556875E-1,-8.191094E-1,-3.6743978E-1,-3.6365157E-1,-1.1514575E0,-6.520491E-1,2.670895E-1,-8.6839557E-1,-4.9709627E-1,-6.3963044E-1,-1.645649E-1,-2.002316E-1,2.2174797E0,-1.6454561E-1,-9.651339E-2,6.709704E-1,9.3508804E-1,1.7090261E0,6.2887974E0,-4.6032697E-1,8.701412E-2,3.485259E0,7.451977E-1,4.2989278E-1,-2.116537E-1,3.4811234E0,9.350516E-1,-1.805916E-1,3.860525E0,2.681504E-1,-2.4543214E-1,2.2796871E-1,-8.0693823E-1,-3.184733E-1,-5.6547993E-1,-3.6310375E-1,-1.2751086E-1,-9.1671854E-2,6.5691596E-1,-2.5591058E-1,4.1509473E-1,1.7518392E0,-5.745371E-1,8.907125E-2,3.8235664E-1,2.9267108E0,9.2037153E-1,1.0144537E-1,9.8382604E-1,2.0381984E-1,-5.608984E-1,-9.0657437E-1,8.9075077E-1,2.3479345E0,-3.2333544E-1,2.7607574E0,5.132848E-1,-1.5056257E-1,1.063059E0,4.315405E0,9.350818E-1,-8.084621E-1,1.7438922E0,6.334663E0,2.2444274E0,2.1696413E0,9.742011E-1,1.8638702E-1,4.9075375E0,3.2138975E0,-1.6454408E-1,5.8437967E0,2.7253401E0,6.8168527E-1,2.4637634E-1,-4.132594E-1,9.3504214E-1,5.68524E-1,8.8583684E-1,-4.5769805E-1,5.17329E-1,8.4592246E-2,5.213461E0,-1.8272361E-1,1.4079018E0,9.3503034E-1,7.7613807E-1,1.2163273E0,3.8871348E0,5.8304E-1,1.1955388E0,4.3418546E0,4.1392207E-1,1.3765692E0,2.5994675E0,-5.861485E-1,1.8171707E0,4.0652356E0,1.9876168E0,1.8971883E0,1.3982995E-1,4.045812E0,1.6908246E0,4.0511385E-1,8.116318E-1,2.4365027E0,5.1544886E0,-1.645615E-1,6.498166E-1,9.35078E-1,1.5220749E0,5.4668274E0,2.138225E0,6.952363E-2,2.653858E0,1.1414824E0,-1.6453804E-1,2.2637687E0,4.9025574E0,-8.534291E-2,5.879393E0,1.9053108E0,3.362091E0,4.271843E0,9.351013E-1,1.8172954E0,9.350471E-1,9.735926E-2,1.9711165E0,2.520473E0,9.3503034E-1,3.0655136E0,8.7274003E-1,3.999014E-1,6.4883685E0,3.90284E0,3.1246352E0,4.259784E0,2.9214635E0,5.4802227E0,1.2364371E0,9.3511623E-1,5.059327E0,3.6389802E0,9.350516E-1,9.3512714E-1,4.8286037E0,9.3511695E-1,3.3153386E0,2.251216E0,-1.6455029E-1,9.350941E-1,2.1178968E0,4.582415E0,3.7607405E0,3.1417456E0,6.214961E0,9.351131E-1,7.8502584E-1,2.9266064E0,9.3504214E-1,9.3503034E-1,1.479359E0,8.302532E-1,9.351229E-1,-1.12638384E-1,-1.17076814E-1,-1.3310097E-1,-1.12800635E-1,-8.956325E-2,-1.3276523E-1,-9.4198994E-2,5.836907E-2,-1.1275928E-1,-3.6750738E-2,-1.0242327E-1,-1.2076095E-1,-6.787221E-2,9.35078E-1,-7.521202E-2,-1.0694264E-1,-1.4382547E-1,-1.2202222E-1,-9.368417E-2,-1.1954617E-1,-1.12645715E-1,-1.0316304E-1,-1.214102E-1,-1.1637823E-1,-1.2768117E-1,-1.0444374E-1,-1.301435E-1,1.5448947E-1,-1.2339699E-1,-1.0547336E-1,-1.3937244E-1,-1.261045E-1,-1.2437679E-1,-9.6594E-2,-3.6466844E-2,-8.608753E-2,-7.941369E-2,5.8145064E-1,-1.034806E-1,-1.271459E-1,-2.8424505E-3,-1.3435286E-1,-2.8949719E-2,-8.7521546E-2,1.23945E-1,-1.07048064E-1,-1.6456881E-1,-1.294667E-1,-1.10869095E-1,1.5823366E-1,-1.2136521E-2,3.6419252E-1,-1.3074505E-1,7.156791E-2,-1.068153E-3,-9.102571E-2,-1.6456182E-1,4.806429E-2,6.915635E-1,-7.705709E-2,8.079368E-1,1.0804664E-1,-1.163332E-1,6.054163E-1,8.0386287E-1,9.3505937E-1,2.8983904E-2,-9.467047E-2,2.6318943E-2,-1.17134884E-1,9.350989E-1,-1.0030353E-1,-1.15469925E-1,1.1803458E-1,9.3504214E-1,1.5033393E-2,-6.952501E-2,2.0439912E-2,5.8838767E-1,1.711559E-1,-1.6455527E-1,1.9378908E-1,8.753355E-1,1.9378908E-1,1.1586202E-1,-5.036616E-2,-4.286451E-2,-1.1257373E-3,-3.5927385E-2,5.486921E-2,-2.5632798E-3,-1.3452677E-1,-2.8440246E-2,-4.882613E-2,-7.589175E-2,-1.6193838E-1,-1.0208054E-1,-4.429695E-2,-3.354157E-2,-1.0895352E-3,2.941638E-1,-3.4577407E-2,6.430768E-2,4.364875E-1,-1.3486795E-1,-2.4835244E-2,2.087812E-2,3.7700975E-1,9.2483535E-2,5.3841054E-1,-1.472657E-1,4.3214452E-1,2.9751137E-2,-3.5925422E-2,-1.0127673E-1,6.3317224E-2,3.1249246E-1,7.951198E-1,2.4919857E-1,5.517912E-2,-1.645615E-1,2.7148694E-2,9.350556E-1,1.2095566E-1,-1.2965267E-2,6.833663E-2,1.8534848E-2,-1.4658014E-1,7.863037E-2,-1.645656E-1,5.2992517E-1,1.0425971E-1,4.8067176E-1,-6.831785E-2,8.1096664E-2,-1.6456091E-1,7.244074E-1,3.2198688E-1,-8.843706E-2,3.4774354E-1,-9.480107E-2,3.2112536E-1,3.3023047E-1,1.2842685E-1,3.0246034E-1,9.350232E-1,-1.645644E-1,9.007455E-2,4.2040494E-1,2.1144187E-1,8.116318E-1,9.3507123E-1,5.363185E-1,1.8936548E-1,4.218893E-1,-4.9196392E-2,-1.6455826E-1,9.350686E-1,8.3031267E-1,3.858145E-1,3.5203892E-1,9.3504214E-1,7.151541E-1,8.8623166E-1,1.6444366E-1,7.951026E-1,6.587306E-2,1.9526045E-1,-5.893438E-2,4.30244E-2,2.3308933E-1,-7.666985E-2,1.0918467E-1,7.193169E-2,1.0765185E-1,2.6498222E-1,-1.07388504E-1,3.354692E-2,6.241559E-2,2.4808447E-1,5.486548E-1,9.350471E-1,6.489985E-2,-1.64562E-1,4.625373E-1,1.8658681E-1,4.4800642E-1,1.0650027E-1,5.643964E-2,3.2950062E-1,4.0610012E-1,8.770014E-1,3.369616E-2,1.2779559E-1,7.597902E-1,1.5580204E-1,7.9743934E-1,3.6622345E-1,1.385458E-1,-2.6064318E-2,1.442092E-1,6.615946E-1,4.1627243E-1,1.6357917E-1,-1.645482E-1,9.0054154E-2,3.3865076E-1,1.7774484E-1,3.5326466E-1,7.0242554E-1,1.4876598E-1,5.746647E-1,2.8706864E-1,7.111165E-2,-3.324155E-2,2.9952946E-1,2.7462596E-1,6.8267673E-1,1.7372587E-1,9.3508947E-1,-5.046117E-2,1.8525772E-1,2.7163047E-1,8.116779E-1,8.723689E-1,3.1279042E-1,1.5928498E-1,-2.534264E-2,4.2665843E-2,3.6125442E-1,8.7420255E-1,4.1654372E-1,6.846295E-1,6.489735E-2,1.8555686E-1,-1.2893364E-1,1.9525565E-1,4.0737522E-1,5.8781346E-3,4.6076846E-1,1.06080085E-1,9.3504214E-1,6.497236E-1,8.841289E-1,1.4210732E-1,-1.6455029E-1,5.6021464E-1,9.3509305E-1,1.6232936E-1,4.5108885E-1,4.387614E-1,7.8659207E-1,3.999195E-1,8.770014E-1,3.941437E-1,-1.03676155E-1,-1.842646E-2,5.363185E-1,9.3507123E-1,1.2848607E-1,4.8897365E-1,1.319158E-1,2.6374716E-1,6.929535E-1,3.4570077E-1,-5.3795442E-2,9.350962E-1,8.753355E-1,4.5473877E-1,7.794729E-1,4.7927916E-1,3.9496633E-1,5.487114E-1,6.897052E-1,5.469963E-1,2.6415116E-1,6.734134E-1,8.870674E-1,-2.0543026E-2,3.2922906E-1,4.7131E-1,8.353101E-1,4.8960054E-1,9.350471E-1,4.5294023E-1,9.3507123E-1,9.9756025E-2,7.2201926E-1,-3.6430016E-2,4.9641505E-1,6.4880915E-2,4.9641505E-1,3.8913992E-1,8.616758E-1,1.2146592E-1,5.674451E-1,7.2439164E-1,3.3525854E-2,7.733864E-1,9.350919E-1,2.1511495E-1,6.2134075E-1,-1.0365621E-1,2.864023E-1],"categories":[],"categories_nodes":[],"categories_segments":[],"categories_sizes":[],"default_left":[0,0,0,0,0,0,0,0,0,0,0,0,0,0,0,0,0,0,0,0,0,0,0,0,0,0,0,0,0,0,0,0,0,0,0,0,0,0,0,0,0,0,0,0,0,0,0,0,0,0,0,0,0,0,0,0,0,0,0,0,0,0,0,0,0,0,0,0,0,0,0,0,0,0,0,0,0,0,0,0,0,0,0,0,0,0,0,0,0,0,0,0,0,0,0,0,0,0,0,0,0,0,0,0,0,0,0,0,0,0,0,0,0,0,0,0,0,0,0,0,0,0,0,0,0,0,0,0,0,0,0,0,0,0,0,0,0,0,0,0,0,0,0,0,0,0,0,0,0,0,0,0,0,0,0,0,0,0,0,0,0,0,0,0,0,0,0,0,0,0,0,0,0,0,0,0,0,0,0,0,0,0,0,0,0,0,0,0,0,0,0,0,0,0,0,0,0,0,0,0,0,0,0,0,0,0,0,0,0,0,0,0,0,0,0,0,0,0,0,0,0,0,0,0,0,0,0,0,0,0,0,0,0,0,0,0,0,0,0,0,0,0,0,0,0,0,0,0,0,0,0,0,0,0,0,0,0,0,0,0,0,0,0,0,0,0,0,0,0,0,0,0,0,0,0,0,0,0,0,0,0,0,0,0,0,0,0,0,0,0,0,0,0,0,0,0,0,0,0,0,0,0,0,0,0,0,0,0,0,0,0,0,0,0,0,0,0,0,0,0,0,0,0,0,0,0,0,0,0,0,0,0,0,0,0,0,0,0,0,0,0,0,0,0,0,0,0,0,0,0,0,0,0,0,0,0,0,0,0,0,0,0,0,0,0,0,0,0,0,0,0,0,0,0,0,0,0,0,0,0,0,0,0,0,0,0,0,0,0,0,0,0,0,0,0,0,0,0,0,0,0,0,0,0,0,0,0,0,0,0,0,0,0,0,0,0,0,0,0,0,0,0,0,0,0,0,0,0,0,0,0,0,0,0,0,0,0,0,0,0,0,0,0,0,0,0,0,0,0,0,0,0,0,0,0,0,0,0,0,0,0,0,0,0,0,0,0,0,0,0,0,0,0,0,0,0,0,0,0,0,0,0,0,0,0,0,0,0,0,0,0,0,0,0,0,0,0,0,0,0,0,0,0,0,0,0,0,0,0,0,0,0,0,0,0,0,0,0,0,0,0,0,0,0,0,0,0,0,0,0,0,0,0,0,0,0,0,0,0,0,0,0,0,0,0,0,0,0,0,0,0,0,0,0,0,0,0,0,0,0,0,0,0,0,0,0,0,0,0,0,0,0,0,0,0,0,0,0,0,0,0,0,0,0,0,0,0,0,0,0,0,0,0,0,0,0,0,0,0,0,0,0,0,0,0,0,0,0,0,0,0,0,0,0,0,0,0,0,0,0,0,0,0,0,0,0,0,0,0,0,0,0,0,0,0,0,0,0,0,0,0,0,0,0,0,0,0,0,0,0,0,0,0,0,0,0,0,0,0,0,0,0,0,0,0,0,0,0,0,0,0,0,0,0,0,0,0,0,0,0,0,0,0,0,0,0,0,0,0,0,0,0,0,0,0,0,0,0,0,0,0,0,0,0,0,0,0,0,0,0,0,0,0,0,0,0,0,0,0,0,0,0,0],"id":0,"left_children":[1,3,5,7,9,11,13,15,17,19,21,23,25,27,29,31,33,35,37,39,41,43,45,47,49,51,53,55,57,59,61,63,65,67,69,71,73,75,-1,77,79,81,83,85,87,89,91,93,95,97,99,101,103,105,107,109,111,113,115,117,119,-1,121,123,125,127,129,131,133,135,137,139,-1,141,143,-1,-1,145,147,149,151,153,155,157,159,161,163,165,167,169,171,173,175,177,179,181,183,185,187,189,191,193,195,197,199,201,203,205,207,209,211,213,215,217,219,221,223,225,227,229,231,233,-1,235,237,239,241,243,245,247,249,251,253,255,257,259,261,263,265,267,-1,-1,-1,269,271,273,-1,275,277,-1,-1,279,281,283,285,287,289,291,293,295,297,299,301,303,305,307,-1,309,311,313,315,317,-1,319,321,323,325,327,329,331,333,335,-1,337,339,341,343,345,347,349,351,353,355,357,359,361,363,365,367,369,-1,371,373,375,377,379,381,383,-1,-1,-1,385,387,389,391,393,395,-1,397,399,401,403,405,407,-1,409,-1,411,-1,413,-1,415,-1,-1,417,419,421,423,425,427,429,431,433,435,437,439,441,443,445,447,449,451,453,455,457,459,461,463,465,467,469,471,473,475,-1,477,479,-1,-1,-1,-1,481,483,485,487,489,491,493,495,497,-1,499,501,503,505,507,509,511,513,515,517,519,521,523,525,527,529,531,533,535,537,539,541,543,545,547,549,551,553,555,557,559,561,563,-1,565,567,569,571,573,575,-1,577,579,-1,581,583,585,587,589,-1,591,593,595,597,-1,599,601,603,-1,605,607,609,611,613,615,617,619,621,623,625,627,629,631,633,635,637,639,-1,641,643,-1,645,-1,647,649,651,653,655,657,-1,659,661,663,665,667,669,671,-1,673,-1,675,677,679,-1,681,683,-1,685,687,689,691,693,695,697,-1,699,701,-1,-1,703,-1,705,707,-1,-1,709,711,713,715,717,-1,-1,719,-1,-1,721,-1,-1,-1,-1,-1,-1,-1,-1,-1,-1,-1,-1,-1,-1,-1,-1,-1,-1,-1,-1,-1,-1,-1,-1,-1,-1,-1,-1,-1,-1,-1,-1,-1,-1,-1,-1,-1,-1,-1,-1,-1,-1,-1,-1,-1,-1,-1,-1,-1,-1,-1,-1,-1,-1,-1,-1,-1,-1,-1,-1,-1,-1,-1,-1,-1,-1,-1,-1,-1,-1,-1,-1,-1,-1,-1,-1,-1,-1,-1,-1,-1,-1,-1,-1,-1,-1,-1,-1,-1,-1,-1,-1,-1,-1,-1,-1,-1,-1,-1,-1,-1,-1,-1,-1,-1,-1,-1,-1,-1,-1,-1,-1,-1,-1,-1,-1,-1,-1,-1,-1,-1,-1,-1,-1,-1,-1,-1,-1,-1,-1,-1,-1,-1,-1,-1,-1,-1,-1,-1,-1,-1,-1,-1,-1,-1,-1,-1,-1,-1,-1,-1,-1,-1,-1,-1,-1,-1,-1,-1,-1,-1,-1,-1,-1,-1,-1,-1,-1,-1,-1,-1,-1,-1,-1,-1,-1,-1,-1,-1,-1,-1,-1,-1,-1,-1,-1,-1,-1,-1,-1,-1,-1,-1,-1,-1,-1,-1,-1,-1,-1,-1,-1,-1,-1,-1,-1,-1,-1,-1,-1,-1,-1,-1,-1,-1,-1,-1,-1,-1,-1,-1,-1,-1,-1,-1,-1,-1,-1,-1,-1,-1,-1,-1,-1,-1,-1,-1,-1,-1,-1,-1,-1,-1,-1,-1,-1,-1,-1,-1,-1,-1,-1,-1,-1,-1,-1,-1,-1,-1,-1,-1,-1,-1,-1,-1,-1,-1,-1,-1,-1,-1,-1,-1,-1,-1,-1,-1,-1,-1,-1,-1,-1,-1,-1,-1,-1,-1,-1,-1,-1,-1,-1,-1,-1,-1,-1,-1,-1,-1,-1,-1,-1,-1,-1,-1,-1],"loss_changes":[2.4708582E4,6.643242E3,5.8476094E3,3.633125E2,1.5168865E3,1.3945469E3,4.7140918E2,1.3775781E2,3.602803E1,1.2513391E2,5.261306E2,3.986255E2,1.4773633E2,6.640137E1,2.762378E1,3.1140625E1,4.1694214E1,3.454258E1,3.285019E0,9.059092E1,1.3987494E2,6.7398254E1,1.1805493E2,1.3208765E2,1.4369592E2,1.0853955E2,1.1444006E2,4.4585938E1,3.1203247E1,2.7761475E1,6.5063477E0,1.9009766E1,1.3488281E1,1.0918823E1,2.3638031E1,1.2279231E1,2.9854736E1,1.1016846E0,0E0,5.5673183E1,4.9816055E1,3.1751648E1,2.4866755E1,3.788292E1,3.2981873E1,1.2411017E2,4.9995605E1,3.8211487E1,1.131947E2,1.4275354E2,4.909253E1,7.841931E1,6.827539E1,3.6522827E1,5.1400116E1,8.670593E1,5.6759766E1,2.450879E1,2.7719147E1,1.0439819E1,2.1716644E1,0E0,1.784607E1,7.423828E0,1.0279785E1,4.640625E0,1.0018555E1,7.8065186E0,8.205429E0,1.5743729E1,3.38416E1,4.2134795E0,0E0,1.0720801E1,2.2361694E1,0E0,0E0,8.5398796E1,7.009529E1,5.434022E1,2.7332657E1,3.5598763E1,4.2463562E1,1.5032585E1,2.5786034E1,3.3574738E1,3.5215515E1,1.789847E1,3.579666E1,6.3861023E1,1.4209839E1,3.976021E1,5.547113E1,4.5986862E1,4.1285645E1,1.7011673E1,4.9086304E1,3.8554413E1,7.466376E1,5.0636566E1,3.5696533E1,4.8878937E1,4.3930992E1,2.6683838E1,7.450402E0,3.622473E1,3.8912598E1,2.1145737E1,1.4672485E1,1.380632E1,8.551575E1,3.7239746E1,1.5933105E1,3.4812866E1,2.2744324E1,3.2257446E1,1.3291748E1,1.3614197E1,3.5253906E-1,2.267987E1,3.5657585E1,1.3048462E1,0E0,6.513672E0,2.0291168E1,1.1545776E1,1.871283E1,5.2626953E0,6.4960938E0,2.502539E1,7.845703E0,1.4271118E1,1.1813293E1,8.629398E0,1.1078873E1,3.3316948E1,1.0579163E1,1.4292698E0,5.6938465E1,1.7013717E-1,0E0,0E0,0E0,2.5951538E0,3.7521996E1,2.4937698E1,0E0,3.877056E1,8.427842E0,0E0,0E0,1.1972382E1,4.202314E1,3.372371E1,4.935035E1,3.9180298E1,4.9118988E1,1.3826444E1,2.2160332E1,3.7982086E1,9.541079E0,5.0812714E1,3.0372898E1,2.3321566E1,3.956907E1,2.6388897E1,0E0,5.389679E1,2.4549591E1,5.865196E0,6.8441864E1,2.4288155E1,0E0,6.2532806E0,1.7723953E1,3.0594334E1,4.332422E1,3.7398712E1,5.9993774E1,4.0324768E1,4.508214E1,2.0375847E1,0E0,3.9001312E1,3.7382965E1,4.7648987E1,2.4169006E1,9.887014E1,5.7807068E1,8.432832E0,3.594861E1,4.025786E1,5.9776398E1,2.9832203E1,4.4571594E1,1.8666996E1,4.967578E1,5.347754E1,9.16792E1,6.750169E0,0E0,2.9173462E1,7.8099976E1,4.195508E1,1.2032394E1,2.6288826E1,2.2002876E1,1.5050125E1,0E0,0E0,0E0,5.821997E1,1.780626E1,2.5351318E1,5.668994E1,6.1472412E1,6.3960266E0,0E0,1.1872711E1,9.852722E0,4.162677E1,1.7540773E1,3.399405E1,3.3788147E0,0E0,2.0760117E1,0E0,1.5410767E0,0E0,1.2861771E1,0E0,2.46222E1,0E0,0E0,6.3827515E-1,5.3398438E0,7.678467E0,1.297937E1,2.8578207E1,2.0471367E1,8.323853E0,8.6932304E1,1.4831238E1,3.4312744E0,7.5566406E0,2.4172363E0,7.8789062E0,1.4868164E1,2.9557129E1,1.2302246E1,6.076172E0,9.018311E0,9.37323E0,5.865009E1,6.8345337E0,5.823265E0,9.618404E0,1.5298204E1,2.3800659E-1,2.0378654E1,6.3113174E1,8.728584E0,2.8688744E1,5.184745E0,0E0,4.8691826E1,7.8276695E1,0E0,0E0,0E0,0E0,4.010724E1,5.3762054E-1,2.5411537E1,1.4738808E1,7.143362E1,2.757267E1,4.9652836E1,1.2384586E1,1.4796059E1,0E0,9.080797E0,2.7309517E1,4.7248005E1,3.798152E1,2.850669E1,6.4365005E0,1.6364899E1,1.0209549E1,2.3939606E1,3.2174763E1,1.5752481E1,2.5728657E1,1.5212732E1,3.6354877E1,5.888652E1,1.6879843E1,9.775802E0,1.6687452E1,2.849511E1,3.7232735E1,1.068894E1,4.671782E1,1.8279129E1,1.6487038E1,5.421219E0,4.867666E1,1.7069437E1,8.570489E0,3.2294037E1,3.8066906E1,2.3191168E1,4.239392E1,1.0764812E1,0E0,6.126693E0,3.63237E1,5.2796936E-1,4.1442966E0,3.2579453E1,7.5251076E1,0E0,1.739804E1,1.745066E1,0E0,6.838806E0,2.663755E1,5.2912125E1,1.8348618E1,2.4766588E1,0E0,1.9658508E1,6.1507477E1,1.5699217E1,1.2213623E1,0E0,5.165222E0,1.0569245E1,3.434265E1,0E0,2.210376E1,3.284368E1,1.9288994E1,3.1439453E1,2.9177895E1,1.6992554E1,1.8809555E1,6.9725395E1,5.8095215E1,2.5940092E0,8.120537E-1,4.437863E1,2.2531536E1,1.0067078E1,1.3616802E1,2.95997E1,6.560756E1,7.508713E0,0E0,2.943711E1,2.8870422E1,0E0,2.7312819E1,0E0,5.8222664E1,1.757721E1,4.769675E1,1.8450144E1,6.0257202E1,1.2377846E1,0E0,3.1614437E1,1.3008301E1,6.385824E0,5.6228027E0,2.6733849E1,3.7024902E1,1.6382393E1,0E0,2.2067667E1,0E0,1.5590335E1,4.7377632E1,7.0121155E0,0E0,4.679982E1,5.7387733E1,0E0,2.2619629E-1,5.5644714E1,2.1040771E1,2.4966675E1,4.532321E1,7.630371E0,7.0884743E0,0E0,6.632538E0,1.2347473E1,0E0,0E0,1.1137817E1,0E0,4.8461975E1,1.1020767E1,0E0,0E0,9.8421E0,2.0266739E1,1.4267792E1,2.6683907E1,1.3702087E0,0E0,0E0,7.836508E0,0E0,0E0,7.5035267E0,0E0,0E0,0E0,0E0,0E0,0E0,0E0,0E0,0E0,0E0,0E0,0E0,0E0,0E0,0E0,0E0,0E0,0E0,0E0,0E0,0E0,0E0,0E0,0E0,0E0,0E0,0E0,0E0,0E0,0E0,0E0,0E0,0E0,0E0,0E0,0E0,0E0,0E0,0E0,0E0,0E0,0E0,0E0,0E0,0E0,0E0,0E0,0E0,0E0,0E0,0E0,0E0,0E0,0E0,0E0,0E0,0E0,0E0,0E0,0E0,0E0,0E0,0E0,0E0,0E0,0E0,0E0,0E0,0E0,0E0,0E0,0E0,0E0,0E0,0E0,0E0,0E0,0E0,0E0,0E0,0E0,0E0,0E0,0E0,0E0,0E0,0E0,0E0,0E0,0E0,0E0,0E0,0E0,0E0,0E0,0E0,0E0,0E0,0E0,0E0,0E0,0E0,0E0,0E0,0E0,0E0,0E0,0E0,0E0,0E0,0E0,0E0,0E0,0E0,0E0,0E0,0E0,0E0,0E0,0E0,0E0,0E0,0E0,0E0,0E0,0E0,0E0,0E0,0E0,0E0,0E0,0E0,0E0,0E0,0E0,0E0,0E0,0E0,0E0,0E0,0E0,0E0,0E0,0E0,0E0,0E0,0E0,0E0,0E0,0E0,0E0,0E0,0E0,0E0,0E0,0E0,0E0,0E0,0E0,0E0,0E0,0E0,0E0,0E0,0E0,0E0,0E0,0E0,0E0,0E0,0E0,0E0,0E0,0E0,0E0,0E0,0E0,0E0,0E0,0E0,0E0,0E0,0E0,0E0,0E0,0E0,0E0,0E0,0E0,0E0,0E0,0E0,0E0,0E0,0E0,0E0,0E0,0E0,0E0,0E0,0E0,0E0,0E0,0E0,0E0,0E0,0E0,0E0,0E0,0E0,0E0,0E0,0E0,0E0,0E0,0E0,0E0,0E0,0E0,0E0,0E0,0E0,0E0,0E0,0E0,0E0,0E0,0E0,0E0,0E0,0E0,0E0,0E0,0E0,0E0,0E0,0E0,0E0,0E0,0E0,0E0,0E0,0E0,0E0,0E0,0E0,0E0,0E0,0E0,0E0,0E0,0E0,0E0,0E0,0E0,0E0,0E0,0E0,0E0,0E0,0E0,0E0,0E0,0E0,0E0,0E0,0E0,0E0,0E0,0E0,0E0,0E0,0E0,0E0,0E0,0E0,0E0,0E0,0E0,0E0,0E0,0E0,0E0,0E0,0E0,0E0,0E0,0E0,0E0,0E0,0E0,0E0,0E0,0E0,0E0,0E0,0E0,0E0,0E0,0E0,0E0,0E0,0E0,0E0,0E0,0E0],"parents":[2147483647,0,0,1,1,2,2,3,3,4,4,5,5,6,6,7,7,8,8,9,9,10,10,11,11,12,12,13,13,14,14,15,15,16,16,17,17,18,18,19,19,20,20,21,21,22,22,23,23,24,24,25,25,26,26,27,27,28,28,29,29,30,30,31,31,32,32,33,33,34,34,35,35,36,36,37,37,39,39,40,40,41,41,42,42,43,43,44,44,45,45,46,46,47,47,48,48,49,49,50,50,51,51,52,52,53,53,54,54,55,55,56,56,57,57,58,58,59,59,60,60,62,62,63,63,64,64,65,65,66,66,67,67,68,68,69,69,70,70,71,71,73,73,74,74,77,77,78,78,79,79,80,80,81,81,82,82,83,83,84,84,85,85,86,86,87,87,88,88,89,89,90,90,91,91,92,92,93,93,94,94,95,95,96,96,97,97,98,98,99,99,100,100,101,101,102,102,103,103,104,104,105,105,106,106,107,107,108,108,109,109,110,110,111,111,112,112,113,113,114,114,115,115,116,116,117,117,118,118,119,119,120,120,121,121,123,123,124,124,125,125,126,126,127,127,128,128,129,129,130,130,131,131,132,132,133,133,134,134,135,135,136,136,137,137,138,138,139,139,143,143,144,144,145,145,147,147,148,148,151,151,152,152,153,153,154,154,155,155,156,156,157,157,158,158,159,159,160,160,161,161,162,162,163,163,164,164,165,165,167,167,168,168,169,169,170,170,171,171,173,173,174,174,175,175,176,176,177,177,178,178,179,179,180,180,181,181,183,183,184,184,185,185,186,186,187,187,188,188,189,189,190,190,191,191,192,192,193,193,194,194,195,195,196,196,197,197,198,198,199,199,201,201,202,202,203,203,204,204,205,205,206,206,207,207,211,211,212,212,213,213,214,214,215,215,216,216,218,218,219,219,220,220,221,221,222,222,223,223,225,225,227,227,229,229,231,231,234,234,235,235,236,236,237,237,238,238,239,239,240,240,241,241,242,242,243,243,244,244,245,245,246,246,247,247,248,248,249,249,250,250,251,251,252,252,253,253,254,254,255,255,256,256,257,257,258,258,259,259,260,260,261,261,262,262,263,263,265,265,266,266,271,271,272,272,273,273,274,274,275,275,276,276,277,277,278,278,279,279,281,281,282,282,283,283,284,284,285,285,286,286,287,287,288,288,289,289,290,290,291,291,292,292,293,293,294,294,295,295,296,296,297,297,298,298,299,299,300,300,301,301,302,302,303,303,304,304,305,305,306,306,307,307,308,308,309,309,310,310,311,311,312,312,313,313,315,315,316,316,317,317,318,318,319,319,320,320,322,322,323,323,325,325,326,326,327,327,328,328,329,329,331,331,332,332,333,333,334,334,336,336,337,337,338,338,340,340,341,341,342,342,343,343,344,344,345,345,346,346,347,347,348,348,349,349,350,350,351,351,352,352,353,353,354,354,355,355,356,356,357,357,359,359,360,360,362,362,364,364,365,365,366,366,367,367,368,368,369,369,371,371,372,372,373,373,374,374,375,375,376,376,377,377,379,379,381,381,382,382,383,383,385,385,386,386,388,388,389,389,390,390,391,391,392,392,393,393,394,394,396,396,397,397,400,400,402,402,403,403,406,406,407,407,408,408,409,409,410,410,413,413,416,416],"right_children":[2,4,6,8,10,12,14,16,18,20,22,24,26,28,30,32,34,36,38,40,42,44,46,48,50,52,54,56,58,60,62,64,66,68,70,72,74,76,-1,78,80,82,84,86,88,90,92,94,96,98,100,102,104,106,108,110,112,114,116,118,120,-1,122,124,126,128,130,132,134,136,138,140,-1,142,144,-1,-1,146,148,150,152,154,156,158,160,162,164,166,168,170,172,174,176,178,180,182,184,186,188,190,192,194,196,198,200,202,204,206,208,210,212,214,216,218,220,222,224,226,228,230,232,234,-1,236,238,240,242,244,246,248,250,252,254,256,258,260,262,264,266,268,-1,-1,-1,270,272,274,-1,276,278,-1,-1,280,282,284,286,288,290,292,294,296,298,300,302,304,306,308,-1,310,312,314,316,318,-1,320,322,324,326,328,330,332,334,336,-1,338,340,342,344,346,348,350,352,354,356,358,360,362,364,366,368,370,-1,372,374,376,378,380,382,384,-1,-1,-1,386,388,390,392,394,396,-1,398,400,402,404,406,408,-1,410,-1,412,-1,414,-1,416,-1,-1,418,420,422,424,426,428,430,432,434,436,438,440,442,444,446,448,450,452,454,456,458,460,462,464,466,468,470,472,474,476,-1,478,480,-1,-1,-1,-1,482,484,486,488,490,492,494,496,498,-1,500,502,504,506,508,510,512,514,516,518,520,522,524,526,528,530,532,534,536,538,540,542,544,546,548,550,552,554,556,558,560,562,564,-1,566,568,570,572,574,576,-1,578,580,-1,582,584,586,588,590,-1,592,594,596,598,-1,600,602,604,-1,606,608,610,612,614,616,618,620,622,624,626,628,630,632,634,636,638,640,-1,642,644,-1,646,-1,648,650,652,654,656,658,-1,660,662,664,666,668,670,672,-1,674,-1,676,678,680,-1,682,684,-1,686,688,690,692,694,696,698,-1,700,702,-1,-1,704,-1,706,708,-1,-1,710,712,714,716,718,-1,-1,720,-1,-1,722,-1,-1,-1,-1,-1,-1,-1,-1,-1,-1,-1,-1,-1,-1,-1,-1,-1,-1,-1,-1,-1,-1,-1,-1,-1,-1,-1,-1,-1,-1,-1,-1,-1,-1,-1,-1,-1,-1,-1,-1,-1,-1,-1,-1,-1,-1,-1,-1,-1,-1,-1,-1,-1,-1,-1,-1,-1,-1,-1,-1,-1,-1,-1,-1,-1,-1,-1,-1,-1,-1,-1,-1,-1,-1,-1,-1,-1,-1,-1,-1,-1,-1,-1,-1,-1,-1,-1,-1,-1,-1,-1,-1,-1,-1,-1,-1,-1,-1,-1,-1,-1,-1,-1,-1,-1,-1,-1,-1,-1,-1,-1,-1,-1,-1,-1,-1,-1,-1,-1,-1,-1,-1,-1,-1,-1,-1,-1,-1,-1,-1,-1,-1,-1,-1,-1,-1,-1,-1,-1,-1,-1,-1,-1,-1,-1,-1,-1,-1,-1,-1,-1,-1,-1,-1,-1,-1,-1,-1,-1,-1,-1,-1,-1,-1,-1,-1,-1,-1,-1,-1,-1,-1,-1,-1,-1,-1,-1,-1,-1,-1,-1,-1,-1,-1,-1,-1,-1,-1,-1,-1,-1,-1,-1,-1,-1,-1,-1,-1,-1,-1,-1,-1,-1,-1,-1,-1,-1,-1,-1,-1,-1,-1,-1,-1,-1,-1,-1,-1,-1,-1,-1,-1,-1,-1,-1,-1,-1,-1,-1,-1,-1,-1,-1,-1,-1,-1,-1,-1,-1,-1,-1,-1,-1,-1,-1,-1,-1,-1,-1,-1,-1,-1,-1,-1,-1,-1,-1,-1,-1,-1,-1,-1,-1,-1,-1,-1,-1,-1,-1,-1,-1,-1,-1,-1,-1,-1,-1,-1,-1,-1,-1,-1,-1,-1,-1,-1,-1,-1,-1,-1,-1,-1,-1,-1,-1,-1,-1,-1,-1,-1,-1,-1,-1,-1,-1,-1],"split_conditions":[3E0,2E0,1.2753014E3,7.433655E2,5.627766E2,5E0,1E1,3.9699E2,1.1826544E-1,5.02736E1,8.131035E2,8.131035E2,6E0,8E0,1.2E1,4.5680836E1,5.627766E2,3.27E2,3.8E1,5.9E1,4.704587E2,1.18524596E-1,4.63E2,4E0,5.1E1,6.89645E2,5.3E1,4E0,4.5E1,1.1E1,1.1732109E-1,1.2199301E-1,9.16E2,5.6E1,6.89645E2,9.12866E2,2.3E1,3.2E1,9.3506575E-1,1.1826544E-1,1.1679851E-1,1.3988022E2,3.7E1,3.8E1,2E1,1.2753014E3,3E1,2.9E1,1.04742E2,4E0,5.4E1,3E1,6E1,3.1E1,6E1,2.6E1,4.67E2,2.8E1,1.1699827E-1,1.1699827E-1,4E1,9.3513364E-1,5.5E1,6E1,4.5E1,6.733911E1,1.1699827E-1,1.18524596E-1,6E1,2.8E1,3.4E1,2.63E2,3.7953022E-1,8.67E2,3.7E1,7.597902E-1,5.8140916E-1,4.94816E1,4.6E1,1.92096E1,1.18524596E-1,1.27987915E2,2.847431E2,2.3E1,3.9E1,1.1699827E-1,6.89645E2,5.76E2,2.7E1,1.9E1,2.16E2,7.06E2,1.1679851E-1,2.8E1,6.61E2,1.85E2,1.1699827E-1,2.2E1,2.4E1,1.1596282E-1,1.1826544E-1,3.888524E2,4.6E1,2.3E1,1.0528986E3,1.19316466E-1,5.1E1,5.5E1,1.0528986E3,1.1596282E-1,1.7803702E3,4.6E1,4.6E1,2E1,3.6E1,1.1826544E-1,2.94E2,3.7E1,3.1E1,1.1826544E-1,5E1,2.1E1,2.6159477E-1,1.173E3,3.789716E1,2.2E1,9.2E-1,2E1,7.61436E1,4.5E1,1.53594E2,1.1826544E-1,2E1,1.1679851E-1,1.1826544E-1,1.1826544E-1,1.1679851E-1,2.6E1,1.1826544E-1,2.16E2,1.4708504E-1,-1.6454034E-1,3.9987198E-1,4.46E2,7.34E2,3.06E2,9.350736E-1,9.66E0,1.9988E1,9.350232E-1,-1.645626E-1,6.79E2,3.39E2,2E1,1.2199301E-1,5.5E1,1.1699827E-1,2E1,5.379264E2,1.19316466E-1,1.1826544E-1,2.3E1,2.9E1,5.7E1,4E1,1.9E1,-1.645644E-1,4.38E2,2.9E1,1.1699827E-1,2.1E1,2.8E1,9.351097E-1,2.6E1,1.9E1,9.42E2,1.2199301E-1,1.1712159E-1,6.89645E2,5.379264E2,3.9E1,3.3E1,9.350997E-1,1.82512E2,1.1438215E2,2.1E1,1.19316466E-1,1.9E1,9.12866E2,1.85E2,1.19316466E-1,3.8E2,4E0,2.7E1,2.01E2,1.1596282E-1,1.1596282E-1,1.1826544E-1,2.6E1,1.1732109E-1,-1.6455579E-1,2E1,8.131035E2,1.1699827E-1,2.01E2,5.4E1,1.19316466E-1,2.98E2,9.350686E-1,4.4971848E-1,9.3511647E-1,1.1826544E-1,3.2E1,2.3E1,1.18524596E-1,3.9E1,5.4E1,9.351127E-1,4.09E2,1.2199301E-1,1.1712159E-1,1.55E2,1.7803702E3,5E1,9.3508E-1,1.04E2,9.351146E-1,2.9E1,9.351254E-1,1.33E2,9.3511933E-1,1.7803702E3,9.350907E-1,3.9987198E-1,1.2E1,3.2952E1,2.24224E1,2.15704E1,1.1826544E-1,2.9631563E1,1.9988E1,1.1826544E-1,5.1E1,1.1826544E-1,2.1E1,5.4E1,9.30036E1,7.21E1,3.888524E2,5.5E1,1.7536249E2,1.1679851E-1,4.0612E2,5.0112592E2,6.43E2,5.7E1,4.704587E2,1.1679851E-1,9.22E2,6.501857E2,1.19316466E-1,5.6E1,1.1712159E-1,3.39E2,-1.645649E-1,1.1596282E-1,4.9E1,-1.6454561E-1,-9.651339E-2,6.709704E-1,9.3508804E-1,4.4E1,8.61E2,2.56608E1,9.77E2,4.5E1,1.206E1,1.1679851E-1,3.6112E1,3.59E2,9.350516E-1,2.24224E1,6.02E2,9.992E1,5.3E1,1.1679851E-1,1.04E2,1.1679851E-1,2.781351E2,2.3E1,4E1,4.8520657E2,7.16E2,2.4E1,7.06E2,3.8E1,7.39E2,5.6E1,4E1,5.32E2,6.501857E2,1.9E1,3E1,4.9E1,6.501857E2,2.79E2,4.1E1,7.433655E2,1.2199301E-1,5.88945E2,2.2E1,7.06E2,3.3E1,2.28E2,9.350818E-1,3.88E2,2.7E1,8.2E1,7.1E1,1.0528986E3,1.0528986E3,1.8638702E-1,2.4E1,4.9E1,-1.6454408E-1,1.1712159E-1,9.12866E2,1.1699827E-1,1.2219043E2,1.44351E2,9.3504214E-1,3.5E1,1.2199301E-1,1.18524596E-1,7.433655E2,8.4592246E-2,8.2E1,1.6352298E2,2.450379E2,9.3503034E-1,1.9E1,1.1826544E-1,1.0528986E3,2.71E2,2.3E1,1.0528986E3,1.1826544E-1,4.55E2,4.7E1,1.0528986E3,3.23E2,1.04E2,4E0,6E1,5.9E1,1.1596282E-1,6E1,2.1E1,8.116318E-1,2.8E1,6.501857E2,-1.645615E-1,4E1,9.35078E-1,1.1712159E-1,1.19316466E-1,1.1699827E-1,1.18E2,1.1679851E-1,1.1596282E-1,-1.6453804E-1,7E0,8E0,6.501857E2,5.7E1,1.0528986E3,3.59E2,1.2199301E-1,9.351013E-1,1.19316466E-1,9.350471E-1,4.46E2,9.12866E2,8E0,9.3503034E-1,3.9E1,4.5E1,3.999014E-1,2.98E2,1.7803702E3,6E0,1.7803702E3,1.1826544E-1,1.18524596E-1,1.7803702E3,9.3511623E-1,5.23E2,1.2199301E-1,9.350516E-1,9.3512714E-1,1.1826544E-1,9.3511695E-1,1.1826544E-1,5.3E1,-1.6455029E-1,9.350941E-1,5.6E1,1.1732109E-1,5.2E1,1.1679851E-1,1.1826544E-1,9.351131E-1,7.8502584E-1,3.2E1,9.3504214E-1,9.3503034E-1,1.1596282E-1,8.302532E-1,9.351229E-1,-1.12638384E-1,-1.17076814E-1,-1.3310097E-1,-1.12800635E-1,-8.956325E-2,-1.3276523E-1,-9.4198994E-2,5.836907E-2,-1.1275928E-1,-3.6750738E-2,-1.0242327E-1,-1.2076095E-1,-6.787221E-2,9.35078E-1,-7.521202E-2,-1.0694264E-1,-1.4382547E-1,-1.2202222E-1,-9.368417E-2,-1.1954617E-1,-1.12645715E-1,-1.0316304E-1,-1.214102E-1,-1.1637823E-1,-1.2768117E-1,-1.0444374E-1,-1.301435E-1,1.5448947E-1,-1.2339699E-1,-1.0547336E-1,-1.3937244E-1,-1.261045E-1,-1.2437679E-1,-9.6594E-2,-3.6466844E-2,-8.608753E-2,-7.941369E-2,5.8145064E-1,-1.034806E-1,-1.271459E-1,-2.8424505E-3,-1.3435286E-1,-2.8949719E-2,-8.7521546E-2,1.23945E-1,-1.07048064E-1,-1.6456881E-1,-1.294667E-1,-1.10869095E-1,1.5823366E-1,-1.2136521E-2,3.6419252E-1,-1.3074505E-1,7.156791E-2,-1.068153E-3,-9.102571E-2,-1.6456182E-1,4.806429E-2,6.915635E-1,-7.705709E-2,8.079368E-1,1.0804664E-1,-1.163332E-1,6.054163E-1,8.0386287E-1,9.3505937E-1,2.8983904E-2,-9.467047E-2,2.6318943E-2,-1.17134884E-1,9.350989E-1,-1.0030353E-1,-1.15469925E-1,1.1803458E-1,9.3504214E-1,1.5033393E-2,-6.952501E-2,2.0439912E-2,5.8838767E-1,1.711559E-1,-1.6455527E-1,1.9378908E-1,8.753355E-1,1.9378908E-1,1.1586202E-1,-5.036616E-2,-4.286451E-2,-1.1257373E-3,-3.5927385E-2,5.486921E-2,-2.5632798E-3,-1.3452677E-1,-2.8440246E-2,-4.882613E-2,-7.589175E-2,-1.6193838E-1,-1.0208054E-1,-4.429695E-2,-3.354157E-2,-1.0895352E-3,2.941638E-1,-3.4577407E-2,6.430768E-2,4.364875E-1,-1.3486795E-1,-2.4835244E-2,2.087812E-2,3.7700975E-1,9.2483535E-2,5.3841054E-1,-1.472657E-1,4.3214452E-1,2.9751137E-2,-3.5925422E-2,-1.0127673E-1,6.3317224E-2,3.1249246E-1,7.951198E-1,2.4919857E-1,5.517912E-2,-1.645615E-1,2.7148694E-2,9.350556E-1,1.2095566E-1,-1.2965267E-2,6.833663E-2,1.8534848E-2,-1.4658014E-1,7.863037E-2,-1.645656E-1,5.2992517E-1,1.0425971E-1,4.8067176E-1,-6.831785E-2,8.1096664E-2,-1.6456091E-1,7.244074E-1,3.2198688E-1,-8.843706E-2,3.4774354E-1,-9.480107E-2,3.2112536E-1,3.3023047E-1,1.2842685E-1,3.0246034E-1,9.350232E-1,-1.645644E-1,9.007455E-2,4.2040494E-1,2.1144187E-1,8.116318E-1,9.3507123E-1,5.363185E-1,1.8936548E-1,4.218893E-1,-4.9196392E-2,-1.6455826E-1,9.350686E-1,8.3031267E-1,3.858145E-1,3.5203892E-1,9.3504214E-1,7.151541E-1,8.8623166E-1,1.6444366E-1,7.951026E-1,6.587306E-2,1.9526045E-1,-5.893438E-2,4.30244E-2,2.3308933E-1,-7.666985E-2,1.0918467E-1,7.193169E-2,1.0765185E-1,2.6498222E-1,-1.07388504E-1,3.354692E-2,6.241559E-2,2.4808447E-1,5.486548E-1,9.350471E-1,6.489985E-2,-1.64562E-1,4.625373E-1,1.8658681E-1,4.4800642E-1,1.0650027E-1,5.643964E-2,3.2950062E-1,4.0610012E-1,8.770014E-1,3.369616E-2,1.2779559E-1,7.597902E-1,1.5580204E-1,7.9743934E-1,3.6622345E-1,1.385458E-1,-2.6064318E-2,1.442092E-1,6.615946E-1,4.1627243E-1,1.6357917E-1,-1.645482E-1,9.0054154E-2,3.3865076E-1,1.7774484E-1,3.5326466E-1,7.0242554E-1,1.4876598E-1,5.746647E-1,2.8706864E-1,7.111165E-2,-3.324155E-2,2.9952946E-1,2.7462596E-1,6.8267673E-1,1.7372587E-1,9.3508947E-1,-5.046117E-2,1.8525772E-1,2.7163047E-1,8.116779E-1,8.723689E-1,3.1279042E-1,1.5928498E-1,-2.534264E-2,4.2665843E-2,3.6125442E-1,8.7420255E-1,4.1654372E-1,6.846295E-1,6.489735E-2,1.8555686E-1,-1.2893364E-1,1.9525565E-1,4.0737522E-1,5.8781346E-3,4.6076846E-1,1.06080085E-1,9.3504214E-1,6.497236E-1,8.841289E-1,1.4210732E-1,-1.6455029E-1,5.6021464E-1,9.3509305E-1,1.6232936E-1,4.5108885E-1,4.387614E-1,7.8659207E-1,3.999195E-1,8.770014E-1,3.941437E-1,-1.03676155E-1,-1.842646E-2,5.363185E-1,9.3507123E-1,1.2848607E-1,4.8897365E-1,1.319158E-1,2.6374716E-1,6.929535E-1,3.4570077E-1,-5.3795442E-2,9.350962E-1,8.753355E-1,4.5473877E-1,7.794729E-1,4.7927916E-1,3.9496633E-1,5.487114E-1,6.897052E-1,5.469963E-1,2.6415116E-1,6.734134E-1,8.870674E-1,-2.0543026E-2,3.2922906E-1,4.7131E-1,8.353101E-1,4.8960054E-1,9.350471E-1,4.5294023E-1,9.3507123E-1,9.9756025E-2,7.2201926E-1,-3.6430016E-2,4.9641505E-1,6.4880915E-2,4.9641505E-1,3.8913992E-1,8.616758E-1,1.2146592E-1,5.674451E-1,7.2439164E-1,3.3525854E-2,7.733864E-1,9.350919E-1,2.1511495E-1,6.2134075E-1,-1.0365621E-1,2.864023E-1],"split_indices":[1,1,2,2,2,1,1,2,3,2,2,2,1,1,1,2,2,0,4,4,2,5,0,1,4,2,4,1,4,1,5,5,0,4,2,2,4,4,0,3,5,2,4,4,4,2,4,4,2,1,4,4,4,4,4,4,0,4,5,5,4,0,4,4,4,2,5,5,4,4,4,0,0,0,4,0,0,2,4,2,5,2,2,4,4,5,2,0,4,4,0,0,5,4,0,0,5,4,4,5,3,2,4,4,2,5,4,4,2,5,2,4,4,4,4,3,0,4,4,3,4,4,0,0,2,4,2,4,2,4,2,3,4,5,3,3,5,4,3,0,0,0,0,0,0,0,0,2,2,0,0,0,0,4,5,4,5,4,2,5,3,4,4,4,4,4,0,0,4,5,4,4,0,4,4,0,5,5,2,2,4,4,0,2,2,4,5,4,2,0,5,0,1,4,0,5,5,3,4,5,0,4,2,5,0,4,5,0,0,0,0,3,4,4,5,4,4,0,0,5,5,0,2,4,0,0,0,4,0,0,0,2,0,0,0,2,2,2,3,2,2,3,4,3,4,4,2,2,2,4,2,5,2,2,0,4,2,5,0,2,5,4,5,0,0,5,4,0,0,0,0,4,0,2,0,4,2,5,2,0,0,2,0,2,4,5,0,5,2,4,4,2,0,4,0,4,0,4,4,0,2,4,4,4,2,0,4,2,5,2,4,0,4,0,0,0,4,0,0,2,2,0,4,4,0,5,2,5,2,2,0,4,5,5,2,0,0,2,2,0,4,3,2,0,4,2,3,0,4,2,0,0,1,4,4,5,4,4,0,4,2,0,4,0,5,5,5,0,5,5,0,1,1,2,0,2,0,5,0,5,0,0,2,1,0,4,4,0,0,2,1,2,3,5,2,0,0,5,0,0,3,0,3,4,0,0,4,5,4,5,3,0,0,4,0,0,5,0,0,0,0,0,0,0,0,0,0,0,0,0,0,0,0,0,0,0,0,0,0,0,0,0,0,0,0,0,0,0,0,0,0,0,0,0,0,0,0,0,0,0,0,0,0,0,0,0,0,0,0,0,0,0,0,0,0,0,0,0,0,0,0,0,0,0,0,0,0,0,0,0,0,0,0,0,0,0,0,0,0,0,0,0,0,0,0,0,0,0,0,0,0,0,0,0,0,0,0,0,0,0,0,0,0,0,0,0,0,0,0,0,0,0,0,0,0,0,0,0,0,0,0,0,0,0,0,0,0,0,0,0,0,0,0,0,0,0,0,0,0,0,0,0,0,0,0,0,0,0,0,0,0,0,0,0,0,0,0,0,0,0,0,0,0,0,0,0,0,0,0,0,0,0,0,0,0,0,0,0,0,0,0,0,0,0,0,0,0,0,0,0,0,0,0,0,0,0,0,0,0,0,0,0,0,0,0,0,0,0,0,0,0,0,0,0,0,0,0,0,0,0,0,0,0,0,0,0,0,0,0,0,0,0,0,0,0,0,0,0,0,0,0,0,0,0,0,0,0,0,0,0,0,0,0,0,0,0,0,0,0,0,0,0,0,0,0,0,0,0,0,0,0,0,0,0,0,0,0,0,0,0,0,0,0,0,0,0,0,0,0,0,0,0,0,0,0,0,0,0,0,0,0,0,0],"split_type":[0,0,0,0,0,0,0,0,0,0,0,0,0,0,0,0,0,0,0,0,0,0,0,0,0,0,0,0,0,0,0,0,0,0,0,0,0,0,0,0,0,0,0,0,0,0,0,0,0,0,0,0,0,0,0,0,0,0,0,0,0,0,0,0,0,0,0,0,0,0,0,0,0,0,0,0,0,0,0,0,0,0,0,0,0,0,0,0,0,0,0,0,0,0,0,0,0,0,0,0,0,0,0,0,0,0,0,0,0,0,0,0,0,0,0,0,0,0,0,0,0,0,0,0,0,0,0,0,0,0,0,0,0,0,0,0,0,0,0,0,0,0,0,0,0,0,0,0,0,0,0,0,0,0,0,0,0,0,0,0,0,0,0,0,0,0,0,0,0,0,0,0,0,0,0,0,0,0,0,0,0,0,0,0,0,0,0,0,0,0,0,0,0,0,0,0,0,0,0,0,0,0,0,0,0,0,0,0,0,0,0,0,0,0,0,0,0,0,0,0,0,0,0,0,0,0,0,0,0,0,0,0,0,0,0,0,0,0,0,0,0,0,0,0,0,0,0,0,0,0,0,0,0,0,0,0,0,0,0,0,0,0,0,0,0,0,0,0,0,0,0,0,0,0,0,0,0,0,0,0,0,0,0,0,0,0,0,0,0,0,0,0,0,0,0,0,0,0,0,0,0,0,0,0,0,0,0,0,0,0,0,0,0,0,0,0,0,0,0,0,0,0,0,0,0,0,0,0,0,0,0,0,0,0,0,0,0,0,0,0,0,0,0,0,0,0,0,0,0,0,0,0,0,0,0,0,0,0,0,0,0,0,0,0,0,0,0,0,0,0,0,0,0,0,0,0,0,0,0,0,0,0,0,0,0,0,0,0,0,0,0,0,0,0,0,0,0,0,0,0,0,0,0,0,0,0,0,0,0,0,0,0,0,0,0,0,0,0,0,0,0,0,0,0,0,0,0,0,0,0,0,0,0,0,0,0,0,0,0,0,0,0,0,0,0,0,0,0,0,0,0,0,0,0,0,0,0,0,0,0,0,0,0,0,0,0,0,0,0,0,0,0,0,0,0,0,0,0,0,0,0,0,0,0,0,0,0,0,0,0,0,0,0,0,0,0,0,0,0,0,0,0,0,0,0,0,0,0,0,0,0,0,0,0,0,0,0,0,0,0,0,0,0,0,0,0,0,0,0,0,0,0,0,0,0,0,0,0,0,0,0,0,0,0,0,0,0,0,0,0,0,0,0,0,0,0,0,0,0,0,0,0,0,0,0,0,0,0,0,0,0,0,0,0,0,0,0,0,0,0,0,0,0,0,0,0,0,0,0,0,0,0,0,0,0,0,0,0,0,0,0,0,0,0,0,0,0,0,0,0,0,0,0,0,0,0,0,0,0,0,0,0,0,0,0,0,0,0,0,0,0,0,0,0,0,0,0,0,0,0,0,0,0,0,0,0,0,0,0,0,0,0,0,0,0,0,0,0,0,0,0,0,0,0,0,0,0,0,0,0,0,0,0,0,0,0,0,0,0,0,0,0,0,0,0,0,0,0,0,0,0,0,0,0,0,0,0,0,0,0,0,0,0,0,0,0,0,0,0,0,0,0,0,0,0,0,0,0,0,0,0,0,0],"sum_hessian":[1.4409408E5,1.3777292E5,6.321158E3,1.2260073E5,1.5172196E4,5.586113E3,7.3504535E2,1.22575086E5,2.5638859E1,1.3992084E4,1.1801124E3,4.9932603E3,5.928524E2,6.344971E2,1.0054827E2,1.1849145E5,4.0836333E3,2.1244303E1,4.394557E0,6.946866E2,1.3297397E4,9.655453E2,2.1456712E2,4.198316E3,7.949445E2,3.9011493E2,2.0273746E2,5.290474E2,1.05449646E2,5.1827374E1,4.87209E1,3.1964754E4,8.65267E4,3.3853538E3,6.9827954E2,6.432416E0,1.4811887E1,2.7838633E0,1.6106939E0,6.658436E2,2.8842918E1,1.2384748E4,9.126499E2,6.508402E2,3.1470508E2,1.494346E2,6.5132515E1,3.3275396E3,8.707763E2,6.358362E2,1.5910832E2,1.5914615E2,2.3096878E2,1.5773683E2,4.500063E1,6.3657036E1,4.653904E2,6.661576E1,3.883388E1,3.0799341E1,2.1028034E1,3.704596E1,1.1674941E1,2.8480021E4,3.4847317E3,7.0558586E4,1.5968115E4,3.02789E3,3.5746365E2,6.361378E2,6.2141716E1,4.669177E0,1.7632391E0,2.827475E0,1.1984411E1,1.5967535E0,1.1871097E0,3.3577786E2,3.300658E2,8.005669E0,2.0837248E1,3.1741975E3,9.21055E3,4.3313397E2,4.795159E2,2.5620435E2,3.946359E2,2.5833418E1,2.8887164E2,1.3939824E2,1.00363655E1,3.09931E1,3.4139412E1,8.913082E2,2.4362314E3,7.291734E0,8.6348456E2,4.0579007E2,2.3004613E2,4.773292E1,1.11375404E2,3.8636127E1,1.20510025E2,2.2039015E2,1.0578635E1,4.9208397E1,1.0852843E2,3.7683605E1,7.317025E0,7.0790467E0,5.6577988E1,4.3760495E2,2.778546E1,3.5023224E1,3.1592537E1,1.2904862E1,2.5929018E1,1.3968107E1,1.6831232E1,1.15128355E1,9.515199E0,1.0635996E1,1.0389448E0,2.7825254E4,6.547687E2,2.2514675E3,1.233264E3,1.1534849E4,5.902374E4,5.2851235E3,1.0682991E4,1.9693612E3,1.0585288E3,2.839308E2,7.353286E1,1.579152E2,4.782226E2,1.9886518E1,4.22552E1,3.248469E0,1.4207077E0,1.78156E0,1.0459151E0,3.4087842E0,8.575627E0,3.3396585E2,1.8120306E0,1.8402446E2,1.4604132E2,1.0066837E0,6.9989853E0,1.0401599E1,1.043565E1,2.7629575E3,4.1124008E2,5.411414E3,3.799136E3,9.914902E1,3.3398495E2,3.5404377E1,4.441115E2,9.717549E1,1.5902884E2,2.6559106E2,1.2904482E2,1.667111E1,9.162308E0,4.5928852E1,2.4294281E2,4.19322E0,1.3520502E2,5.808295E0,4.228071E0,2.1422138E1,9.570961E0,9.24416E0,2.4895254E1,8.015941E2,8.971407E1,2.2271262E3,2.0910509E2,4.204571E0,3.0871632E0,2.5914215E2,6.043424E2,4.3721115E1,3.6206897E2,6.166397E1,1.6838216E2,6.043683E0,4.1689236E1,6.505702E1,4.6318382E1,1.1807567E1,2.682856E1,7.34106E1,4.709943E1,1.939384E1,2.009963E2,6.8882613E0,3.6903741E0,4.0151634E1,9.056764E0,9.949875E1,9.029682E0,9.908312E0,2.7775293E1,5.639219E0,1.6778061E0,1.4416183E0,5.6374288E0,4.9586964E1,6.991024E0,2.8298337E2,1.546216E2,1.790164E1,9.883821E0,4.7649693E0,3.0258253E1,1.5722586E1,1.5869951E1,6.0576234E0,6.8472395E0,2.3915651E1,2.0133674E0,8.800465E0,5.167643E0,6.697284E0,1.0133949E1,4.9358354E0,6.577E0,7.032046E0,2.483153E0,1.0459151E0,9.590081E0,2.6361725E4,1.4635286E3,5.4560046E2,1.0916825E2,2.9011667E2,1.961351E3,1.4921811E1,1.2183423E3,5.655377E2,1.0969311E4,3.9651924E3,5.5058547E4,3.3099475E3,1.975176E3,6.242098E3,4.4408936E3,1.0468475E3,9.2251373E2,5.477152E1,1.00375726E3,5.1723587E1,2.3220721E2,3.0513945E1,4.3018917E1,8.153415E1,7.638106E1,9.601764E1,3.8220496E2,9.83343E0,1.0053088E1,2.7024908E1,1.523029E1,2.1633227E0,1.0851464E0,1.0598555E0,2.3489285E0,6.0323324E0,2.5432951E0,1.761257E2,1.5784013E2,5.3175983E0,1.7870686E2,2.4630577E1,1.2141075E2,9.059354E0,1.3422449E0,5.828406E0,4.6072445E0,1.3439049E2,2.628567E3,3.5836423E2,5.2875847E1,4.666772E3,7.446421E2,1.4033268E3,2.395809E3,4.6206253E1,5.294277E1,2.7399002E2,5.9994926E1,2.5758345E1,9.646034E0,2.2887132E2,2.1524019E2,1.491126E1,8.226423E1,9.041388E1,6.861496E1,2.1671765E2,4.8873413E1,1.370423E1,1.1534059E2,5.537256E0,1.1133854E1,2.9070345E1,1.6858505E1,1.8001205E1,2.249416E2,2.1127408E0,2.0804796E0,1.1480766E1,1.2372425E2,2.8788564E0,2.9294384E0,1.5290433E1,6.1317058E0,1.6821865E0,7.888774E0,7.2080917E0,2.0360684E0,1.9082579E1,5.812675E0,3.5146423E2,4.501299E2,8.850605E1,1.2080204E0,1.7035308E3,5.235955E2,7.268908E1,1.3641602E2,1.4808497E0,2.7237213E0,1.6460213E1,2.4268193E2,1.0737959E0,6.032686E2,3.54924E1,8.228716E0,2.7823068E2,8.383829E1,7.263853E0,5.4400116E1,6.012378E1,1.0825838E2,3.5770602E0,2.4666228E0,3.0186762E1,1.1502476E1,4.7020966E1,1.8036057E1,1.7068413E1,2.9249971E1,1.0673629E1,1.133938E0,1.7664652E1,9.163907E0,6.1082053E0,6.730239E1,1.9462551E0,4.5153175E1,9.050593E0,1.0343247E1,1.4819848E1,1.8617647E2,5.233956E0,1.6543056E0,4.7528195E0,3.5398815E1,5.319389E0,3.737375E0,2.7213903E1,7.228484E1,5.808295E0,3.2213879E0,8.63318E0,1.2751327E0,1.8223452E1,9.551841E0,4.565423E0,1.0737959E0,2.1013294E1,2.857367E1,1.8303514E0,5.1606727E0,5.1089333E1,2.3189403E2,1.102164E2,4.440519E1,1.33109255E1,4.590714E0,5.5703163E0,4.313504E0,2.891601E1,1.3422449E0,1.1945979E1,3.7766066E0,5.771653E0,1.0098298E1,3.3852835E0,2.67234E0,2.6844897E0,4.16275E0,7.1435695E0,1.6772081E1,4.5192213E0,4.2812433E0,4.832082E0,1.8652024E0,3.727815E0,1.2080204E0,1.0737959E0,5.95825E0,1.3352747E0,8.2548065E0,1.898964E4,7.372085E3,7.6924994E2,6.942786E2,2.8338095E2,2.6221948E2,7.341517E1,3.5753082E1,1.7521242E2,1.1490425E2,8.764271E2,1.0849238E3,1.2975556E1,1.9462551E0,4.6913E2,7.492123E2,2.810619E2,2.8447586E2,2.2593271E2,1.0743378E4,3.340216E3,6.2497644E2,6.9785312E3,4.8080016E4,6.7823785E2,2.6317097E3,1.9680054E3,7.1706505E0,5.3703916E3,8.7170654E2,8.3183295E2,3.6090605E3,3.3786508E2,7.089824E2,8.181037E1,8.4070337E2,5.20016E1,2.7699227E0,6.1131146E2,3.9244583E2,7.7581306E0,4.3965458E1,1.4312325E2,8.908398E1,7.418189E0,2.3095757E1,3.8812553E1,4.2063613E0,7.558984E1,5.9443097E0,6.633155E1,1.0049507E1,9.16422E1,4.375437E0,9.1181786E1,2.910232E2,6.362714E0,3.4707165E0,1.7240077E0,2.53009E1,4.4015274E0,1.0828764E1,3.0610728E0,2.9712596E0,1.0668257E0,1.4764694E0,4.3087627E1,1.3303809E2,1.4228026E2,1.5559873E1,3.020051E0,2.297547E0,1.0522874E1,1.6818399E2,1.2080204E0,2.3422556E1,6.755709E1,5.385366E1,6.86118E0,2.1981738E0,3.56312E0,2.265286E0,2.3419583E0,2.265286E0,7.105808E1,6.333241E1,2.092122E3,5.3644495E2,9.0646675E1,2.6771756E2,8.655881E0,4.4219967E1,9.747985E2,3.6919736E3,7.1657904E2,2.8063053E1,1.5826231E2,1.2450646E3,1.2369296E3,1.1588795E3,3.0566926E0,4.314956E1,4.9013615E1,3.9291518E0,2.733438E1,2.4665565E2,5.3726406E1,6.2685204E0,1.6939558E1,8.818786E0,8.533007E0,1.1130273E0,1.6863225E2,6.0239075E1,1.2827391E1,2.024128E2,1.191212E1,2.9991403E0,3.1214548E1,5.1049683E1,6.1082053E0,8.430567E1,1.4093572E0,6.7205605E1,1.061263E2,1.10591354E2,2.0153177E1,2.8720236E1,2.1240914E0,1.1580139E1,5.525905E0,1.0981469E2,4.0032344E0,1.5340215E0,5.4074116E0,5.7264423E0,4.6490655E0,2.442128E1,1.0664068E1,6.1944375E0,1.4810287E1,3.190917E0,2.267198E1,2.0226962E2,1.106057E0,1.0066837E0,9.162308E0,2.3184578E0,1.9303226E1,1.0442102E2,1.133938E0,1.7449183E0,1.0528853E0,1.8765529E0,1.1451894E1,3.838539E0,4.4539E0,1.6778061E0,5.341099E0,2.5476754E0,6.000071E0,1.2080204E0,7.6342654E0,1.1448313E1,3.813248E0,1.999427E0,2.7126752E2,8.01967E1,3.7728207E1,4.124017E2,5.3821206E0,8.312393E1,3.488598E2,1.354671E3,4.693019E2,5.4293583E1,5.033773E1,2.235135E1,1.2908325E2,7.332756E0,1.4485885E0,1.2751327E0,9.970244E0,6.4899683E0,9.179638E0,2.3350229E2,3.734785E0,5.995339E2,2.0704016E1,1.4788386E1,5.819645E0,2.4090705E0,1.3661395E2,1.4161671E2,1.5967535E0,8.224153E1,4.065966E0,3.1978872E0,2.7756971E1,2.6643145E1,5.449591E1,5.6278687E0,8.5767624E1,2.2490755E1,2.4178312E0,1.1592289E0,1.1731694E0,1.2934535E0,1.1544297E1,1.8642464E1,8.008259E0,3.4942172E0,4.232391E1,4.6970577E0,1.517373E1,2.862326E0,4.8731036E0,1.2195309E1,2.6833931E1,2.416041E0,5.8214355E0,4.852193E0,1.5396776E1,2.267876E0,6.690314E0,2.473593E0,4.2387634E1,2.4914757E1,2.1011696E1,2.414148E1,6.8916507E0,2.1589425E0,3.910831E0,6.432416E0,6.5343795E0,8.285468E0,3.158675E1,1.545897E2,3.4637463E0,1.7702093E0,3.544799E0,1.2080204E0,2.9909552E1,5.4892635E0,2.647049E0,2.67234E0,1.1199975E0,2.6173775E0,1.7384054E1,9.829849E0,6.568952E1,6.5953207E0,3.399224E0,2.4090705E0,6.2083783E0,2.4248016E0,1.7170567E1,1.0528853E0,1.7449183E0,7.806922E0,2.8230946E0,1.7423285E0,1.2923183E1,8.090111E0,1.2583242E1,1.5990427E1,2.8187144E0,2.3419583E0,3.670461E1,1.4384722E1,1.163483E2,1.1554573E2,7.3153725E1,3.706268E1,2.2714602E1,2.1690588E1,7.4861007E0,5.824825E0,2.0500088E0,2.5407052E0,1.5087305E0,2.8047738E0,2.7640877E1,1.2751327E0,2.0316882E0,1.7449183E0,4.1880407E0,5.910258E0,1.1522588E0,2.2330248E0,1.9297248E0,2.2330248E0,3.3321118E0,3.8114576E0,1.547962E0,1.522412E1,2.656609E0,1.8626126E0,1.7309779E0,2.5502653E0,1.9436653E0,1.7841498E0,1.2124008E0,4.745849E0],"tree_param":{"num_deleted":"0","num_feature":"7","num_nodes":"723","size_leaf_vector":"1"}},{"base_weights":[-6.112036E-1,-7.763035E-1,2.293003E-1,-7.771054E-1,1.8660542E0,3.1506762E-2,1.6980655E0,-7.832729E-1,-6.015364E-1,1.2716923E0,2.4415421E0,-1.4352775E-1,5.6793535E-1,1.2952687E0,2.2974231E0,-7.5319606E-1,-7.919442E-1,-6.421435E-1,-4.1113588E-1,-6.935752E-1,1.7363495E0,3.8963995E0,2.1850908E0,-2.0351881E-1,4.2740503E-1,5.0388867E-1,1.4468886E0,1.1592126E0,1.6868757E0,2.1679082E0,2.9790592E0,-7.6404E-1,-6.665255E-1,-7.892729E-1,-8.311498E-1,-6.6897756E-1,-5.231149E-1,-4.599813E-1,6.639105E-2,-1.6153295E-1,3.2590553E-3,1.1675071E-1,2.1531086E0,6.0465175E-1,4.52029E-1,1.4646754E0,2.9380555E0,2.082211E-1,-2.2643924E-1,3.1749144E-1,6.555407E-1,4.3168133E-1,7.656342E-1,1.1860698E0,2.1341858E0,1.0640559E0,1.5316867E0,1.1347259E0,1.8437487E0,2.058998E0,2.4192865E0,2.810276E0,3.1494496E0,-6.7428553E-1,-7.70577E-1,-7.018991E-1,-5.445217E-1,-7.9899764E-1,-7.838208E-1,-6.866758E-1,-8.400321E-1,-7.200426E-1,-6.132889E-1,-3.8526142E-1,-7.3846275E-1,-3.4531206E-1,-6.464262E-1,-9.778523E-1,4.7981474E-1,-1.638983E-1,2.9204333E-1,1.7098858E0,3.6063137E0,2.2046185E0,-1.8223327E-1,2.4952645E0,3.9572146E0,1.586336E-1,1.244634E0,-2.8180525E-1,-1.8467192E-1,4.8751542E-1,1.4679301E-1,-2.4182746E-1,7.208696E-1,-1.0492333E-1,4.4552785E-1,5.788264E-1,9.535638E-1,-1.0833687E0,1.2852494E0,2.948034E0,1.9625492E0,1.5488641E0,9.239703E-1,1.3431075E0,2.0759532E0,1.9709371E0,6.115338E-1,2.3455563E0,1.5253778E0,2.772825E0,1.9946145E0,1.7197046E0,2.5189898E0,2.6859243E0,3.233686E0,2.8440064E-1,3.1689343E0,-6.8346334E-1,1.0353793E-1,-7.5575864E-1,-7.945535E-1,-7.176655E-1,-2.9270375E-1,-6.7264074E-1,-3.5465977E-1,-8.074921E-1,-7.538921E-1,-7.759302E-1,-8.13609E-1,-6.2279254E-1,-9.087832E-1,-8.0314684E-1,-8.722403E-1,-8.2773167E-1,-6.7755735E-1,-5.2534187E-1,-7.8366417E-1,-6.2782913E-1,-1.8558773E-1,-5.1728356E-1,-8.1378293E-1,-4.1655284E-1,9.705044E-2,-1.1624125E0,-5.563264E-1,-8.122351E-1,-1.6082716E-1,-6.127566E-2,2.0164845E0,-1.6182439E-1,2.2363558E0,5.3907466E-1,4.674175E-1,5.0368375E-1,1.7448877E0,4.7714692E-1,2.0097408E0,5.739235E-1,5.307165E-1,2.9708472E-1,-1.5356489E-1,-4.2088252E-1,1.6906425E0,-1.681235E-1,-3.697884E-1,-3.334467E-1,-1.4217122E-1,2.2283396E-1,7.2048604E-1,2.2600848E-2,5.389756E-1,2.4045335E-1,-1.155272E0,6.481091E-1,1.5957196E0,2.6107888E0,-3.2151565E-1,3.5330527E0,4.3572286E-1,2.4449973E0,5.349524E-1,1.3592591E0,7.6719344E-1,-3.1725302E-2,-1.1887003E0,2.0246704E0,1.0632833E0,1.7186991E0,4.5007973E0,1.7348028E0,3.0510051E0,2.0834398E0,1.2176942E0,6.9481725E-1,1.2708658E0,1.3146949E0,7.962157E-1,3.899673E0,1.8785193E0,1.5048155E0,4.006732E0,-3.0779612E-1,1.5517305E0,2.9276643E0,1.4189672E0,8.698622E-1,1.483541E0,2.0849402E0,3.8859267E0,1.9734999E0,3.894116E0,5.3256017E-1,2.34548E0,2.8250735E0,2.2271104E0,2.5687208E0,4.520837E-1,2.6568946E-1,3.3159869E0,3.0010228E0,3.2191596E0,-6.636936E-1,-9.5995367E-1,2.5037606E0,-6.000997E-1,-8.031145E-1,-7.4079555E-1,-8.1245244E-1,-7.390169E-1,-5.8132106E-1,-7.547802E-1,2.0438606E-2,-9.155951E-1,-7.3555565E-1,1.0017198E0,-7.969606E-2,-6.8267864E-1,-8.051564E-1,-9.550979E-1,-5.5335623E-1,-7.751296E-1,-7.827383E-1,-7.227469E-1,-8.9200556E-1,-8.0319047E-1,-8.690232E-1,-5.0461775E-1,-1.3600911E-1,-9.906146E-1,-7.248572E-1,-8.433466E-1,-9.0324545E-1,-8.081589E-1,-8.771418E-1,-6.515993E-1,-7.75201E-1,-5.7000375E-1,-6.748461E-1,-4.6217564E-1,-8.264332E-1,-8.885221E-2,-9.2306376E-1,-4.324268E-1,7.826914E-2,-6.608512E-1,-2.4858117E-1,-1.6177075E-1,-1.6215873E-1,-7.240854E-1,-8.630913E-1,-3.2236734E-1,5.76071E-1,-4.771369E-1,-1.615467E-1,-1.1658132E0,3.3486706E-1,-6.4891183E-1,-1.0283563E0,6.807701E-2,3.2231388E0,-3.214503E-1,7.6468277E-1,4.757826E0,2.7202833E0,-5.0067883E-2,2.4224372E0,6.648714E-2,6.9436654E-2,4.599172E-1,1.8554999E0,2.6954868E-1,-4.5526087E-1,5.310278E-2,4.5204982E-1,-1.6082393E-1,4.5558056E-1,2.3203838E0,-2.169748E-2,-2.6491264E-1,-4.6720687E-1,-2.710998E-1,-4.5528778E-1,-2.1550949E-1,-1.968973E-1,-3.5842218E-2,-1.7641608E-1,4.3137494E-1,1.0050993E0,3.0041268E-1,-1.9836225E-1,1.539122E-1,4.630918E-1,2.4415736E0,8.158154E-1,-8.0757797E-1,-1.6371608E-1,-1.6082627E-1,-6.382228E-2,7.2970706E-1,-2.8309318E-1,1.8293667E0,1.0140866E0,8.7989014E-1,2.3033217E-1,-9.841659E-1,2.5935886E0,8.814662E-1,3.916175E-1,5.502697E-1,-4.866826E-2,2.9532242E0,5.985562E-1,-3.5422748E-1,8.800277E-1,2.074442E0,2.0943806E-1,8.7937725E-1,-1.6459358E-1,-1.7524916E-1,1.7923459E0,3.4474583E0,6.534521E-1,1.7194085E0,2.6893353E0,-1.6555324E-1,3.7620347E0,4.966923E0,2.486314E0,1.4959332E0,1.07685275E-1,3.3713043E0,1.7245247E0,4.017087E0,7.976749E-1,1.8002528E0,4.9528098E-1,9.306074E-1,1.5860934E0,9.764707E-1,1.0343746E0,1.5506132E0,2.2438161E0,5.4597898E0,7.945762E-1,2.1964893E0,1.873784E0,9.719189E-2,3.519676E0,7.9401773E-1,1.2595775E0,-6.423037E-1,-5.3992665E-1,2.2624226E0,2.557667E0,3.8455613E0,6.043964E-1,1.9275775E0,5.28594E-1,1.6273739E0,3.5438428E0,1.5314181E0,3.1647682E0,4.1393127E0,1.8166374E0,2.1234374E0,4.527748E0,3.3738935E0,8.4598795E-2,5.0217605E-1,3.069116E0,1.5800143E0,3.8480628E0,2.6829739E0,2.827447E0,1.8812463E0,3.4369977E0,2.4491587E0,3.212124E0,3.7355192E0,2.339556E0,3.1801286E0,3.1507812E0,3.241417E0,-6.2128555E-2,-9.6140094E-2,-1.5749118E-1,-1.07182816E-1,8.257677E-1,-1.6182095E-1,2.3485368E-2,-1.1793115E-1,-1.09727055E-1,-1.396909E-1,-9.675805E-2,-1.06713004E-1,-1.1022109E-1,-1.1722931E-1,-1.3884427E-1,-1.0069527E-1,-8.889878E-2,1.8144829E-3,-1.0056685E-1,-1.1501026E-1,-1.943156E-2,2.8602144E-1,-1.6206996E-1,4.4692714E-2,8.46848E-2,-1.0487423E-1,5.998358E-1,-3.7532996E-2,2.6392126E-2,-1.624044E-1,1.8316765E-1,-1.0260905E-1,-1.11879386E-1,-1.1735447E-1,-1.3566388E-1,5.7897735E-3,-1.324307E-1,-6.684835E-2,-9.7868465E-2,-1.1623895E-1,-1.0716229E-1,-1.10741995E-1,-7.120607E-3,-1.01847626E-1,-1.2242718E-1,-1.5539671E-1,-1.0507645E-1,-1.146413E-1,-1.3434179E-1,-4.9535174E-2,-1.619097E-1,-6.418765E-2,-1.6190454E-1,2.2598098E-1,-7.3814444E-2,-1.4323243E-1,-1.2557824E-1,-9.322364E-2,-1.2198046E-1,-1.0563121E-1,-1.2938091E-1,-1.0644732E-1,-1.01539224E-1,-1.2841775E-1,-1.1666743E-1,-1.5710737E-1,1.4654103E-1,-1.03408575E-1,-1.18852906E-1,-7.153388E-2,-7.7583822E-3,-9.0173416E-2,-7.592622E-2,-1.5355866E-1,-5.9635002E-2,-1.3267921E-1,-9.420733E-2,-1.2954302E-1,3.1427035E-1,-1.0283174E-1,-1.6037568E-1,-1.0095695E-1,-1.2972923E-1,-4.1746847E-2,-6.317064E-3,2.3703435E-1,7.076232E-1,-1.1359775E-1,2.4973387E-2,-1.12313375E-1,-6.3511714E-2,-1.271324E-1,-3.2803662E-2,-1.4835432E-1,6.9689736E-2,-5.5706974E-2,3.5935033E-2,9.703866E-1,-9.5516436E-2,2.676888E-1,-1.6453747E-1,-1.6242412E-1,-5.0002295E-3,7.0310235E-1,-1.4205869E-1,-7.9572394E-2,-1.625846E-1,-2.6463978E-2,3.2823044E-1,5.3811145E-1,1.5490463E-1,-1.0144223E-1,-1.6272855E-1,3.1625724E-1,5.9118664E-1,8.6278164E-1,1.6296506E-1,4.545209E-1,1.2653823E-1,5.315333E-1,3.7143025E-1,-5.72582E-2,1.0302599E-3,5.4358907E-2,-8.525298E-2,2.387709E-2,1.1643585E-1,-1.4494776E-2,1.7165135E-1,-1.6462296E-1,2.8942698E-1,6.668055E-1,-4.14558E-2,8.770637E-3,-5.0883267E-2,-4.3915343E-3,-7.7018164E-2,-4.773064E-2,-3.0593896E-2,-6.227335E-2,-5.473402E-2,-1.4622732E-1,-1.0097172E-1,-2.2667302E-2,-3.8972097E-3,-4.1769467E-2,7.288017E-3,-2.3377301E-2,1.1627282E-1,-8.325547E-2,1.18759E-1,2.6721343E-2,1.0747123E-1,2.0600267E-1,2.027229E-2,2.7281058E-1,1.9133123E-2,-6.0552277E-2,4.9244806E-2,-3.5764206E-2,1.415326E-1,2.2179237E-2,-7.513955E-2,8.5635006E-1,2.5935483E-1,5.6131072E-2,-3.6623616E-2,-1.6082132E-1,-1.0305067E-1,7.877483E-2,1.5582298E-1,7.573132E-2,1.5792806E-1,-1.3237602E-1,1.8299273E-1,3.962136E-1,8.749048E-3,5.232162E-1,1.254813E-1,-2.0832945E-2,-7.881264E-2,-1.598222E-1,2.1852738E-1,8.82397E-1,6.0484674E-2,3.5132345E-2,1.23735934E-1,6.2335387E-2,3.1476495E-1,4.7865996E-1,1.2644966E-1,6.928721E-2,-1.05646126E-1,1.447235E-1,1.8506844E-1,-3.4465298E-2,4.8397198E-1,1.1180316E-1,1.6655324E-2,7.152336E-1,1.8448894E-1,9.116216E-2,2.7856228E-1,4.794172E-2,4.123308E-1,6.690138E-1,3.8129743E-2,1.6630298E-1,3.479372E-1,1.6773866E-1,6.7323667E-1,1.3306528E-1,5.551245E-1,4.9528036E-1,8.197485E-1,6.4609075E-1,2.005583E-1,4.5817846E-1,2.9011038E-1,1.512943E-1,5.854141E-1,4.1563395E-1,1.8242724E-1,4.1964003E-1,3.452675E-1,6.7016596E-1,3.4768816E-2,2.1881893E-1,3.479538E-1,6.630714E-2,1.14458114E-1,5.029722E-2,2.2435339E-1,1.0818716E-1,1.6189194E-1,3.312962E-1,4.091577E-1,1.2286456E-1,2.1069553E-1,9.4552115E-2,1.9791022E-1,6.7286533E-1,7.8350306E-1,-3.622721E-2,7.209558E-1,7.870209E-1,9.852282E-3,3.7609452E-1,2.2100931E-1,4.2177048E-1,3.5021332E-1,1.7394422E-1,1.0933408E-1,-1.8707575E-1,3.4332812E-1,5.355476E-1,-7.62961E-2,6.376194E-1,-1.10103376E-1,1.3062727E-1,-1.7299624E-1,7.0049785E-2,5.1056355E-1,1.5126364E-1,4.1345075E-1,1.3941687E-1,5.757651E-1,1.9836096E-1,3.5553504E-2,5.830331E-1,1.71412E-1,5.619532E-1,1.978257E-1,-3.5929014E-3,2.6087764E-1,1.4043826E-1,2.3227419E-1,5.5464524E-1,2.9572812E-1,4.6708897E-2,6.327249E-1,3.6716303E-1,4.8251083E-1,6.036879E-1,2.7168208E-1,1.0253971E-1,1.880648E-1,3.16818E-1,4.8824996E-1,7.259017E-1,5.2948874E-1,4.3572062E-1,2.305926E-1,-1.0048424E-1,5.3079945E-1,2.5511762E-1,8.752729E-2,4.824076E-1,4.6469596E-1,5.873006E-1,2.9762128E-1,3.902904E-1,2.927496E-1,4.3681145E-1,5.6277525E-2,3.188537E-1,5.4208744E-1,4.2526665E-1,5.7066545E-2,3.524433E-1,4.0353593E-1,4.6305075E-1,4.5204782E-1,6.141651E-1,4.5203772E-1,2.3812336E-1,4.5700887E-1,3.9440018E-1,4.4661188E-1,3.622847E-1,5.2384657E-1,4.5159656E-1],"categories":[],"categories_nodes":[],"categories_segments":[],"categories_sizes":[],"default_left":[0,0,0,0,0,0,0,0,0,0,0,0,0,0,0,0,0,0,0,0,0,0,0,0,0,0,0,0,0,0,0,0,0,0,0,0,0,0,0,0,0,0,0,0,0,0,0,0,0,0,0,0,0,0,0,0,0,0,0,0,0,0,0,0,0,0,0,0,0,0,0,0,0,0,0,0,0,0,0,0,0,0,0,0,0,0,0,0,0,0,0,0,0,0,0,0,0,0,0,0,0,0,0,0,0,0,0,0,0,0,0,0,0,0,0,0,0,0,0,0,0,0,0,0,0,0,0,0,0,0,0,0,0,0,0,0,0,0,0,0,0,0,0,0,0,0,0,0,0,0,0,0,0,0,0,0,0,0,0,0,0,0,0,0,0,0,0,0,0,0,0,0,0,0,0,0,0,0,0,0,0,0,0,0,0,0,0,0,0,0,0,0,0,0,0,0,0,0,0,0,0,0,0,0,0,0,0,0,0,0,0,0,0,0,0,0,0,0,0,0,0,0,0,0,0,0,0,0,0,0,0,0,0,0,0,0,0,0,0,0,0,0,0,0,0,0,0,0,0,0,0,0,0,0,0,0,0,0,0,0,0,0,0,0,0,0,0,0,0,0,0,0,0,0,0,0,0,0,0,0,0,0,0,0,0,0,0,0,0,0,0,0,0,0,0,0,0,0,0,0,0,0,0,0,0,0,0,0,0,0,0,0,0,0,0,0,0,0,0,0,0,0,0,0,0,0,0,0,0,0,0,0,0,0,0,0,0,0,0,0,0,0,0,0,0,0,0,0,0,0,0,0,0,0,0,0,0,0,0,0,0,0,0,0,0,0,0,0,0,0,0,0,0,0,0,0,0,0,0,0,0,0,0,0,0,0,0,0,0,0,0,0,0,0,0,0,0,0,0,0,0,0,0,0,0,0,0,0,0,0,0,0,0,0,0,0,0,0,0,0,0,0,0,0,0,0,0,0,0,0,0,0,0,0,0,0,0,0,0,0,0,0,0,0,0,0,0,0,0,0,0,0,0,0,0,0,0,0,0,0,0,0,0,0,0,0,0,0,0,0,0,0,0,0,0,0,0,0,0,0,0,0,0,0,0,0,0,0,0,0,0,0,0,0,0,0,0,0,0,0,0,0,0,0,0,0,0,0,0,0,0,0,0,0,0,0,0,0,0,0,0,0,0,0,0,0,0,0,0,0,0,0,0,0,0,0,0,0,0,0,0,0,0,0,0,0,0,0,0,0,0,0,0,0,0,0,0,0,0,0,0,0,0,0,0,0,0,0,0,0,0,0,0,0,0,0,0,0,0,0,0,0,0,0,0,0,0,0,0,0,0,0,0,0,0,0,0,0,0,0,0,0,0,0,0,0,0,0,0,0,0,0,0,0,0,0,0,0,0,0,0,0,0,0,0,0,0,0,0,0,0,0,0,0,0,0,0,0,0,0,0,0,0,0,0,0,0,0,0,0,0,0,0,0,0,0,0,0,0,0,0,0,0,0,0,0,0,0,0,0,0,0,0,0,0,0,0,0,0,0,0,0,0,0,0,0,0,0,0,0,0,0,0,0,0,0,0,0,0,0,0,0,0,0,0,0,0,0,0,0,0,0,0,0,0,0,0,0,0,0,0,0,0,0,0,0,0],"id":1,"left_children":[1,3,5,7,9,11,13,15,17,19,21,23,25,27,29,31,33,35,37,39,41,43,45,47,49,51,53,55,57,59,61,63,65,67,69,71,73,75,77,-1,-1,79,81,-1,-1,83,85,87,89,91,93,95,97,99,101,103,105,107,109,111,113,115,117,119,121,123,125,127,129,131,133,135,137,139,141,143,145,147,149,-1,-1,151,153,155,-1,157,159,161,163,165,167,169,171,173,175,177,179,181,183,185,187,189,191,193,195,197,199,201,203,205,207,209,211,213,215,217,219,-1,221,223,225,227,229,231,233,235,237,239,241,243,245,247,249,251,253,255,257,259,261,263,265,267,269,271,273,275,277,279,-1,281,283,-1,285,-1,-1,-1,287,-1,289,-1,-1,291,293,295,297,299,301,303,305,307,309,311,313,315,317,319,321,323,325,327,329,331,333,335,337,-1,339,341,343,345,347,349,351,353,355,357,359,361,-1,363,365,367,369,371,373,375,377,-1,379,381,383,385,387,389,391,393,395,397,-1,-1,399,401,403,405,407,409,411,413,415,417,419,421,423,425,427,429,431,433,435,437,439,441,443,445,447,449,451,453,455,457,459,461,463,465,467,469,471,473,475,477,479,481,483,485,487,489,491,493,-1,-1,495,497,499,501,503,-1,505,507,509,511,-1,513,515,517,519,521,-1,523,-1,-1,-1,525,527,529,531,-1,-1,533,535,537,539,541,543,545,547,549,551,553,555,557,559,561,563,565,567,569,571,-1,-1,573,575,577,579,581,-1,583,585,587,-1,589,591,-1,593,595,597,599,601,603,605,-1,-1,607,609,611,613,615,-1,617,619,621,623,-1,625,627,629,631,633,635,637,639,641,643,645,647,649,651,653,655,657,659,-1,661,663,665,667,669,671,673,675,677,679,681,683,685,687,689,691,693,695,697,-1,699,701,703,705,707,709,711,713,715,717,719,721,723,725,-1,-1,-1,-1,-1,-1,-1,-1,-1,-1,-1,-1,-1,-1,-1,-1,-1,-1,-1,-1,-1,-1,-1,-1,-1,-1,-1,-1,-1,-1,-1,-1,-1,-1,-1,-1,-1,-1,-1,-1,-1,-1,-1,-1,-1,-1,-1,-1,-1,-1,-1,-1,-1,-1,-1,-1,-1,-1,-1,-1,-1,-1,-1,-1,-1,-1,-1,-1,-1,-1,-1,-1,-1,-1,-1,-1,-1,-1,-1,-1,-1,-1,-1,-1,-1,-1,-1,-1,-1,-1,-1,-1,-1,-1,-1,-1,-1,-1,-1,-1,-1,-1,-1,-1,-1,-1,-1,-1,-1,-1,-1,-1,-1,-1,-1,-1,-1,-1,-1,-1,-1,-1,-1,-1,-1,-1,-1,-1,-1,-1,-1,-1,-1,-1,-1,-1,-1,-1,-1,-1,-1,-1,-1,-1,-1,-1,-1,-1,-1,-1,-1,-1,-1,-1,-1,-1,-1,-1,-1,-1,-1,-1,-1,-1,-1,-1,-1,-1,-1,-1,-1,-1,-1,-1,-1,-1,-1,-1,-1,-1,-1,-1,-1,-1,-1,-1,-1,-1,-1,-1,-1,-1,-1,-1,-1,-1,-1,-1,-1,-1,-1,-1,-1,-1,-1,-1,-1,-1,-1,-1,-1,-1,-1,-1,-1,-1,-1,-1,-1,-1,-1,-1,-1,-1,-1,-1,-1,-1,-1,-1,-1,-1,-1,-1,-1,-1,-1,-1,-1,-1,-1,-1,-1,-1,-1,-1,-1,-1,-1,-1,-1,-1,-1,-1,-1,-1,-1,-1,-1,-1,-1,-1,-1,-1,-1,-1,-1,-1,-1,-1,-1,-1,-1,-1,-1,-1,-1,-1,-1,-1,-1,-1,-1,-1,-1,-1,-1,-1,-1,-1,-1,-1,-1,-1,-1,-1,-1,-1,-1,-1,-1,-1,-1,-1,-1,-1,-1,-1,-1,-1,-1,-1,-1,-1,-1,-1,-1,-1,-1,-1,-1,-1],"loss_changes":[1.8733918E4,2.3908594E2,6.439117E3,1.2214844E2,1.1707993E1,1.8341263E3,6.350747E2,2.8421875E1,2.9597656E1,1.5378929E1,6.4866486E0,5.0445752E2,2.7053662E2,8.3823975E1,9.333984E1,2.2918945E1,8.859375E0,1.0077515E1,1.5696159E1,1.0638648E0,9.192951E0,7.335205E-1,8.019173E0,1.2577869E2,3.511586E1,8.4660034E1,5.8509155E1,4.138318E1,3.513623E1,2.4322754E1,4.852661E0,1.2716797E1,1.1703491E1,4.1953125E0,6.923584E0,7.3216553E0,1.7231705E1,1.3051514E1,2.695823E1,0E0,0E0,7.0741982E0,6.975338E0,0E0,0E0,1.54718E1,3.2598724E0,3.6118835E1,2.9195251E1,2.7429192E1,2.6693878E1,2.608612E1,3.4001587E1,5.3256805E1,1.2540497E1,6.3161255E1,2.4384705E1,3.9266624E1,5.0468506E1,2.8489014E1,1.8732056E1,4.4630737E0,1.8266602E0,1.0504639E1,7.1777344E0,1.3563232E1,1.4827194E1,1.08984375E1,1.1927734E1,4.433899E0,6.038574E0,6.1447144E0,1.8454407E1,1.7141388E1,3.7738037E0,1.19125595E1,1.0807564E1,5.0206375E-1,3.7196228E1,0E0,0E0,1.252718E1,1.6259003E-1,3.820734E0,0E0,2.2354317E0,4.8439026E-2,2.8991098E1,2.3838104E1,5.429895E1,4.550235E1,2.9196098E1,2.2970264E1,1.3612463E1,2.7016708E1,5.1946274E1,1.03609924E2,3.9767883E1,3.6504852E1,8.935518E-1,3.720688E1,2.9847824E1,1.8379822E1,3.6908386E1,5.735559E1,2.1788727E1,2.2011322E1,3.277719E1,4.772213E1,6.6140076E1,3.792566E1,3.9267456E1,2.2803955E1,2.488816E1,2.0999512E1,4.182007E0,2.1135254E0,0E0,6.937866E-1,7.9490356E0,2.8981567E1,8.847656E0,7.6708984E0,1.0243652E1,1.521448E1,3.8340195E1,2.2151375E1,8.254883E0,1.9201172E1,1.45234375E1,8.678711E0,7.0621567E0,4.414177E0,7.4571533E0,5.3911133E0,3.306366E0,1.0114655E1,7.6709137E0,1.2460266E1,9.217957E0,2.4343292E1,9.876818E0,5.2288055E0,1.3692318E1,1.4421173E1,1.7547607E-4,1.6330921E1,2.5285044E0,0E0,2.8270761E1,3.997604E1,0E0,8.805023E0,0E0,0E0,0E0,3.857297E0,0E0,6.3612967E0,0E0,0E0,1.9938839E1,1.28481045E1,1.8024572E1,1.9686058E1,3.3567238E1,2.9421661E1,2.2976624E1,3.257051E1,1.8455225E1,3.010756E1,1.0392793E1,1.6375149E1,1.2193888E1,1.7166138E-4,2.276355E1,1.4306541E1,3.829274E1,2.9909916E1,2.8147171E1,1.7236145E1,1.58364105E1,2.683899E1,5.208844E1,2.070047E1,0E0,6.225586E-3,1.729927E1,4.688524E1,2.4583227E1,2.3754272E0,1.1006561E1,9.374588E0,5.5346313E1,3.1498932E1,2.044252E1,2.663565E1,1.1592804E1,0E0,1.5424362E1,1.9012604E1,1.4597862E1,5.22139E0,1.4635792E1,4.057663E1,2.5575012E1,1.9601295E1,0E0,2.6312439E1,2.5595642E1,3.576355E0,1.3225342E1,2.0570831E0,1.5830149E1,1.2150459E1,1.6677368E1,2.4983093E1,5.598236E0,0E0,0E0,7.8726196E-1,2.2503815E0,9.411621E-2,6.94989E0,3.1150513E0,4.8370087E1,2.4724374E0,1.1128418E1,1.0192871E1,3.6584473E0,9.269287E0,1.3883026E1,3.8569946E0,1.6730513E1,7.8157997E0,6.515564E0,5.4979404E1,3.8742107E1,1.127367E1,4.482422E0,5.3249207E0,1.2838333E1,1.7143066E1,5.1933594E0,1.5402344E1,4.67334E0,7.86084E0,3.6869583E0,4.9152107E0,1.1948977E1,9.612465E-1,8.139923E0,3.9221191E0,5.5499268E0,8E0,3.1656036E0,1.235059E1,9.876434E0,1.7536057E1,1.3483452E1,9.999123E0,6.0076294E0,3.6667206E1,2.8603897E0,6.377617E0,2.4886507E1,5.9785446E1,9.583916E0,0E0,0E0,6.682701E0,7.023678E0,1.6697344E1,5.8026714E1,1.1706377E1,0E0,4.6539307E-4,3.23719E1,5.2722244E0,8.6448765E-1,0E0,1.3233795E0,1.766579E1,2.305111E1,2.7362366E0,4.8504105E0,0E0,6.1059494E0,0E0,0E0,0E0,1.4592148E1,1.4232185E1,8.071308E0,1.4924504E1,0E0,0E0,1.0755652E1,1.0332115E1,2.1832445E1,3.286331E1,1.6151672E1,1.3873856E1,2.9756592E1,2.2009678E1,6.3455704E1,2.1940693E1,3.206057E1,1.4606672E1,1.6621628E1,2.6088848E1,1.0483778E1,1.8213945E1,1.821595E1,4.7655117E1,5.6163864E0,1.3360648E0,0E0,0E0,1.6984179E1,2.5437668E1,3.3726263E0,1.5149727E1,1.1791313E1,0E0,1.127617E1,2.469818E0,3.0978237E1,0E0,1.4055664E1,3.3201477E1,0E0,3.1021957E0,1.3973892E1,1.7624084E1,4.5348236E1,1.07638794E2,2.4552057E1,2.7558792E1,0E0,0E0,1.2928345E1,4.903969E0,2.1871784E1,2.677182E1,2.411982E1,0E0,1.18751526E-1,1.3159714E0,1.2268051E1,1.1138863E1,0E0,3.6625443E0,3.607524E1,1.4931549E1,3.146817E1,4.9084793E1,1.0315517E1,2.1099579E1,4.648285E1,2.8468094E1,1.3541771E1,4.229068E1,2.4328531E1,1.5001678E-1,1.7151518E1,2.1516922E1,8.831886E0,5.7266974E0,1.6292381E0,0E0,2.9213097E1,5.237275E0,5.015237E0,3.3361076E1,3.3252533E1,1.4116089E1,2.269336E1,4.273491E1,1.2302144E1,2.4594757E1,6.8892975E0,1.6011307E1,3.736E0,1.745575E0,3.7162354E1,3.1487549E1,1.9262886E0,3.632927E-1,1.2655348E1,0E0,1.016996E1,1.900101E1,2.5703125E0,5.9362793E0,9.506531E0,4.4854706E1,1.1321182E0,6.710205E0,4.5950317E-1,1.1840248E0,2.300415E0,4.6072388E-1,3.5406494E-1,3.4350586E-1,0E0,0E0,0E0,0E0,0E0,0E0,0E0,0E0,0E0,0E0,0E0,0E0,0E0,0E0,0E0,0E0,0E0,0E0,0E0,0E0,0E0,0E0,0E0,0E0,0E0,0E0,0E0,0E0,0E0,0E0,0E0,0E0,0E0,0E0,0E0,0E0,0E0,0E0,0E0,0E0,0E0,0E0,0E0,0E0,0E0,0E0,0E0,0E0,0E0,0E0,0E0,0E0,0E0,0E0,0E0,0E0,0E0,0E0,0E0,0E0,0E0,0E0,0E0,0E0,0E0,0E0,0E0,0E0,0E0,0E0,0E0,0E0,0E0,0E0,0E0,0E0,0E0,0E0,0E0,0E0,0E0,0E0,0E0,0E0,0E0,0E0,0E0,0E0,0E0,0E0,0E0,0E0,0E0,0E0,0E0,0E0,0E0,0E0,0E0,0E0,0E0,0E0,0E0,0E0,0E0,0E0,0E0,0E0,0E0,0E0,0E0,0E0,0E0,0E0,0E0,0E0,0E0,0E0,0E0,0E0,0E0,0E0,0E0,0E0,0E0,0E0,0E0,0E0,0E0,0E0,0E0,0E0,0E0,0E0,0E0,0E0,0E0,0E0,0E0,0E0,0E0,0E0,0E0,0E0,0E0,0E0,0E0,0E0,0E0,0E0,0E0,0E0,0E0,0E0,0E0,0E0,0E0,0E0,0E0,0E0,0E0,0E0,0E0,0E0,0E0,0E0,0E0,0E0,0E0,0E0,0E0,0E0,0E0,0E0,0E0,0E0,0E0,0E0,0E0,0E0,0E0,0E0,0E0,0E0,0E0,0E0,0E0,0E0,0E0,0E0,0E0,0E0,0E0,0E0,0E0,0E0,0E0,0E0,0E0,0E0,0E0,0E0,0E0,0E0,0E0,0E0,0E0,0E0,0E0,0E0,0E0,0E0,0E0,0E0,0E0,0E0,0E0,0E0,0E0,0E0,0E0,0E0,0E0,0E0,0E0,0E0,0E0,0E0,0E0,0E0,0E0,0E0,0E0,0E0,0E0,0E0,0E0,0E0,0E0,0E0,0E0,0E0,0E0,0E0,0E0,0E0,0E0,0E0,0E0,0E0,0E0,0E0,0E0,0E0,0E0,0E0,0E0,0E0,0E0,0E0,0E0,0E0,0E0,0E0,0E0,0E0,0E0,0E0,0E0,0E0,0E0,0E0,0E0,0E0,0E0,0E0,0E0,0E0,0E0,0E0,0E0,0E0,0E0,0E0,0E0,0E0,0E0,0E0,0E0,0E0,0E0,0E0,0E0,0E0,0E0,0E0,0E0,0E0,0E0,0E0,0E0,0E0,0E0,0E0,0E0,0E0,0E0,0E0,0E0,0E0,0E0,0E0,0E0,0E0,0E0,0E0,0E0,0E0,0E0,0E0,0E0,0E0],"parents":[2147483647,0,0,1,1,2,2,3,3,4,4,5,5,6,6,7,7,8,8,9,9,10,10,11,11,12,12,13,13,14,14,15,15,16,16,17,17,18,18,19,19,20,20,21,21,22,22,23,23,24,24,25,25,26,26,27,27,28,28,29,29,30,30,31,31,32,32,33,33,34,34,35,35,36,36,37,37,38,38,41,41,42,42,45,45,46,46,47,47,48,48,49,49,50,50,51,51,52,52,53,53,54,54,55,55,56,56,57,57,58,58,59,59,60,60,61,61,62,62,63,63,64,64,65,65,66,66,67,67,68,68,69,69,70,70,71,71,72,72,73,73,74,74,75,75,76,76,77,77,78,78,81,81,82,82,83,83,85,85,86,86,87,87,88,88,89,89,90,90,91,91,92,92,93,93,94,94,95,95,96,96,97,97,98,98,99,99,100,100,101,101,102,102,103,103,104,104,105,105,106,106,107,107,108,108,109,109,110,110,111,111,112,112,113,113,114,114,115,115,116,116,118,118,119,119,120,120,121,121,122,122,123,123,124,124,125,125,126,126,127,127,128,128,129,129,130,130,131,131,132,132,133,133,134,134,135,135,136,136,137,137,138,138,139,139,140,140,141,141,142,142,143,143,144,144,145,145,146,146,147,147,149,149,150,150,152,152,156,156,158,158,161,161,162,162,163,163,164,164,165,165,166,166,167,167,168,168,169,169,170,170,171,171,172,172,173,173,174,174,175,175,176,176,177,177,178,178,179,179,180,180,181,181,182,182,183,183,184,184,186,186,187,187,188,188,189,189,190,190,191,191,192,192,193,193,194,194,195,195,196,196,197,197,199,199,200,200,201,201,202,202,203,203,204,204,205,205,206,206,208,208,209,209,210,210,211,211,212,212,213,213,214,214,215,215,216,216,217,217,220,220,221,221,222,222,223,223,224,224,225,225,226,226,227,227,228,228,229,229,230,230,231,231,232,232,233,233,234,234,235,235,236,236,237,237,238,238,239,239,240,240,241,241,242,242,243,243,244,244,245,245,246,246,247,247,248,248,249,249,250,250,251,251,252,252,253,253,254,254,255,255,256,256,257,257,258,258,259,259,260,260,261,261,262,262,263,263,264,264,265,265,266,266,267,267,270,270,271,271,272,272,273,273,274,274,276,276,277,277,278,278,279,279,281,281,282,282,283,283,284,284,285,285,287,287,291,291,292,292,293,293,294,294,297,297,298,298,299,299,300,300,301,301,302,302,303,303,304,304,305,305,306,306,307,307,308,308,309,309,310,310,311,311,312,312,313,313,314,314,315,315,316,316,319,319,320,320,321,321,322,322,323,323,325,325,326,326,327,327,329,329,330,330,332,332,333,333,334,334,335,335,336,336,337,337,338,338,341,341,342,342,343,343,344,344,345,345,347,347,348,348,349,349,350,350,352,352,353,353,354,354,355,355,356,356,357,357,358,358,359,359,360,360,361,361,362,362,363,363,364,364,365,365,366,366,367,367,368,368,369,369,371,371,372,372,373,373,374,374,375,375,376,376,377,377,378,378,379,379,380,380,381,381,382,382,383,383,384,384,385,385,386,386,387,387,388,388,389,389,391,391,392,392,393,393,394,394,395,395,396,396,397,397,398,398,399,399,400,400,401,401,402,402,403,403,404,404],"right_children":[2,4,6,8,10,12,14,16,18,20,22,24,26,28,30,32,34,36,38,40,42,44,46,48,50,52,54,56,58,60,62,64,66,68,70,72,74,76,78,-1,-1,80,82,-1,-1,84,86,88,90,92,94,96,98,100,102,104,106,108,110,112,114,116,118,120,122,124,126,128,130,132,134,136,138,140,142,144,146,148,150,-1,-1,152,154,156,-1,158,160,162,164,166,168,170,172,174,176,178,180,182,184,186,188,190,192,194,196,198,200,202,204,206,208,210,212,214,216,218,220,-1,222,224,226,228,230,232,234,236,238,240,242,244,246,248,250,252,254,256,258,260,262,264,266,268,270,272,274,276,278,280,-1,282,284,-1,286,-1,-1,-1,288,-1,290,-1,-1,292,294,296,298,300,302,304,306,308,310,312,314,316,318,320,322,324,326,328,330,332,334,336,338,-1,340,342,344,346,348,350,352,354,356,358,360,362,-1,364,366,368,370,372,374,376,378,-1,380,382,384,386,388,390,392,394,396,398,-1,-1,400,402,404,406,408,410,412,414,416,418,420,422,424,426,428,430,432,434,436,438,440,442,444,446,448,450,452,454,456,458,460,462,464,466,468,470,472,474,476,478,480,482,484,486,488,490,492,494,-1,-1,496,498,500,502,504,-1,506,508,510,512,-1,514,516,518,520,522,-1,524,-1,-1,-1,526,528,530,532,-1,-1,534,536,538,540,542,544,546,548,550,552,554,556,558,560,562,564,566,568,570,572,-1,-1,574,576,578,580,582,-1,584,586,588,-1,590,592,-1,594,596,598,600,602,604,606,-1,-1,608,610,612,614,616,-1,618,620,622,624,-1,626,628,630,632,634,636,638,640,642,644,646,648,650,652,654,656,658,660,-1,662,664,666,668,670,672,674,676,678,680,682,684,686,688,690,692,694,696,698,-1,700,702,704,706,708,710,712,714,716,718,720,722,724,726,-1,-1,-1,-1,-1,-1,-1,-1,-1,-1,-1,-1,-1,-1,-1,-1,-1,-1,-1,-1,-1,-1,-1,-1,-1,-1,-1,-1,-1,-1,-1,-1,-1,-1,-1,-1,-1,-1,-1,-1,-1,-1,-1,-1,-1,-1,-1,-1,-1,-1,-1,-1,-1,-1,-1,-1,-1,-1,-1,-1,-1,-1,-1,-1,-1,-1,-1,-1,-1,-1,-1,-1,-1,-1,-1,-1,-1,-1,-1,-1,-1,-1,-1,-1,-1,-1,-1,-1,-1,-1,-1,-1,-1,-1,-1,-1,-1,-1,-1,-1,-1,-1,-1,-1,-1,-1,-1,-1,-1,-1,-1,-1,-1,-1,-1,-1,-1,-1,-1,-1,-1,-1,-1,-1,-1,-1,-1,-1,-1,-1,-1,-1,-1,-1,-1,-1,-1,-1,-1,-1,-1,-1,-1,-1,-1,-1,-1,-1,-1,-1,-1,-1,-1,-1,-1,-1,-1,-1,-1,-1,-1,-1,-1,-1,-1,-1,-1,-1,-1,-1,-1,-1,-1,-1,-1,-1,-1,-1,-1,-1,-1,-1,-1,-1,-1,-1,-1,-1,-1,-1,-1,-1,-1,-1,-1,-1,-1,-1,-1,-1,-1,-1,-1,-1,-1,-1,-1,-1,-1,-1,-1,-1,-1,-1,-1,-1,-1,-1,-1,-1,-1,-1,-1,-1,-1,-1,-1,-1,-1,-1,-1,-1,-1,-1,-1,-1,-1,-1,-1,-1,-1,-1,-1,-1,-1,-1,-1,-1,-1,-1,-1,-1,-1,-1,-1,-1,-1,-1,-1,-1,-1,-1,-1,-1,-1,-1,-1,-1,-1,-1,-1,-1,-1,-1,-1,-1,-1,-1,-1,-1,-1,-1,-1,-1,-1,-1,-1,-1,-1,-1,-1,-1,-1,-1,-1,-1,-1,-1,-1,-1,-1,-1,-1,-1,-1,-1,-1,-1,-1,-1,-1,-1,-1,-1,-1,-1,-1,-1,-1,-1,-1,-1],"split_conditions":[2E0,7.433655E2,8.131035E2,3.9699E2,8.131035E2,3E0,1.2753014E3,3.789716E1,5.627766E2,2.67E2,1.1679851E-1,5.191692E2,5E0,5E0,1E1,1.2199301E-1,1.136E3,5.3E1,6.89645E2,2.5E1,2.3E1,2.86E2,4.84E2,5.02736E1,1.18524596E-1,4E0,6E0,5.1E1,1.1679851E-1,7E0,1.2E1,2.1E1,8.56E2,9.30036E1,4.5680836E1,1.1826544E-1,4.704587E2,4.3E1,3.4E1,-1.6153295E-1,3.2590553E-3,8.91E2,7.2E2,6.0465175E-1,4.52029E-1,5.3E1,4.4E1,5.9E1,3.6E1,4.1E1,2E1,7.3985954E1,5.191692E2,1.8811882E2,4.3409628E2,3E0,1.0528986E3,3.3E1,1.1732109E-1,1.1596282E-1,1.1596282E-1,1.18524596E-1,1.9E1,3.6936E1,4.6E1,5.9E1,4.3E1,5.4E1,5.2E1,1.19316466E-1,3.8E1,4.2394653E2,1.18524596E-1,1.1712159E-1,5.5E1,9.22E2,4.6E1,2.6E1,7.16E2,-1.638983E-1,2.9204333E-1,1.1679851E-1,3.8E1,1.67E2,-1.8223327E-1,3.7E1,6.25E2,4.8E1,1.1679851E-1,2.6E1,1.1679851E-1,2.9E1,6.89645E2,6.25E2,8.61E2,1.1596282E-1,7.8204E1,1.04742E2,1.1699827E-1,2.2E1,3E1,2.962172E2,3.19E2,1.1826544E-1,4E0,1.015E3,1.1679851E-1,2.01E2,4.8E1,4.7E1,1.9E1,1.59E2,7.2E2,2.7E1,3.7E1,5E1,8E0,2.8440064E-1,2.2E1,1.136E3,1.9E1,2.7E1,1.18524596E-1,2.7E1,2.48598E1,3.6112E1,5.3E1,9.178426E1,4.239E1,4.8E1,1.1596282E-1,4.014188E1,2.1E1,1.1699827E-1,1.18524596E-1,4.8E1,5.19E2,2.94E2,5.379264E2,4.13E2,1.19316466E-1,1.18524596E-1,5.6E1,1.1679851E-1,3.3E1,1.1679851E-1,4.7E1,2.2E1,-1.6082716E-1,1.1596282E-1,1.1732109E-1,-1.6182439E-1,1.1826544E-1,5.3907466E-1,4.674175E-1,5.0368375E-1,1.2199301E-1,4.7714692E-1,8.02E2,5.739235E-1,5.307165E-1,9.66E0,1.1826544E-1,1.92096E1,1.4E2,1.94012E2,2.2176E2,1.1826544E-1,2.847431E2,5.627766E2,6.501857E2,4.9E1,6E1,1.2199301E-1,5.627766E2,5.379264E2,2.2E1,1.1826544E-1,3.11E2,3.63E2,5.191692E2,4.6E1,5.0112592E2,4.4E1,1.1712159E-1,-3.1725302E-2,1.1699827E-1,2.8E1,4.6E1,8E0,2.9E1,5E1,2.7E1,4.4E1,9.12866E2,1.1826544E-1,1.1826544E-1,9.12866E2,7.962157E-1,5.2E1,1.1699827E-1,2.9E1,3E1,9.12866E2,9.12866E2,3.7E1,1.1826544E-1,8.698622E-1,2.7E1,2.9E1,1.97E2,4E1,4.6E1,3.55E2,4.7E1,1.1699827E-1,1.7803702E3,2E1,4.520837E-1,2.6568946E-1,3.7E1,1.3E1,4.6E1,1.1596282E-1,1.1732109E-1,1.1826544E-1,2E1,3.44864E1,1.12608E1,1.1699827E-1,4.7E1,2.6E1,2.48598E1,2.24224E1,6.25E2,9.2E-1,2.4E1,3.1285706E1,9.2E-1,8.91E2,5.3E1,1.1596282E-1,5.7E1,1.1699827E-1,9.4115715E1,3.3607712E2,1.27987915E2,5.6E1,2E1,1.2199301E-1,3.8650154E1,8.022942E1,3.3E1,2.64552E2,1.53594E2,4.2E1,1.1596282E-1,1.19316466E-1,4.3409628E2,5.0112592E2,1.148E3,4.21E2,1.19316466E-1,5.7E1,5.4E1,4.5646152E2,5.4E1,1.1826544E-1,-1.6177075E-1,-1.6215873E-1,5.8E1,2.4E1,1.1699827E-1,3.2E1,1.286E3,-1.615467E-1,1.1712159E-1,1.2199301E-1,4.9E1,6.2E2,6.807701E-2,2.98E2,4.1E1,1.1826544E-1,4.4E1,3.84E2,-5.0067883E-2,2.51E2,6.648714E-2,6.9436654E-2,4.599172E-1,4.5E1,1.78E2,4.0922E1,1.9988E1,4.5204982E-1,-1.6082393E-1,1.18524596E-1,3.939E1,8.5392E1,3.62604E2,3.2E1,3.4E1,5.9E1,3.9E1,1.3988022E2,5.1E1,2.16E2,1.1699827E-1,5.88945E2,4E1,4.4E1,5.6E1,5E1,2.55E2,1.9E1,1.1826544E-1,-1.6371608E-1,-1.6082627E-1,3.7E1,3.4E1,9.62E2,6.89645E2,4.8E1,8.7989014E-1,5.2704E1,5.95332E1,7.61436E1,8.814662E-1,4.1409494E2,5.88945E2,-4.866826E-2,1.1596282E-1,3.1E1,1.1712159E-1,3.27E2,5.4E1,7.29E2,1.18524596E-1,-1.6459358E-1,-1.7524916E-1,1.19316466E-1,6.89645E2,1.18524596E-1,1.1826544E-1,2.7453516E2,-1.6555324E-1,7E0,1.1699827E-1,3.5E1,4E1,1.07685275E-1,1.1712159E-1,1.18524596E-1,1.93E2,3.1E1,4.3E1,2.8E1,2.4E1,3.8E1,1.9E1,1.1732109E-1,1.2199301E-1,3E0,1.04E2,3.23E2,4E0,1.1596282E-1,7E0,2.28E2,7.9401773E-1,1.1596282E-1,7E0,5.4E1,5.8E1,3.5E1,8E0,1.1712159E-1,3.19E2,9.6E1,5.3E1,4E0,6E0,2.9E1,3E0,3.8E1,4E0,7.72E2,4.8E1,2.5E1,5.0217605E-1,1.1826544E-1,1.1826544E-1,2E1,1.1712159E-1,5E1,4.3E1,1.1699827E-1,2.1E1,1.1826544E-1,1.1E1,1.1712159E-1,5.5E1,4.3E1,2.1E1,-6.2128555E-2,-9.6140094E-2,-1.5749118E-1,-1.07182816E-1,8.257677E-1,-1.6182095E-1,2.3485368E-2,-1.1793115E-1,-1.09727055E-1,-1.396909E-1,-9.675805E-2,-1.06713004E-1,-1.1022109E-1,-1.1722931E-1,-1.3884427E-1,-1.0069527E-1,-8.889878E-2,1.8144829E-3,-1.0056685E-1,-1.1501026E-1,-1.943156E-2,2.8602144E-1,-1.6206996E-1,4.4692714E-2,8.46848E-2,-1.0487423E-1,5.998358E-1,-3.7532996E-2,2.6392126E-2,-1.624044E-1,1.8316765E-1,-1.0260905E-1,-1.11879386E-1,-1.1735447E-1,-1.3566388E-1,5.7897735E-3,-1.324307E-1,-6.684835E-2,-9.7868465E-2,-1.1623895E-1,-1.0716229E-1,-1.10741995E-1,-7.120607E-3,-1.01847626E-1,-1.2242718E-1,-1.5539671E-1,-1.0507645E-1,-1.146413E-1,-1.3434179E-1,-4.9535174E-2,-1.619097E-1,-6.418765E-2,-1.6190454E-1,2.2598098E-1,-7.3814444E-2,-1.4323243E-1,-1.2557824E-1,-9.322364E-2,-1.2198046E-1,-1.0563121E-1,-1.2938091E-1,-1.0644732E-1,-1.01539224E-1,-1.2841775E-1,-1.1666743E-1,-1.5710737E-1,1.4654103E-1,-1.03408575E-1,-1.18852906E-1,-7.153388E-2,-7.7583822E-3,-9.0173416E-2,-7.592622E-2,-1.5355866E-1,-5.9635002E-2,-1.3267921E-1,-9.420733E-2,-1.2954302E-1,3.1427035E-1,-1.0283174E-1,-1.6037568E-1,-1.0095695E-1,-1.2972923E-1,-4.1746847E-2,-6.317064E-3,2.3703435E-1,7.076232E-1,-1.1359775E-1,2.4973387E-2,-1.12313375E-1,-6.3511714E-2,-1.271324E-1,-3.2803662E-2,-1.4835432E-1,6.9689736E-2,-5.5706974E-2,3.5935033E-2,9.703866E-1,-9.5516436E-2,2.676888E-1,-1.6453747E-1,-1.6242412E-1,-5.0002295E-3,7.0310235E-1,-1.4205869E-1,-7.9572394E-2,-1.625846E-1,-2.6463978E-2,3.2823044E-1,5.3811145E-1,1.5490463E-1,-1.0144223E-1,-1.6272855E-1,3.1625724E-1,5.9118664E-1,8.6278164E-1,1.6296506E-1,4.545209E-1,1.2653823E-1,5.315333E-1,3.7143025E-1,-5.72582E-2,1.0302599E-3,5.4358907E-2,-8.525298E-2,2.387709E-2,1.1643585E-1,-1.4494776E-2,1.7165135E-1,-1.6462296E-1,2.8942698E-1,6.668055E-1,-4.14558E-2,8.770637E-3,-5.0883267E-2,-4.3915343E-3,-7.7018164E-2,-4.773064E-2,-3.0593896E-2,-6.227335E-2,-5.473402E-2,-1.4622732E-1,-1.0097172E-1,-2.2667302E-2,-3.8972097E-3,-4.1769467E-2,7.288017E-3,-2.3377301E-2,1.1627282E-1,-8.325547E-2,1.18759E-1,2.6721343E-2,1.0747123E-1,2.0600267E-1,2.027229E-2,2.7281058E-1,1.9133123E-2,-6.0552277E-2,4.9244806E-2,-3.5764206E-2,1.415326E-1,2.2179237E-2,-7.513955E-2,8.5635006E-1,2.5935483E-1,5.6131072E-2,-3.6623616E-2,-1.6082132E-1,-1.0305067E-1,7.877483E-2,1.5582298E-1,7.573132E-2,1.5792806E-1,-1.3237602E-1,1.8299273E-1,3.962136E-1,8.749048E-3,5.232162E-1,1.254813E-1,-2.0832945E-2,-7.881264E-2,-1.598222E-1,2.1852738E-1,8.82397E-1,6.0484674E-2,3.5132345E-2,1.23735934E-1,6.2335387E-2,3.1476495E-1,4.7865996E-1,1.2644966E-1,6.928721E-2,-1.05646126E-1,1.447235E-1,1.8506844E-1,-3.4465298E-2,4.8397198E-1,1.1180316E-1,1.6655324E-2,7.152336E-1,1.8448894E-1,9.116216E-2,2.7856228E-1,4.794172E-2,4.123308E-1,6.690138E-1,3.8129743E-2,1.6630298E-1,3.479372E-1,1.6773866E-1,6.7323667E-1,1.3306528E-1,5.551245E-1,4.9528036E-1,8.197485E-1,6.4609075E-1,2.005583E-1,4.5817846E-1,2.9011038E-1,1.512943E-1,5.854141E-1,4.1563395E-1,1.8242724E-1,4.1964003E-1,3.452675E-1,6.7016596E-1,3.4768816E-2,2.1881893E-1,3.479538E-1,6.630714E-2,1.14458114E-1,5.029722E-2,2.2435339E-1,1.0818716E-1,1.6189194E-1,3.312962E-1,4.091577E-1,1.2286456E-1,2.1069553E-1,9.4552115E-2,1.9791022E-1,6.7286533E-1,7.8350306E-1,-3.622721E-2,7.209558E-1,7.870209E-1,9.852282E-3,3.7609452E-1,2.2100931E-1,4.2177048E-1,3.5021332E-1,1.7394422E-1,1.0933408E-1,-1.8707575E-1,3.4332812E-1,5.355476E-1,-7.62961E-2,6.376194E-1,-1.10103376E-1,1.3062727E-1,-1.7299624E-1,7.0049785E-2,5.1056355E-1,1.5126364E-1,4.1345075E-1,1.3941687E-1,5.757651E-1,1.9836096E-1,3.5553504E-2,5.830331E-1,1.71412E-1,5.619532E-1,1.978257E-1,-3.5929014E-3,2.6087764E-1,1.4043826E-1,2.3227419E-1,5.5464524E-1,2.9572812E-1,4.6708897E-2,6.327249E-1,3.6716303E-1,4.8251083E-1,6.036879E-1,2.7168208E-1,1.0253971E-1,1.880648E-1,3.16818E-1,4.8824996E-1,7.259017E-1,5.2948874E-1,4.3572062E-1,2.305926E-1,-1.0048424E-1,5.3079945E-1,2.5511762E-1,8.752729E-2,4.824076E-1,4.6469596E-1,5.873006E-1,2.9762128E-1,3.902904E-1,2.927496E-1,4.3681145E-1,5.6277525E-2,3.188537E-1,5.4208744E-1,4.2526665E-1,5.7066545E-2,3.524433E-1,4.0353593E-1,4.6305075E-1,4.5204782E-1,6.141651E-1,4.5203772E-1,2.3812336E-1,4.5700887E-1,3.9440018E-1,4.4661188E-1,3.622847E-1,5.2384657E-1,4.5159656E-1],"split_indices":[1,2,2,2,2,1,2,2,2,0,5,2,1,1,1,5,0,4,2,4,4,0,0,2,5,1,1,4,5,1,1,4,0,2,2,3,2,4,4,0,0,0,0,0,0,4,4,4,4,4,4,2,2,2,2,1,2,4,5,5,5,5,4,2,4,4,4,4,4,5,4,2,5,5,4,0,4,4,0,0,0,5,4,0,0,4,0,4,5,4,5,4,2,0,0,5,2,2,5,0,4,2,0,3,1,0,5,0,4,4,4,0,0,4,4,4,0,0,0,0,4,4,5,4,2,2,4,2,2,4,5,2,4,5,5,4,0,0,2,0,5,5,4,5,4,5,4,4,0,5,5,0,3,0,0,0,5,0,0,0,0,2,3,2,0,2,2,3,2,2,2,4,4,5,2,2,4,3,0,0,2,0,2,4,5,0,5,4,4,1,4,0,4,4,2,3,3,2,0,4,5,4,4,2,2,4,3,0,4,4,0,4,4,0,4,5,2,4,0,0,4,1,0,5,5,3,4,2,2,5,4,4,2,2,0,2,4,2,2,0,4,5,4,5,2,2,2,4,4,5,2,2,4,2,2,4,5,5,2,2,0,0,5,4,4,2,4,3,0,0,4,4,5,4,0,0,5,5,4,0,0,0,4,3,4,0,0,0,0,0,0,4,0,2,2,0,0,5,2,2,2,4,4,4,4,2,4,0,5,2,4,4,4,4,0,4,3,0,0,4,4,0,2,4,0,2,2,2,0,2,2,0,5,4,5,0,4,0,5,0,0,5,2,5,3,2,0,1,5,4,4,0,5,5,0,4,4,4,4,4,4,5,5,1,0,0,1,5,1,0,0,5,1,4,4,4,1,5,0,0,4,1,1,4,1,4,1,0,4,4,0,3,3,4,5,0,4,5,4,3,1,5,4,0,4,0,0,0,0,0,0,0,0,0,0,0,0,0,0,0,0,0,0,0,0,0,0,0,0,0,0,0,0,0,0,0,0,0,0,0,0,0,0,0,0,0,0,0,0,0,0,0,0,0,0,0,0,0,0,0,0,0,0,0,0,0,0,0,0,0,0,0,0,0,0,0,0,0,0,0,0,0,0,0,0,0,0,0,0,0,0,0,0,0,0,0,0,0,0,0,0,0,0,0,0,0,0,0,0,0,0,0,0,0,0,0,0,0,0,0,0,0,0,0,0,0,0,0,0,0,0,0,0,0,0,0,0,0,0,0,0,0,0,0,0,0,0,0,0,0,0,0,0,0,0,0,0,0,0,0,0,0,0,0,0,0,0,0,0,0,0,0,0,0,0,0,0,0,0,0,0,0,0,0,0,0,0,0,0,0,0,0,0,0,0,0,0,0,0,0,0,0,0,0,0,0,0,0,0,0,0,0,0,0,0,0,0,0,0,0,0,0,0,0,0,0,0,0,0,0,0,0,0,0,0,0,0,0,0,0,0,0,0,0,0,0,0,0,0,0,0,0,0,0,0,0,0,0,0,0,0,0,0,0,0,0,0,0,0,0,0,0,0,0,0,0,0,0,0,0,0,0,0,0,0,0,0,0,0,0,0,0,0,0,0,0,0,0,0,0,0,0,0,0,0,0,0,0,0,0,0,0,0,0,0,0,0,0,0,0,0,0,0,0,0,0,0],"split_type":[0,0,0,0,0,0,0,0,0,0,0,0,0,0,0,0,0,0,0,0,0,0,0,0,0,0,0,0,0,0,0,0,0,0,0,0,0,0,0,0,0,0,0,0,0,0,0,0,0,0,0,0,0,0,0,0,0,0,0,0,0,0,0,0,0,0,0,0,0,0,0,0,0,0,0,0,0,0,0,0,0,0,0,0,0,0,0,0,0,0,0,0,0,0,0,0,0,0,0,0,0,0,0,0,0,0,0,0,0,0,0,0,0,0,0,0,0,0,0,0,0,0,0,0,0,0,0,0,0,0,0,0,0,0,0,0,0,0,0,0,0,0,0,0,0,0,0,0,0,0,0,0,0,0,0,0,0,0,0,0,0,0,0,0,0,0,0,0,0,0,0,0,0,0,0,0,0,0,0,0,0,0,0,0,0,0,0,0,0,0,0,0,0,0,0,0,0,0,0,0,0,0,0,0,0,0,0,0,0,0,0,0,0,0,0,0,0,0,0,0,0,0,0,0,0,0,0,0,0,0,0,0,0,0,0,0,0,0,0,0,0,0,0,0,0,0,0,0,0,0,0,0,0,0,0,0,0,0,0,0,0,0,0,0,0,0,0,0,0,0,0,0,0,0,0,0,0,0,0,0,0,0,0,0,0,0,0,0,0,0,0,0,0,0,0,0,0,0,0,0,0,0,0,0,0,0,0,0,0,0,0,0,0,0,0,0,0,0,0,0,0,0,0,0,0,0,0,0,0,0,0,0,0,0,0,0,0,0,0,0,0,0,0,0,0,0,0,0,0,0,0,0,0,0,0,0,0,0,0,0,0,0,0,0,0,0,0,0,0,0,0,0,0,0,0,0,0,0,0,0,0,0,0,0,0,0,0,0,0,0,0,0,0,0,0,0,0,0,0,0,0,0,0,0,0,0,0,0,0,0,0,0,0,0,0,0,0,0,0,0,0,0,0,0,0,0,0,0,0,0,0,0,0,0,0,0,0,0,0,0,0,0,0,0,0,0,0,0,0,0,0,0,0,0,0,0,0,0,0,0,0,0,0,0,0,0,0,0,0,0,0,0,0,0,0,0,0,0,0,0,0,0,0,0,0,0,0,0,0,0,0,0,0,0,0,0,0,0,0,0,0,0,0,0,0,0,0,0,0,0,0,0,0,0,0,0,0,0,0,0,0,0,0,0,0,0,0,0,0,0,0,0,0,0,0,0,0,0,0,0,0,0,0,0,0,0,0,0,0,0,0,0,0,0,0,0,0,0,0,0,0,0,0,0,0,0,0,0,0,0,0,0,0,0,0,0,0,0,0,0,0,0,0,0,0,0,0,0,0,0,0,0,0,0,0,0,0,0,0,0,0,0,0,0,0,0,0,0,0,0,0,0,0,0,0,0,0,0,0,0,0,0,0,0,0,0,0,0,0,0,0,0,0,0,0,0,0,0,0,0,0,0,0,0,0,0,0,0,0,0,0,0,0,0,0,0,0,0,0,0,0,0,0,0,0,0,0,0,0,0,0,0,0,0,0,0,0,0,0,0,0,0,0,0,0,0,0,0,0,0,0,0,0,0,0,0,0,0,0,0,0,0,0,0,0,0,0,0,0,0,0,0,0,0,0,0,0,0,0,0,0,0,0,0,0,0,0],"sum_hessian":[1.3500252E5,1.1283781E5,2.21647E4,1.1280358E5,3.4232845E1,1.953411E4,2.6305906E3,1.089754E5,3.8281802E3,1.6840643E1,1.7392202E1,1.4728317E4,4.8057915E3,1.5732751E3,1.0573156E3,2.4387107E4,8.458829E4,3.1552522E3,6.72928E2,3.2201908E0,1.3620453E1,2.6060047E0,1.4786198E1,1.3327884E4,1.4004338E3,4.479392E3,3.2639938E2,1.1676125E3,4.056626E2,8.884965E2,1.6881898E2,2.1675182E4,2.711927E3,7.919248E4,5.395811E3,2.5747837E3,5.804685E2,6.104833E2,6.2444683E1,1.9605544E0,1.2596363E0,2.7877114E0,1.0832742E1,1.59157E0,1.0144346E0,7.5567393E0,7.2294583E0,7.028031E2,1.262508E4,9.450967E2,4.5533713E2,3.5108586E3,9.6853375E2,2.366101E2,8.978926E1,9.3001996E2,2.3759259E2,8.9754326E1,3.1590826E2,6.199181E2,2.6857843E2,8.4810936E1,8.400805E1,1.4714867E3,2.0203695E4,2.1023672E3,6.095599E2,2.8448992E4,5.074349E4,3.1252374E2,5.0832876E3,1.3431472E3,1.2316365E3,3.539142E2,2.2655432E2,3.7800223E2,2.3248105E2,1.771034E1,4.473434E1,1.6856425E0,1.102069E0,8.301255E0,2.5314858E0,5.962353E0,1.5943856E0,5.0402083E0,2.18925E0,6.70713E2,3.2090096E1,5.42878E3,7.196301E3,4.7348288E2,4.7161383E2,3.0898996E1,4.2443814E2,8.831453E1,3.422544E3,4.8571756E2,4.8281616E2,9.907258E0,2.2670285E2,1.5637593E1,7.4151665E1,2.0848671E2,7.2153326E2,1.7645477E2,6.113782E1,3.4543354E1,5.5210976E1,1.2262642E2,1.9328185E2,5.1287003E1,5.686311E2,3.3503174E1,2.3507524E2,6.555832E1,1.9252617E1,1.4404732E0,8.256757E1,1.454327E3,1.7159685E1,1.2486549E4,7.717146E3,2.024367E3,7.800011E1,3.6395853E2,2.4560136E2,2.3940408E4,4.508582E3,4.0116895E4,1.0626593E4,2.4271495E2,6.980879E1,2.3695994E3,2.7136882E3,3.7998224E2,9.631649E2,8.1232153E2,4.1931497E2,1.5979288E2,1.9412134E2,5.755308E1,1.6900124E2,3.2557092E2,5.2431297E1,3.455964E1,1.979214E2,9.007834E0,8.702505E0,3.308454E1,1.16498E1,1.2880592E0,7.013196E0,1.3151511E0,1.2163348E0,1.4779112E0,4.484442E0,1.7477686E0,3.2924397E0,1.1667697E0,1.0224802E0,4.646534E2,2.0605962E2,6.778118E0,2.5311975E1,2.368491E3,3.0602888E3,1.5989899E3,5.5973105E3,2.2165672E2,2.5182616E2,3.5818762E2,1.1342619E2,2.0221949E1,1.0677048E1,3.9184888E2,3.258927E1,6.523119E0,8.179141E1,1.083432E1,3.4117097E3,1.1156761E1,4.745608E2,1.519802E2,3.3083597E2,1.0850968E0,8.822162E0,5.2340946E1,1.7436191E2,8.727956E0,6.9096384E0,6.132137E1,1.2830297E1,7.9751045E1,1.2873566E2,4.3450677E2,2.8702652E2,1.7530896E2,1.1458119E0,5.971884E0,5.5165936E1,2.8107952E1,6.435402E0,2.7915136E1,2.729584E1,7.531257E1,4.7313847E1,1.7085735E0,1.9157327E2,3.1698288E1,1.9588715E1,5.6238007E2,6.251026E0,1.1564681E1,2.1938492E1,1.1474474E2,1.20330505E2,5.3948486E1,1.1609835E1,1.1181922E0,1.8134424E1,1.9013296E1,6.355428E1,1.3572794E3,9.70475E1,3.8901057E0,1.3269579E1,2.9980752E3,9.488474E3,5.83619E3,1.8809564E3,4.3315143E2,1.5912156E3,5.1905556E1,2.6094547E1,3.507781E2,1.3180432E1,1.3360619E2,1.1199517E2,2.3567484E4,3.7292535E2,4.3175345E2,4.0768286E3,3.5564246E4,4.552648E3,1.2465592E3,9.380034E3,7.871027E1,1.6400468E2,6.6847873E0,6.3124004E1,8.0393384E2,1.5656655E3,1.8288246E3,8.848635E2,2.967372E2,8.324503E1,5.0483868E2,4.5832626E2,2.4126979E2,5.7105176E2,3.9500037E2,2.431458E1,6.363882E1,9.615405E1,1.2482206E2,6.929928E1,4.0510654E1,1.7042429E1,3.4874035E1,1.341272E2,5.6708622E1,2.688623E2,2.858474E1,2.3846558E1,1.0312384E1,2.4247255E1,1.8626476E1,1.7929494E2,7.7228804E0,1.2849543E0,2.4282746E0,3.0656267E1,7.9978714E0,3.6519291E0,5.910682E0,1.1025143E0,2.9239447E0,1.5604975E0,1.5066497E0,1.78579E0,8.067265E0,4.5658615E2,8.377099E1,1.2228862E2,1.1271312E0,5.6509867E0,8.5480175E0,1.676396E1,9.4255835E2,1.4259327E3,1.5400531E3,1.5202357E3,7.8647705E2,8.125128E2,3.6953577E3,1.901953E3,7.6052826E1,1.456039E2,1.5011655E2,1.01709595E2,1.3351468E2,2.2467294E2,1.0907602E2,4.3501716E0,1.3055086E1,7.166862E0,3.1047356E0,7.572312E0,4.029315E1,3.5155573E2,3.604377E0,2.8984896E1,4.548157E0,1.9749615E0,4.4626537E1,3.716487E1,8.087432E0,2.7468882E0,2.463256E3,9.484537E2,1.7176294E0,9.439132E0,4.4288144E2,3.1679354E1,9.100196E1,6.0978237E1,5.5400192E1,2.754358E2,7.3733516E0,1.4488099E0,4.4994286E1,7.346659E0,1.0732487E2,6.703703E1,6.5402975E0,2.1876578E0,2.6735945E0,4.236044E0,1.4789613E1,4.6531757E1,1.5796353E0,1.1250662E1,6.726577E1,1.2485277E1,7.4803635E1,5.3932026E1,2.35347E2,1.9915976E2,1.3860835E2,1.4841817E2,8.0116035E1,9.5192924E1,2.8972325E0,3.074651E0,1.2512538E1,4.2653397E1,2.2270218E1,5.837735E0,4.9807158E0,1.4546859E0,4.909594E0,2.300554E1,6.922286E0,2.0373552E1,5.3676575E1,2.1635996E1,1.818699E1,2.9126856E1,2.5077726E1,1.6649554E2,8.718428E0,2.297986E1,5.0937243E0,1.4494989E1,2.748447E2,2.8753537E2,2.8177898E0,3.4332364E0,1.00863085E1,1.4783726E0,1.1277062E1,1.0661429E1,1.3994308E1,1.00750435E2,4.398383E1,7.634668E1,6.5290504E0,4.7419437E1,1.45369215E1,3.5975027E0,4.0518546E0,1.4961441E1,1.561291E1,4.794137E1,1.3014499E2,1.2271345E3,5.2383213E1,4.4664288E1,2.017581E0,1.8725249E0,3.185527E0,1.0084052E1,2.7316553E3,2.6641998E2,2.901644E3,6.586829E3,2.9419614E3,2.8942283E3,1.3433344E2,1.746623E3,3.9711383E2,3.6037594E1,1.033884E3,5.5733154E2,4.8117455E1,3.7881007E0,2.1811417E1,4.2831306E0,3.587491E0,3.471906E2,3.67508E0,9.505353E0,1.0703646E2,2.656973E1,2.7718415E0,1.0922333E2,2.0140486E4,3.426998E3,3.676392E2,5.2861576E0,6.971496E1,3.6203848E2,1.7233306E3,2.353498E3,1.1958906E4,2.3605342E4,3.386772E1,4.51878E3,1.1557339E3,9.082531E1,2.1975945E3,7.1824395E3,6.689615E1,1.1814129E1,1.0790398E1,1.5321428E2,4.2226787E0,2.4621086E0,4.1867313E0,5.8937275E1,2.0411206E2,5.998218E2,1.18639E3,3.7927548E2,1.5912986E3,2.37526E2,5.0441653E2,3.8044696E2,2.5211115E2,4.4626076E1,4.0703664E0,7.917467E1,3.942082E2,1.106305E2,5.7868748E1,4.004575E2,1.8373372E2,5.7536076E1,5.31627E2,3.9424736E1,1.552706E2,2.3972978E2,5.2695036E0,1.9045078E1,3.0222145E1,3.3416676E1,2.0510592E1,7.564346E1,1.15963554E2,8.858502E0,1.7818267E0,6.751745E1,2.287625E1,1.7634405E1,5.4397667E1,7.972954E1,1.3531491E1,4.317713E1,2.2714409E1,2.461479E2,2.7218052E1,1.3666863E0,2.195946E1,1.8870987E0,8.265339E0,1.5981916E1,1.7262266E1,1.3642105E0,3.2244617E1,1.4705031E2,6.6630826E0,1.0597981E0,1.0075849E0,1.4206898E0,6.7515335E0,2.3904734E1,3.4938064E0,4.504065E0,2.6487477E0,1.0031815E0,1.4971106E0,4.4135714E0,1.390183E0,1.5337617E0,5.9640603E0,2.103204E0,1.4244775E2,3.141384E2,6.723466E1,1.6536333E1,2.0479137E1,1.0180949E2,5.80545E0,2.742567E0,1.5196403E1,1.5675564E0,2.2157368E2,7.209847E2,1.0023466E3,4.235861E2,9.2817914E2,6.1187396E2,1.1677904E3,3.5244522E2,7.092851E2,7.7191986E1,7.773488E1,7.3477795E2,1.3870374E3,2.3083203E3,1.13883E3,7.63123E2,2.23235E1,5.3729324E1,5.322806E1,9.237584E1,9.955875E1,5.0557804E1,9.294272E1,8.766881E0,5.4944897E1,7.856978E1,1.5144849E2,7.3224464E1,3.8956E1,7.0120026E1,2.4035685E0,1.9466031E0,3.7279606E0,9.327126E0,2.759088E0,4.407774E0,1.9436224E1,2.085693E1,1.15816956E2,2.3573875E2,1.1515307E0,2.452846E0,1.9059902E1,9.924994E0,3.3710504E0,1.1771069E0,1.6185675E1,2.8440865E1,1.0137449E1,2.702742E1,6.3281493E0,1.7592821E0,1.9113048E3,5.519513E2,2.2661714E2,7.2183655E2,3.7657528E0,5.673379E0,1.1215729E2,3.3072415E2,2.4584394E1,7.0949593E0,6.533679E1,2.566517E1,2.9246145E1,3.1732092E1,5.439682E1,1.0033734E0,9.414612E1,1.8128967E2,3.9582554E1,5.4117317E0,5.3402085E0,2.0064507E0,6.2681572E1,4.464329E1,2.7112114E1,3.9924923E1,2.9455347E0,3.5947628E0,1.3919806E0,1.2816136E0,1.1944933E0,3.0415506E0,6.328843E0,8.46077E0,1.9458258E1,2.7073502E1,3.7206502E0,7.5300117E0,5.056199E1,1.6703775E1,4.1506815E0,8.334596E0,4.3565754E1,3.1237883E1,3.554474E1,1.8387287E1,6.9742546E1,1.6560445E2,3.7793056E1,1.613667E2,8.9458984E1,4.9149364E1,7.146133E0,1.4127205E2,3.462816E1,4.5487877E1,9.136774E1,3.8251863E0,1.2378585E0,1.659374E0,1.0702755E0,2.0043755E0,9.050371E0,3.4621665E0,2.4303125E1,1.8350271E1,1.1152838E1,1.1117379E1,3.9524553E0,1.8852797E0,1.1144552E0,3.8662608E0,3.172696E0,1.7368981E0,2.1073616E1,1.9319254E0,4.147285E0,2.775001E0,9.375461E0,1.0998092E1,4.2800438E1,1.0876137E1,1.9479834E1,2.1561623E0,1.6558483E1,1.6285071E0,2.1792944E1,7.3339133E0,9.657499E0,1.5420227E1,1.2068369E2,4.581185E1,1.5880262E0,7.1304016E0,1.5466305E1,7.5135546E0,1.452106E0,3.641618E0,2.9220436E0,1.1572946E1,2.464772E2,2.8367495E1,4.39036E1,2.4363179E2,1.0944822E0,1.7233076E0,1.3330128E0,2.1002235E0,3.422037E0,6.6642714E0,7.13303E0,4.1440325E0,7.054955E0,3.6064742E0,5.5700254E0,8.424283E0,1.6122414E1,8.462801E1,1.2558475E1,3.1425354E1,1.616284E1,6.0183838E1,3.1132112E0,3.4158392E0,1.5577227E0,4.5861713E1,3.3080702E0,1.1228851E1,2.0289154E0,1.5685875E0,1.6907681E0,2.3610866E0,1.2098883E1,2.8625586E0,1.455972E1,1.0531901E0,1.3360243E0,4.6605343E1],"tree_param":{"num_deleted":"0","num_feature":"7","num_nodes":"727","size_leaf_vector":"1"}},{"base_weights":[-5.643808E-1,-7.2807986E-1,1.9164419E-1,-7.288447E-1,1.4710616E0,-6.163213E-2,9.024518E-1,-7.35093E-1,-5.547924E-1,1.3797272E0,4.315203E-1,-1.7463644E-1,3.7856993E-1,6.9106156E-1,1.7049782E0,-7.08289E-1,-7.4507064E-1,-5.9586203E-1,-3.6901322E-1,-1.2309464E0,1.5598891E0,1.593528E-1,-1.9271442E-1,3.570467E-1,8.916531E-1,5.860333E-1,1.299886E0,1.6068518E0,2.2510169E0,-7.1734893E-1,-6.357711E-1,-7.4248546E-1,-7.8953964E-1,-6.2807786E-1,-4.5620152E-1,-1.3024577E-1,-4.4639784E-1,-1.5762764E-1,-1.8667248E-1,1.3794763E0,2.6010404E0,-4.3804236E-2,3.563595E-1,-2.0432626E-1,7.8360796E-2,-1.15846E-1,3.70717E-1,-9.8386496E-1,1.013616E0,4.7071564E-1,8.2671356E-1,1.1497589E0,1.5350839E0,1.9107728E0,1.5740092E0,2.1644511E0,2.40388E0,-7.212194E-1,-6.672993E-1,-6.45565E-1,-3.0911025E-1,-7.6483387E-1,-7.388681E-1,-8.03891E-1,-6.9259036E-1,-6.2283003E-1,-1.0524129E0,-3.2943088E-1,-6.610228E-1,-4.66852E-1,2.305977E-1,-5.071085E-1,5.4035258E-2,1.0897738E0,2.1109452E0,2.4531891E0,3.908626E-1,-3.34492E-1,2.7011517E-1,7.930066E-1,1.9027181E-1,-1.14722684E-1,-2.3524563E-1,-1.3943589E-1,3.129384E-1,3.5862932E-1,-9.0714335E-1,2.1902945E0,3.617255E-1,-1.6091928E-1,-5.2198965E-2,1.4644428E0,5.1332206E-1,5.890286E-1,2.1586089E-1,7.5026894E-1,1.1230999E0,1.960926E0,1.0854181E0,1.6679572E0,9.9239147E-1,2.3847065E0,1.5577271E0,1.4795072E0,1.7981142E0,2.1474254E0,4.922509E-1,2.4288235E0,2.316282E0,-7.1492124E-1,-7.746526E-1,-7.030276E-1,-5.1780134E-1,-6.8725187E-1,-5.706049E-1,3.5279858E0,-4.3074992E-1,-8.0063546E-1,-7.4694616E-1,-7.007491E-1,-7.4278855E-1,-7.654118E-1,-8.3783764E-1,-3.4806147E-2,-7.365664E-1,-6.6632825E-1,-5.755004E-1,-1.0978295E0,-8.614863E-1,-5.725894E-1,-1.3929574E-1,-5.65887E-1,-8.3301055E-1,-5.653604E-1,2.9069576E0,-6.112227E-2,1.5836827E0,-7.407991E-1,-4.0982315E-1,-4.192519E-1,6.179345E-1,1.6929318E0,2.6589715E-1,2.5896566E0,1.3083951E0,3.5117564E-1,3.347282E-1,2.2852634E-1,-4.8477915E-1,9.985704E-2,2.86534E0,5.1290953E-1,2.6475923E0,7.014704E-1,6.897566E-2,-1.9669557E-1,-1.9536916E-2,-3.0698365E-1,-1.8306452E-1,-2.0857489E-1,9.277172E-1,2.5003237E-1,1.4810271E0,-8.1684417E-1,7.0430773E-1,2.2335759E-1,-1.0611751E0,1.4964858E0,2.9650533E0,4.299967E-3,3.734991E-1,1.0177884E0,2.8711307E0,-4.341582E-1,1.0245892E0,6.186468E-1,2.5347373E-1,2.733635E-1,-2.7790013E-1,1.1421837E0,6.338531E-1,9.463201E-1,1.5911725E0,2.6235352E0,1.15811E0,9.593151E-1,1.4480212E0,6.1111635E-1,1.7105087E0,9.048771E-1,4.743373E-1,2.1015022E0,2.7360537E0,1.3652837E0,2.6562486E0,1.4652989E0,2.8158674E0,2.047754E0,1.6112064E0,2.090276E0,2.452904E0,2.466037E0,3.389647E-1,1.7944661E0,2.4433687E0,-6.588416E-1,-7.227587E-1,-8.9015466E-1,-7.379523E-1,-6.385378E-1,-7.835977E-1,-6.3301885E-1,-2.7023345E-1,-6.141319E-1,-7.492485E-1,-4.1355577E-1,-6.699074E-1,-1.6112253E-1,9.734266E-1,-5.731432E-1,6.203177E-1,-7.803269E-1,-8.7005E-1,-7.098098E-1,-7.846514E-1,-7.206405E-1,-6.0913676E-1,-7.755079E-1,-7.381148E-1,-8.1099516E-1,-6.312755E-1,-8.733839E-1,-7.0466787E-1,-2.4309427E-1,1.6167059E0,-5.43916E-1,-8.276885E-1,-8.122611E-1,-6.257789E-1,-4.9962008E-1,-7.258038E-1,-1.0078658E0,-1.5988037E-1,-2.939613E-2,-1.5989482E-1,-7.870703E-1,-3.4066197E-1,6.2539294E-2,-5.430206E-1,-4.284007E-1,-9.733908E-1,-1.0175829E0,-5.184006E-1,-8.343869E-1,-9.5073687E-4,-1.589047E-1,1.0681906E0,5.2525413E-1,-8.5337716E-1,3.4839492E0,1.3295478E-1,-6.1985135E-1,-9.2593664E-1,-7.331045E-1,-3.389472E-1,-8.2117426E-1,1.6803288E-1,1.0671024E0,-1.1865671E0,1.1828032E0,2.9550705E0,-7.5284E-1,1.629821E0,1.7322046E-1,2.9529002E0,2.9216325E-2,3.2508865E-1,6.457492E-1,-5.587792E-1,-8.180493E-1,-3.1906256E-1,-4.4894874E-1,3.5997006E-1,4.269604E0,6.180072E-1,9.3232834E-1,-3.9450377E-1,5.50882E0,1.8071452E0,3.530013E-1,2.765759E0,-2.3578204E-1,4.7024915E-1,-1.1170759E-2,-2.9828003E-1,-5.99089E-2,5.3952223E-1,-7.195494E-2,-3.3761936E-1,-2.633693E-1,-1.3860026E-1,-2.524185E-1,3.370119E-1,4.3734543E-2,2.8710349E0,4.0008858E-1,-8.518429E-1,5.736755E0,3.044033E-1,-6.173345E-1,-1.0805172E0,3.6927674E0,4.9492583E-1,-8.0395496E-1,-1.1540633E0,-2.688525E-1,2.6634326E0,4.093519E0,2.4752185E0,3.0975432E0,-1.6295493E-1,1.5029149E0,3.610994E-1,-8.6027724E-1,1.193789E0,2.236378E0,3.4546487E0,-6.7962253E-1,1.6894386E0,1.9738237E0,7.332367E-1,8.484885E-1,5.6062746E-1,-1.0096753E-1,7.551907E-1,2.0300631E-1,8.6430824E-1,-5.3485304E-1,1.2971716E0,9.7577953E-1,1.8954237E0,4.226051E-1,9.5685637E-1,1.1511445E0,6.550302E-1,1.2094363E0,1.960117E0,2.9722407E0,-1.804532E-1,8.3680546E-1,3.0518484E0,9.245566E-3,1.023644E0,1.2327472E0,3.6731648E0,-2.0401028E-1,3.4637305E-1,1.6672558E0,2.3546908E0,1.5708941E0,7.341683E-1,1.5894042E0,2.7673502E0,2.4653013E0,2.8413177E0,1.0100375E0,2.1207068E0,2.9885912E0,2.0441839E-1,1.1814247E0,1.5175372E0,3.0368092E0,2.5800674E0,2.2190554E0,1.672451E0,1.4748472E0,2.1936383E0,2.1735935E0,1.3308628E0,2.4077997E0,2.5815017E0,3.37569E-1,3.594114E-1,1.5288402E-1,3.4240335E-1,3.5032892E-1,3.3911374E-1,-9.438441E-2,-6.448686E-2,-9.8809175E-2,-1.0710318E-1,-1.377476E-1,-1.1488068E-1,-1.1345252E-1,-9.030538E-2,-9.9015266E-2,8.622454E-4,-1.3841853E-1,-1.0311471E-1,-3.764181E-2,-1.0919518E-1,-7.61934E-2,3.1342544E-2,-1.2075248E-1,-7.921943E-2,-1.1040016E-1,-6.1805524E-2,-3.71968E-2,-8.54607E-2,-1.00369364E-1,-6.1176192E-2,-4.461729E-2,-1.6014506E-1,1.1157824E0,-6.789683E-2,-8.737674E-2,-1.1143242E-1,-1.3345458E-1,-1.0692244E-1,-1.16137385E-1,-9.313723E-2,-1.0363823E-1,-1.1973775E-1,-1.025284E-1,-8.641411E-2,-9.330716E-2,-4.3826006E-2,-1.0129598E-1,-1.120745E-1,-1.02310844E-1,-1.07009426E-1,-9.2030324E-2,-1.1630385E-1,-7.109664E-2,-1.0592804E-1,-1.1900202E-1,-1.3903153E-1,-8.240644E-2,-1.1715132E-1,3.4380397E-1,-5.6390975E-2,-1.5935409E-1,6.611834E-1,-3.5202898E-2,-9.996738E-2,-1.21875174E-1,-5.4531693E-2,-1.3648057E-1,-7.407223E-2,-3.2104842E-2,-9.0775326E-2,-4.6422403E-2,-7.7685885E-2,9.9211425E-2,-1.062327E-1,-1.6011174E-1,-1.1524458E-1,-6.35596E-2,-1.5878253E-1,4.7848534E-2,-8.364065E-2,2.9654957E-2,-1.3469917E-1,4.2391726E-1,-9.8792516E-2,-4.5838855E-2,-1.5965684E-1,-1.5963934E-1,1.2382932E-3,3.8798697E-2,-1.5772113E-1,-1.02554694E-1,2.839714E-1,-1.3714896E-1,-5.7305605E-3,1.5988874E-1,-3.045278E-2,2.0574281E-2,7.2038406E-1,-1.6329277E-1,2.6332296E-2,-1.1792372E-1,6.6303265E-1,-9.0432286E-2,1.794077E-1,-1.3423857E-1,-6.2882796E-2,-1.5274873E-1,-1.05173856E-1,-1.1986393E-1,4.949517E-1,1.0779949E-2,-6.815979E-2,-3.3481017E-2,-1.454002E-1,1.6940993E-1,-1.5978187E-1,-1.57718E-1,2.4165954E-1,-1.6471952E-1,-1.7104192E-1,-4.8458014E-2,2.7067554E-1,5.2779496E-1,3.4497792E-1,-1.6313438E-1,6.4831236E-3,3.5168064E-1,1.0518977E-1,3.8979524E-1,4.7165602E-1,8.417706E-3,2.0529243E-1,-1.4278771E-1,3.5913873E-2,3.637941E-3,-1.5043563E-1,5.3635005E-2,-8.343127E-2,1.0944989E-1,-1.0700505E-1,6.739441E-2,-1.0667658E-1,3.325648E-1,8.7346506E-1,2.9335177E-1,-1.6580684E-1,1.9413339E-1,-1.227969E-1,1.6862345E-1,-1.2707806E-1,6.970558E-1,8.1847113E-1,-1.4036936E-3,6.290067E-1,2.636192E-1,2.0173555E-2,-1.3900322E-1,6.9749427E-1,-5.198007E-2,1.2963851E-1,2.3438074E-1,8.006723E-3,-3.8436964E-2,1.7479949E-2,-2.9906722E-2,-6.391451E-2,-5.723918E-3,-1.1358424E-1,1.02689154E-1,-1.00878E-1,3.6705844E-2,-5.101014E-2,-6.8642415E-2,-4.122312E-2,-5.0337218E-2,-2.3398396E-2,-3.0045217E-2,-8.551605E-3,-2.8710274E-2,-1.3739854E-1,2.8059953E-1,-4.2034432E-2,2.5777206E-1,-1.1692168E-1,5.922914E-1,-1.6468604E-1,4.638784E-2,7.54197E-1,-1.6557826E-1,-9.6411414E-2,6.3189894E-1,9.0359074E-1,4.0846723E-1,-5.291601E-2,-1.6453041E-1,-6.6158436E-2,-1.0762206E-1,-1.6384508E-1,8.1662947E-1,3.463606E-1,2.8536087E-1,2.5227962E-2,-1.5379332E-1,8.788042E-2,-1.6226524E-1,-1.6049117E-1,1.084087E-1,-1.7283903E-1,1.3777892E-1,4.587442E-1,7.045641E-1,4.463669E-1,4.227782E-1,1.3378178E-1,6.270166E-1,-1.6801442E-1,9.380877E-2,-5.221259E-2,1.3520586E-1,6.64037E-1,-8.751142E-3,5.2124314E-2,-1.7084998E-1,-8.5929796E-2,2.7915496E-1,1.271021E-1,2.0221485E-2,3.9350668E-1,4.2741218E-1,6.186593E-1,-1.259769E-1,5.2499194E-2,4.642551E-1,7.7563343E-3,1.7818218E-1,4.0460983E-1,7.660424E-2,4.2012817E-1,8.800039E-2,1.8334255E-1,4.3463837E-2,9.185612E-2,-1.0730887E-1,4.70897E-2,6.521018E-2,2.6618782E-1,4.988636E-2,9.086861E-3,1.8524794E-1,-1.7930256E-2,-1.5054926E-1,-5.7542864E-2,6.32584E-2,5.932683E-1,1.2888762E-1,3.621342E-1,2.9385188E-1,-1.003464E-1,4.9641754E-2,9.78578E-2,8.606549E-2,1.6291234E-1,8.4348924E-2,2.345252E-1,2.2276898E-1,4.323099E-2,2.644155E-1,-5.8796808E-2,2.54533E-1,4.494943E-1,2.3654696E-1,4.422263E-1,2.7038276E-1,-1.1214796E-2,4.0192926E-1,4.521246E-1,-3.0513564E-2,5.14919E-1,8.611163E-2,1.6257524E-1,2.1501294E-1,1.7158264E-2,3.3574784E-1,5.563768E-1,-1.2947656E-1,4.3952832E-1,2.4535064E-1,1.1086336E-1,2.8307462E-1,4.7523215E-1,4.12553E-1,3.9877173E-2,7.197758E-2,2.8558484E-1,2.9374242E-1,-1.5380564E-1,4.3615606E-1,-5.5522934E-2,3.711679E-1,3.3161768E-1,4.51437E-1,3.929058E-1,2.0362884E-1,-2.410863E-2,5.26886E-1,2.6645637E-1,4.599222E-1,3.5882482E-1,3.7138793E-1,1.2545505E-1,2.5035793E-1,1.9960289E-1,4.354558E-1,4.0366158E-1,3.5003743E-1,3.6663368E-1,3.9759457E-1,2.7621263E-1,2.1277928E-1,3.989477E-1,2.2831237E-1,9.109474E-2,2.4888848E-1,4.091944E-1,2.796662E-1,3.2518357E-1,-8.843017E-2,2.3951265E-1,3.3855674E-1,3.2839677E-1,3.388017E-1,3.8914022E-1],"categories":[],"categories_nodes":[],"categories_segments":[],"categories_sizes":[],"default_left":[0,0,0,0,0,0,0,0,0,0,0,0,0,0,0,0,0,0,0,0,0,0,0,0,0,0,0,0,0,0,0,0,0,0,0,0,0,0,0,0,0,0,0,0,0,0,0,0,0,0,0,0,0,0,0,0,0,0,0,0,0,0,0,0,0,0,0,0,0,0,0,0,0,0,0,0,0,0,0,0,0,0,0,0,0,0,0,0,0,0,0,0,0,0,0,0,0,0,0,0,0,0,0,0,0,0,0,0,0,0,0,0,0,0,0,0,0,0,0,0,0,0,0,0,0,0,0,0,0,0,0,0,0,0,0,0,0,0,0,0,0,0,0,0,0,0,0,0,0,0,0,0,0,0,0,0,0,0,0,0,0,0,0,0,0,0,0,0,0,0,0,0,0,0,0,0,0,0,0,0,0,0,0,0,0,0,0,0,0,0,0,0,0,0,0,0,0,0,0,0,0,0,0,0,0,0,0,0,0,0,0,0,0,0,0,0,0,0,0,0,0,0,0,0,0,0,0,0,0,0,0,0,0,0,0,0,0,0,0,0,0,0,0,0,0,0,0,0,0,0,0,0,0,0,0,0,0,0,0,0,0,0,0,0,0,0,0,0,0,0,0,0,0,0,0,0,0,0,0,0,0,0,0,0,0,0,0,0,0,0,0,0,0,0,0,0,0,0,0,0,0,0,0,0,0,0,0,0,0,0,0,0,0,0,0,0,0,0,0,0,0,0,0,0,0,0,0,0,0,0,0,0,0,0,0,0,0,0,0,0,0,0,0,0,0,0,0,0,0,0,0,0,0,0,0,0,0,0,0,0,0,0,0,0,0,0,0,0,0,0,0,0,0,0,0,0,0,0,0,0,0,0,0,0,0,0,0,0,0,0,0,0,0,0,0,0,0,0,0,0,0,0,0,0,0,0,0,0,0,0,0,0,0,0,0,0,0,0,0,0,0,0,0,0,0,0,0,0,0,0,0,0,0,0,0,0,0,0,0,0,0,0,0,0,0,0,0,0,0,0,0,0,0,0,0,0,0,0,0,0,0,0,0,0,0,0,0,0,0,0,0,0,0,0,0,0,0,0,0,0,0,0,0,0,0,0,0,0,0,0,0,0,0,0,0,0,0,0,0,0,0,0,0,0,0,0,0,0,0,0,0,0,0,0,0,0,0,0,0,0,0,0,0,0,0,0,0,0,0,0,0,0,0,0,0,0,0,0,0,0,0,0,0,0,0,0,0,0,0,0,0,0,0,0,0,0,0,0,0,0,0,0,0,0,0,0,0,0,0,0,0,0,0,0,0,0,0,0,0,0,0,0,0,0,0,0,0,0,0,0,0,0,0,0,0,0,0,0,0,0,0,0,0,0,0,0,0,0,0,0,0,0,0,0,0,0,0,0,0,0,0,0,0,0,0,0,0,0,0,0,0,0,0,0,0,0,0,0,0,0,0,0,0,0,0,0,0,0,0,0,0,0,0,0,0,0,0,0,0,0,0,0,0,0,0,0,0,0,0,0,0,0,0,0,0,0,0,0,0,0,0,0,0,0,0,0,0,0,0,0,0,0,0,0,0,0,0,0,0,0,0,0,0,0,0,0,0,0,0,0,0,0,0],"id":2,"left_children":[1,3,5,7,9,11,13,15,17,19,-1,21,23,25,27,29,31,33,35,37,39,41,43,45,47,49,51,53,55,57,59,61,63,65,67,69,71,-1,-1,73,75,77,79,81,83,85,87,89,91,93,95,97,99,101,103,105,107,109,111,113,115,117,119,121,123,125,127,129,131,133,135,137,139,141,143,145,-1,147,149,151,153,155,157,159,161,163,165,167,169,-1,-1,171,173,175,177,179,181,183,185,187,189,191,193,195,197,199,-1,201,203,205,207,209,211,213,215,217,219,221,223,225,227,229,231,233,235,237,239,241,243,245,247,249,251,253,255,257,259,261,263,265,267,269,271,273,275,-1,-1,277,279,281,283,285,287,289,291,293,295,297,299,301,303,305,307,309,311,-1,313,315,317,319,321,323,325,327,329,331,333,335,337,339,341,343,345,347,349,351,353,355,357,359,-1,361,363,365,367,369,371,373,375,377,379,381,-1,383,385,387,389,391,393,395,397,399,401,403,405,407,409,-1,-1,411,413,415,417,419,421,423,425,427,429,431,433,435,437,439,441,443,445,447,449,451,453,455,-1,-1,-1,457,459,461,463,465,467,469,471,473,475,-1,-1,477,479,481,483,485,487,489,491,493,495,497,499,501,503,505,507,-1,509,-1,-1,511,513,515,517,519,521,523,525,527,529,531,533,535,537,539,541,543,545,547,549,551,553,555,557,559,561,563,565,567,569,571,573,575,577,579,581,583,585,587,589,591,593,595,597,599,601,603,605,607,609,611,613,615,617,619,621,623,625,627,629,631,633,635,637,639,641,643,645,647,649,651,-1,653,655,657,659,661,663,665,-1,667,669,671,673,675,677,679,681,683,685,687,-1,689,691,693,695,697,699,701,703,705,707,709,711,-1,-1,-1,-1,-1,-1,-1,-1,-1,-1,-1,-1,-1,-1,-1,-1,-1,-1,-1,-1,-1,-1,-1,-1,-1,-1,-1,-1,-1,-1,-1,-1,-1,-1,-1,-1,-1,-1,-1,-1,-1,-1,-1,-1,-1,-1,-1,-1,-1,-1,-1,-1,-1,-1,-1,-1,-1,-1,-1,-1,-1,-1,-1,-1,-1,-1,-1,-1,-1,-1,-1,-1,-1,-1,-1,-1,-1,-1,-1,-1,-1,-1,-1,-1,-1,-1,-1,-1,-1,-1,-1,-1,-1,-1,-1,-1,-1,-1,-1,-1,-1,-1,-1,-1,-1,-1,-1,-1,-1,-1,-1,-1,-1,-1,-1,-1,-1,-1,