{"learner":{"attributes":{},"feature_names":["recency","frequency","monetary","Gender","Age","Province","rfm_score_int"],"feature_types":["int","int","float","float","int","float","int"],"gradient_booster":{"model":{"gbtree_model_param":{"num_parallel_tree":"1","num_trees":"5"},"iteration_indptr":[0,1,2,3,4,5],"tree_info":[0,0,0,0,0],"trees":[{"base_weights":[-4.195453E-1,-6.660462E-1,8.385821E-1,-6.6720796E-1,3.3842824E0,5.3656644E-1,3.1157615E0,-6.766295E-1,-3.9920327E-1,6.878258E-1,3.649116E0,2.7322626E-1,1.3444481E0,2.4426746E0,4.1134686E0,-6.364397E-1,-6.915223E-1,-4.6539655E-1,-8.7642536E-2,-2.5855112E-1,1.1806524E0,2.9784858E0,4.8170614E0,1.8290979E-1,1.1377441E0,1.2387112E0,2.7428966E0,2.2198498E0,3.092431E0,3.9018927E0,5.2845807E0,-6.4937425E-1,-5.314148E-1,-6.8289137E-1,-7.297969E-1,-4.993122E-1,-2.9160443E-1,-1.613363E-1,6.3423425E-1,2.428741E0,4.574275E0,4.220836E0,1.2083066E0,7.2460645E-1,1.5245485E-1,9.865969E-1,1.447504E0,1.1370119E0,1.6129545E0,-9.154062E-1,2.8349712E0,2.8352966E0,2.051808E0,3.2821226E0,2.1700764E0,3.80847E0,4.3520575E0,5.0293555E0,5.5414367E0,-1.3832545E-1,-1.5560669E-1,-1.17374524E-1,-3.649441E-2,-1.6657828E-1,-1.4653602E-1,-1.459263E-1,-1.6252431E-1,-1.050279E-1,-1.9638133E-1,-2.311407E-2,-1.23858616E-1,4.938168E-2,-6.339158E-2,-1.765141E-1,2.5602287E-1,2.2476825E-1,7.613251E-1,1.1106887E0,1.5011811E-1,3.590502E-1,1.0464445E0,1.367429E-1,5.399045E-1,2.929303E-2,1.09267905E-1,2.65335E-1,1.5929191E-1,1.9992843E-2,3.3474132E-1,1.9821177E-1,2.6123658E-1,1.0172063E0,3.3964103E-1,-2.6056522E-1,1.2560676E-1,5.399224E-1,7.840301E-1,5.0747275E-1,8.063455E-1,3.9397004E-1,6.1339897E-1,6.2952566E-1,8.059001E-1,4.516467E-1,1.1939828E0,1.0650524E0,8.1306714E-1,9.700131E-1,7.620078E-1,1.1421779E0,9.88724E-1,7.8908E-1,1.1970352E0],"categories":[],"categories_nodes":[],"categories_segments":[],"categories_sizes":[],"default_left":[0,0,0,0,0,0,0,0,0,0,0,0,0,0,0,0,0,0,0,0,0,0,0,0,0,0,0,0,0,0,0,0,0,0,0,0,0,0,0,0,0,0,0,0,0,0,0,0,0,0,0,0,0,0,0,0,0,0,0,0,0,0,0,0,0,0,0,0,0,0,0,0,0,0,0,0,0,0,0,0,0,0,0,0,0,0,0,0,0,0,0,0,0,0,0,0,0,0,0,0,0,0,0,0,0,0,0,0,0,0,0,0,0],"id":0,"left_children":[1,3,5,7,9,11,13,15,17,19,21,23,25,27,29,31,33,35,37,-1,-1,39,41,43,45,47,49,51,53,55,57,59,61,63,65,67,69,71,73,75,77,79,-1,81,83,85,87,89,91,93,95,97,99,101,103,105,107,109,111,-1,-1,-1,-1,-1,-1,-1,-1,-1,-1,-1,-1,-1,-1,-1,-1,-1,-1,-1,-1,-1,-1,-1,-1,-1,-1,-1,-1,-1,-1,-1,-1,-1,-1,-1,-1,-1,-1,-1,-1,-1,-1,-1,-1,-1,-1,-1,-1,-1,-1,-1,-1,-1,-1],"loss_changes":[6.703857E4,8.5060156E2,2.4355467E4,4.562578E2,3.692047E1,6.6519434E3,2.7843945E3,1.0446094E2,1.26556274E2,4.271005E1,3.6426697E1,1.8411654E3,1.1364385E3,3.5827344E2,4.1314844E2,6.409961E1,4.2058594E1,2.9827026E1,5.7210793E1,0E0,0E0,2.5968384E1,7.291687E0,3.522157E2,1.0437329E2,2.7191406E2,1.8208496E2,1.905E2,1.10356445E2,5.8890625E1,1.5712402E1,1.9896484E1,2.6516968E1,1.6738281E1,3.0935547E1,1.9460083E1,4.3245026E1,5.085178E1,8.058139E1,3.434642E1,1.7343765E1,1.6067474E1,0E0,1.8047437E2,1.1707617E2,9.1020874E1,1.0741943E2,9.360156E1,1.6258081E2,5.9203777E0,1.3841797E2,1.716377E2,2.552334E2,8.6168945E1,2.5375061E1,3.8371094E1,3.0251465E1,1.4682129E1,4.61792E0,0E0,0E0,0E0,0E0,0E0,0E0,0E0,0E0,0E0,0E0,0E0,0E0,0E0,0E0,0E0,0E0,0E0,0E0,0E0,0E0,0E0,0E0,0E0,0E0,0E0,0E0,0E0,0E0,0E0,0E0,0E0,0E0,0E0,0E0,0E0,0E0,0E0,0E0,0E0,0E0,0E0,0E0,0E0,0E0,0E0,0E0,0E0,0E0,0E0,0E0,0E0,0E0,0E0,0E0],"parents":[2147483647,0,0,1,1,2,2,3,3,4,4,5,5,6,6,7,7,8,8,9,9,10,10,11,11,12,12,13,13,14,14,15,15,16,16,17,17,18,18,21,21,22,22,23,23,24,24,25,25,26,26,27,27,28,28,29,29,30,30,31,31,32,32,33,33,34,34,35,35,36,36,37,37,38,38,39,39,40,40,41,41,43,43,44,44,45,45,46,46,47,47,48,48,49,49,50,50,51,51,52,52,53,53,54,54,55,55,56,56,57,57,58,58],"right_children":[2,4,6,8,10,12,14,16,18,20,22,24,26,28,30,32,34,36,38,-1,-1,40,42,44,46,48,50,52,54,56,58,60,62,64,66,68,70,72,74,76,78,80,-1,82,84,86,88,90,92,94,96,98,100,102,104,106,108,110,112,-1,-1,-1,-1,-1,-1,-1,-1,-1,-1,-1,-1,-1,-1,-1,-1,-1,-1,-1,-1,-1,-1,-1,-1,-1,-1,-1,-1,-1,-1,-1,-1,-1,-1,-1,-1,-1,-1,-1,-1,-1,-1,-1,-1,-1,-1,-1,-1,-1,-1,-1,-1,-1,-1],"split_conditions":[2E0,7.433655E2,8.131035E2,3.9699E2,2.3E1,3E0,1.2753014E3,4.5680836E1,5.627766E2,1.007E3,5.84E2,5.191692E2,5E0,5E0,1E1,1.2199301E-1,9.16E2,5.4E1,6.89645E2,-2.5855112E-1,1.1806524E0,1.1826544E-1,8.02E2,5.02736E1,1.18524596E-1,4E0,1.8811882E2,3E0,5.5E1,8E0,1.2E1,1.104E3,5.9E1,4.791368E1,1.1699827E-1,1.247E3,4.704587E2,2.8E1,3.4E1,3.31E2,4.63E2,1.1679851E-1,1.2083066E0,5.9E1,4.704587E2,4.1E1,2E1,2.9E1,1.04742E2,1.1699827E-1,6E0,4.63E2,5.1E1,6E0,9E0,3E0,5.5E1,1.1E1,1.9E1,-1.3832545E-1,-1.5560669E-1,-1.17374524E-1,-3.649441E-2,-1.6657828E-1,-1.4653602E-1,-1.459263E-1,-1.6252431E-1,-1.050279E-1,-1.9638133E-1,-2.311407E-2,-1.23858616E-1,4.938168E-2,-6.339158E-2,-1.765141E-1,2.5602287E-1,2.2476825E-1,7.613251E-1,1.1106887E0,1.5011811E-1,3.590502E-1,1.0464445E0,1.367429E-1,5.399045E-1,2.929303E-2,1.09267905E-1,2.65335E-1,1.5929191E-1,1.9992843E-2,3.3474132E-1,1.9821177E-1,2.6123658E-1,1.0172063E0,3.3964103E-1,-2.6056522E-1,1.2560676E-1,5.399224E-1,7.840301E-1,5.0747275E-1,8.063455E-1,3.9397004E-1,6.1339897E-1,6.2952566E-1,8.059001E-1,4.516467E-1,1.1939828E0,1.0650524E0,8.1306714E-1,9.700131E-1,7.620078E-1,1.1421779E0,9.88724E-1,7.8908E-1,1.1970352E0],"split_indices":[1,2,2,2,4,1,2,2,2,0,0,2,1,1,1,5,0,4,2,0,0,3,0,2,5,1,2,1,4,1,1,0,4,2,5,0,2,4,4,0,0,5,0,4,2,4,4,4,2,5,1,0,4,1,1,1,4,1,4,0,0,0,0,0,0,0,0,0,0,0,0,0,0,0,0,0,0,0,0,0,0,0,0,0,0,0,0,0,0,0,0,0,0,0,0,0,0,0,0,0,0,0,0,0,0,0,0,0,0,0,0,0,0],"split_type":[0,0,0,0,0,0,0,0,0,0,0,0,0,0,0,0,0,0,0,0,0,0,0,0,0,0,0,0,0,0,0,0,0,0,0,0,0,0,0,0,0,0,0,0,0,0,0,0,0,0,0,0,0,0,0,0,0,0,0,0,0,0,0,0,0,0,0,0,0,0,0,0,0,0,0,0,0,0,0,0,0,0,0,0,0,0,0,0,0,0,0,0,0,0,0,0,0,0,0,0,0,0,0,0,0,0,0,0,0,0,0,0,0],"sum_hessian":[2.1616303E5,1.807494E5,3.5413637E4,1.806976E5,5.179859E1,3.1266852E4,4.1467847E3,1.7456095E5,6.1366504E3,4.644585E0,4.7154007E1,2.358051E4,7.6863423E3,2.4763103E3,1.6704744E3,4.7196863E4,1.27364086E5,5.061317E3,1.0753333E3,3.3524158E0,1.2921693E0,3.0038097E1,1.711591E1,2.1350102E4,2.2304072E3,7.1460947E3,5.4024725E2,1.8440751E3,6.322353E2,1.4149983E3,2.5547606E2,4.2021434E4,5.175429E3,1.039288E5,2.3435287E4,4.234816E3,8.265008E2,9.75752E2,9.958126E1,2.2411192E1,7.6269045E0,9.937191E0,7.1787186E0,1.1363938E3,2.0213709E4,1.499086E3,7.3132117E2,5.619238E3,1.5268572E3,1.3255175E1,5.269921E2,3.9538818E2,1.4486869E3,5.2431024E2,1.0792505E2,1.1721029E3,2.4289537E2,1.2852794E2,1.2694812E2,3.866772E4,3.3537153E3,4.980421E3,1.9500858E2,1.9679856E3,1.0196081E5,7.790781E3,1.5644505E4,4.123969E3,1.1084702E2,5.014855E2,3.250153E2,2.4815877E2,7.2759326E2,2.7524101E1,7.205715E1,1.0007042E1,1.240415E1,6.6109695E0,1.0159348E0,2.027504E0,7.9096875E0,1.0824717E3,5.3922142E1,1.9327682E4,8.860271E2,7.48628E2,7.504581E2,5.4210278E1,6.771109E2,1.4821836E3,4.137054E3,1.6543795E1,1.5103134E3,1.1077548E1,2.1776268E0,3.760105E2,1.5098158E2,2.5986728E2,1.355209E2,1.1355077E3,3.1317923E2,2.968069E2,2.2750334E2,1.0577143E2,2.1536155E0,2.904568E1,1.1430573E3,2.0337482E2,3.9520554E1,7.787406E1,5.065387E1,1.5858666E0,1.2536226E2],"tree_param":{"num_deleted":"0","num_feature":"7","num_nodes":"113","size_leaf_vector":"1"}},{"base_weights":[-3.5921735E-1,-5.8119303E-1,5.622561E-1,-5.83021E-1,1.0117074E0,2.7146825E-1,1.3002529E0,-5.909965E-1,-3.609102E-1,4.871992E-1,1.7342184E0,1.3955809E-1,7.478735E-1,9.514443E-1,1.674511E0,-5.426825E-1,-6.028447E-1,-3.98824E-1,-1.737603E-1,-2.3720983E-1,1.3694718E0,1.6579943E0,9.946885E-1,5.6096226E-1,1.1433409E-1,7.231826E-1,1.3016336E0,8.5900104E-1,1.2943207E0,1.3734741E0,1.9138855E0,-5.567448E-1,-4.3281865E-1,-5.947919E-1,-6.278493E-1,-4.362213E-1,-2.3981585E-1,-3.4658425E-2,-4.1484904E-1,1.4107765E0,-5.124606E-1,-7.6869845E-1,2.0624754E0,1.0480374E0,1.9230725E0,3.1718218E-1,7.946093E-1,3.3878677E-2,1.7479949E-1,1.631192E-1,7.390332E-1,2.0435352E0,1.0289145E0,9.4352835E-1,6.9627756E-1,1.7993859E0,1.1125827E0,1.4416311E0,9.7370017E-1,1.8205714E0,2.1471696E0,-1.1364792E-1,-1.308908E-1,-1.0942413E-1,-6.944831E-2,-1.3036174E-1,-1.254237E-1,-1.3544133E-1,-4.4229537E-2,-1.1022752E-1,-7.580165E-2,-1.9442104E-2,-1.06189065E-1,-2.5038837E-2,1.33996E-1,-2.584007E-1,-6.257615E-2,7.9267097E-1,-2.5159907E-1,1.9641707E-2,-1.9346341E-1,1.3519461E-1,-2.5293544E-1,9.3995374E-1,1.4488962E-1,2.9254697E-2,4.6154353E-1,8.323696E-2,4.4724488E-1,5.969255E-2,1.0391271E0,2.470768E-1,8.348302E-2,3.6203586E-2,-1.5396507E-2,3.2327313E-2,1.22400455E-1,5.148005E-1,-2.9307352E-2,6.488767E-1,1.563541E-1,-9.398756E-3,5.555867E-1,-2.5310504E-1,2.3750143E-1,2.5220516E-1,1.9090858E-1,1.15335666E-1,2.4442229E-1,3.4219244E-1,4.3620974E-1,2.0586093E-1,3.579517E-1,2.968452E-1,4.1504022E-1,1.7199074E-1,2.9191387E-1,3.5208932E-1,4.3617588E-1,4.2667887E-1,4.9492735E-1],"categories":[],"categories_nodes":[],"categories_segments":[],"categories_sizes":[],"default_left":[0,0,0,0,0,0,0,0,0,0,0,0,0,0,0,0,0,0,0,0,0,0,0,0,0,0,0,0,0,0,0,0,0,0,0,0,0,0,0,0,0,0,0,0,0,0,0,0,0,0,0,0,0,0,0,0,0,0,0,0,0,0,0,0,0,0,0,0,0,0,0,0,0,0,0,0,0,0,0,0,0,0,0,0,0,0,0,0,0,0,0,0,0,0,0,0,0,0,0,0,0,0,0,0,0,0,0,0,0,0,0,0,0,0,0,0,0,0,0,0,0],"id":1,"left_children":[1,3,5,7,9,11,13,15,17,19,21,23,25,27,29,31,33,35,37,39,41,43,-1,45,47,49,51,53,55,57,59,61,63,65,67,69,71,73,75,77,79,81,83,85,87,89,91,93,95,97,99,101,103,105,107,109,111,113,115,117,119,-1,-1,-1,-1,-1,-1,-1,-1,-1,-1,-1,-1,-1,-1,-1,-1,-1,-1,-1,-1,-1,-1,-1,-1,-1,-1,-1,-1,-1,-1,-1,-1,-1,-1,-1,-1,-1,-1,-1,-1,-1,-1,-1,-1,-1,-1,-1,-1,-1,-1,-1,-1,-1,-1,-1,-1,-1,-1,-1,-1],"loss_changes":[4.167648E4,4.78125E2,8.488313E3,2.9053516E2,7.129817E1,1.7831006E3,1.4594297E3,9.061719E1,4.0336853E1,6.974716E1,1.7144562E1,2.3619904E2,8.4089355E1,1.8338037E2,3.8853906E2,4.8163086E1,2.5589844E1,2.8107483E1,3.2119465E1,2.7218014E1,7.296231E1,1.2402008E1,0E0,7.147131E1,1.0199643E2,5.228418E1,5.3048065E1,6.2668945E1,1.12715576E2,6.5041504E1,6.525098E1,4.0666992E1,2.950055E1,1.2640625E1,2.2326172E1,2.4435303E1,3.413927E1,3.26411E1,3.4145905E1,5.0549507E1,1.2005643E1,6.890697E0,1.1896742E2,2.3468424E1,1.2834015E1,1.1004868E2,9.216672E1,1.2749454E2,1.15756805E2,1.0825243E2,1.5995654E2,7.935559E1,3.1833954E1,3.8492188E1,1.0976965E2,1.5369263E1,7.750745E1,6.143457E1,2.320044E1,8.1555176E1,2.1394287E1,0E0,0E0,0E0,0E0,0E0,0E0,0E0,0E0,0E0,0E0,0E0,0E0,0E0,0E0,0E0,0E0,0E0,0E0,0E0,0E0,0E0,0E0,0E0,0E0,0E0,0E0,0E0,0E0,0E0,0E0,0E0,0E0,0E0,0E0,0E0,0E0,0E0,0E0,0E0,0E0,0E0,0E0,0E0,0E0,0E0,0E0,0E0,0E0,0E0,0E0,0E0,0E0,0E0,0E0,0E0,0E0,0E0,0E0,0E0,0E0],"parents":[2147483647,0,0,1,1,2,2,3,3,4,4,5,5,6,6,7,7,8,8,9,9,10,10,11,11,12,12,13,13,14,14,15,15,16,16,17,17,18,18,19,19,20,20,21,21,23,23,24,24,25,25,26,26,27,27,28,28,29,29,30,30,31,31,32,32,33,33,34,34,35,35,36,36,37,37,38,38,39,39,40,40,41,41,42,42,43,43,44,44,45,45,46,46,47,47,48,48,49,49,50,50,51,51,52,52,53,53,54,54,55,55,56,56,57,57,58,58,59,59,60,60],"right_children":[2,4,6,8,10,12,14,16,18,20,22,24,26,28,30,32,34,36,38,40,42,44,-1,46,48,50,52,54,56,58,60,62,64,66,68,70,72,74,76,78,80,82,84,86,88,90,92,94,96,98,100,102,104,106,108,110,112,114,116,118,120,-1,-1,-1,-1,-1,-1,-1,-1,-1,-1,-1,-1,-1,-1,-1,-1,-1,-1,-1,-1,-1,-1,-1,-1,-1,-1,-1,-1,-1,-1,-1,-1,-1,-1,-1,-1,-1,-1,-1,-1,-1,-1,-1,-1,-1,-1,-1,-1,-1,-1,-1,-1,-1,-1,-1,-1,-1,-1,-1,-1],"split_conditions":[2E0,6.89645E2,5.379264E2,3.9699E2,7.433655E2,3E0,4E0,3.2952E1,5.627766E2,1.1826544E-1,1.0528986E3,5.02736E1,5E0,9.12866E2,1.0528986E3,1.2199301E-1,8.33E2,5.3E1,4.3E1,1.1596282E-1,3.4E1,4E2,9.946885E-1,1.1826544E-1,3.6E1,7.3985954E1,3E1,4.25E2,3E0,5.5E1,8E0,4.6E1,4.3E1,4E1,3.888524E2,1.1826544E-1,4.704587E2,9.77E2,4.6E1,6.52E2,3.9E1,2.2E1,5E1,1.1826544E-1,2.3E1,4.94816E1,4.6E1,2.6E1,4.704587E2,1.1596282E-1,7.8204E1,2.1E1,1.6352298E2,1.1679851E-1,7.433655E2,3.6E1,5.1E1,5.1E1,5E0,4.2E1,1.1826544E-1,-1.1364792E-1,-1.308908E-1,-1.0942413E-1,-6.944831E-2,-1.3036174E-1,-1.254237E-1,-1.3544133E-1,-4.4229537E-2,-1.1022752E-1,-7.580165E-2,-1.9442104E-2,-1.06189065E-1,-2.5038837E-2,1.33996E-1,-2.584007E-1,-6.257615E-2,7.9267097E-1,-2.5159907E-1,1.9641707E-2,-1.9346341E-1,1.3519461E-1,-2.5293544E-1,9.3995374E-1,1.4488962E-1,2.9254697E-2,4.6154353E-1,8.323696E-2,4.4724488E-1,5.969255E-2,1.0391271E0,2.470768E-1,8.348302E-2,3.6203586E-2,-1.5396507E-2,3.2327313E-2,1.22400455E-1,5.148005E-1,-2.9307352E-2,6.488767E-1,1.563541E-1,-9.398756E-3,5.555867E-1,-2.5310504E-1,2.3750143E-1,2.5220516E-1,1.9090858E-1,1.15335666E-1,2.4442229E-1,3.4219244E-1,4.3620974E-1,2.0586093E-1,3.579517E-1,2.968452E-1,4.1504022E-1,1.7199074E-1,2.9191387E-1,3.5208932E-1,4.3617588E-1,4.2667887E-1,4.9492735E-1],"split_indices":[1,2,2,2,2,1,1,2,2,3,2,2,1,2,2,5,0,4,4,5,4,0,0,3,4,2,4,0,1,4,1,4,4,4,2,3,2,0,4,0,4,4,4,3,4,2,4,4,2,5,2,4,2,5,2,4,4,4,1,4,3,0,0,0,0,0,0,0,0,0,0,0,0,0,0,0,0,0,0,0,0,0,0,0,0,0,0,0,0,0,0,0,0,0,0,0,0,0,0,0,0,0,0,0,0,0,0,0,0,0,0,0,0,0,0,0,0,0,0,0,0],"split_type":[0,0,0,0,0,0,0,0,0,0,0,0,0,0,0,0,0,0,0,0,0,0,0,0,0,0,0,0,0,0,0,0,0,0,0,0,0,0,0,0,0,0,0,0,0,0,0,0,0,0,0,0,0,0,0,0,0,0,0,0,0,0,0,0,0,0,0,0,0,0,0,0,0,0,0,0,0,0,0,0,0,0,0,0,0,0,0,0,0,0,0,0,0,0,0,0,0,0,0,0,0,0,0,0,0,0,0,0,0,0,0,0,0,0,0,0,0,0,0,0,0],"sum_hessian":[2.0375234E5,1.641983E5,3.955406E4,1.640101E5,1.8818994E2,2.8374068E4,1.1179988E4,1.5832492E5,5.685181E3,1.0907189E2,7.911804E1,2.2221332E4,6.1527363E3,5.786812E3,5.393177E3,3.1180434E4,1.27144484E5,4.7274287E3,9.577524E2,5.9908733E1,4.916316E1,7.714136E1,1.9766858E0,1.254937E3,2.0966395E4,5.8901934E3,2.6254306E2,4.558044E3,1.2287681E3,2.3890125E3,3.0041643E3,2.7642148E4,3.5382842E3,9.617276E4,3.097173E4,3.8272295E3,9.0019934E2,6.073644E2,3.50388E2,8.551843E0,5.135689E1,1.2032718E1,3.713044E1,2.3425077E1,5.371628E1,6.141951E2,6.407419E2,8.996155E3,1.197024E4,1.6212544E2,5.728068E3,7.050351E1,1.9203955E2,2.9996716E3,1.5583723E3,3.250616E2,9.037064E2,2.0409542E3,3.480583E2,2.1460635E3,8.581008E2,1.7817293E4,9.824856E3,2.09472E3,1.4435642E3,4.94365E4,4.6736254E4,3.084697E4,1.2475952E2,2.0061199E3,1.8211096E3,5.66589E2,3.3361032E2,5.402437E2,6.712069E1,4.768217E1,3.027058E2,4.5377045E0,4.0141377E0,2.0064274E1,3.1292618E1,2.7095587E0,9.323159E0,1.3925539E1,2.32049E1,1.2815397E1,1.0609681E1,4.958761E0,4.875752E1,6.0887555E2,5.319603E0,3.4254303E2,2.9819885E2,3.9549968E3,5.0411587E3,1.1268789E4,7.014515E2,1.91588E1,1.4296663E2,3.0651308E1,5.6974165E3,1.4475318E1,5.602819E1,6.3008347E0,1.8573871E2,5.910033E2,2.4086682E3,1.1424246E3,4.1594772E2,1.6989706E2,1.5516455E2,7.047482E2,1.9895819E2,1.8113547E3,2.295994E2,2.3933269E2,1.08725586E2,1.1359734E3,1.01009E3,4.1504645E2,4.4305435E2],"tree_param":{"num_deleted":"0","num_feature":"7","num_nodes":"121","size_leaf_vector":"1"}},{"base_weights":[-3.0369362E-1,-5.0310004E-1,4.1464442E-1,-5.1256055E-1,-2.5767678E-1,2.0645204E-1,9.044275E-1,-4.7580245E-1,-5.2639264E-1,-2.9078493E-1,6.829251E-1,1.1004104E-1,5.331665E-1,7.657615E-1,1.3771694E0,-4.8736626E-1,-3.8557222E-1,-5.2238756E-1,-5.9573275E-1,-3.289224E-1,-1.0936875E-1,3.0167216E-1,1.2003802E0,2.4620505E-1,5.509375E-2,5.23795E-1,1.4425563E0,6.4459294E-1,9.804282E-1,1.311659E0,1.727582E0,-4.9541134E-1,-4.1080087E-1,-4.017175E-1,1.3032073E-1,-5.588118E-1,-5.174013E-1,-5.3082055E-1,-6.5247047E-1,-3.628692E-1,-1.650097E-1,1.8942522E-1,-2.2243415E-1,-7.121557E-2,9.865885E-1,1.010999E0,1.7897387E0,8.629375E-1,2.2552924E-1,-3.851028E-2,1.6279693E-1,3.8920677E-1,5.6030947E-1,2.3930433E0,5.441555E-1,6.732071E-1,3.1044292E-1,9.183305E-1,1.2691498E0,1.5317069E0,1.264514E0,1.6205211E0,1.834887E0,-1.0454876E-1,-1.2973522E-1,-1.4037783E-1,-7.8736596E-2,-9.595356E-2,-5.369438E-2,9.4980574E-1,-1.4398407E-2,-1.6100687E-1,-1.1827645E-1,-1.0215814E-1,-1.1247763E-1,-1.2702577E-1,-7.664533E-2,-1.4954588E-1,-1.0638156E-1,-7.6785944E-2,-2.2906633E-1,1.4243351E-3,-1.01679385E-1,-6.511015E-2,1.483911E-1,-1.4350566E-1,-2.5694296E-2,1.7656605E-1,-1.2851328E-1,-2.0792784E-1,3.6485264E-1,1.6460371E-1,3.5043395E-1,2.3263413E-1,4.1598094E-1,2.515047E-1,-2.1305858E-1,4.8814584E-3,6.101089E-2,2.034255E-3,-7.353245E-2,1.6252241E-3,5.3455014E-2,1.08509004E-1,1.2061092E-2,1.7774856E-1,1.1184115E-1,3.4926823E-1,5.325094E-1,2.1142636E-1,-2.2927657E-1,1.3759603E-1,2.161491E-1,-1.872451E-2,1.5031433E-1,4.3865776E-1,1.921981E-1,3.038013E-1,1.4653048E-1,4.9857363E-1,3.0918816E-1,1.9362412E-1,2.8204662E-1,3.2448947E-1,3.9769116E-1,2.5356174E-1,3.9707312E-1],"categories":[],"categories_nodes":[],"categories_segments":[],"categories_sizes":[],"default_left":[0,0,0,0,0,0,0,0,0,0,0,0,0,0,0,0,0,0,0,0,0,0,0,0,0,0,0,0,0,0,0,0,0,0,0,0,0,0,0,0,0,0,0,0,0,0,0,0,0,0,0,0,0,0,0,0,0,0,0,0,0,0,0,0,0,0,0,0,0,0,0,0,0,0,0,0,0,0,0,0,0,0,0,0,0,0,0,0,0,0,0,0,0,0,0,0,0,0,0,0,0,0,0,0,0,0,0,0,0,0,0,0,0,0,0,0,0,0,0,0,0,0,0,0,0,0,0],"id":2,"left_children":[1,3,5,7,9,11,13,15,17,19,21,23,25,27,29,31,33,35,37,39,41,43,45,47,49,51,53,55,57,59,61,63,65,67,69,71,73,75,77,79,81,83,85,87,89,91,93,95,97,99,101,103,105,107,109,111,113,115,117,119,121,123,125,-1,-1,-1,-1,-1,-1,-1,-1,-1,-1,-1,-1,-1,-1,-1,-1,-1,-1,-1,-1,-1,-1,-1,-1,-1,-1,-1,-1,-1,-1,-1,-1,-1,-1,-1,-1,-1,-1,-1,-1,-1,-1,-1,-1,-1,-1,-1,-1,-1,-1,-1,-1,-1,-1,-1,-1,-1,-1,-1,-1,-1,-1,-1,-1],"loss_changes":[2.7510094E4,3.4902344E2,4.255097E3,7.358594E1,1.737674E2,9.223585E2,8.1590234E2,4.1285156E1,2.919336E1,3.7290405E1,3.741593E1,1.6916586E2,5.6832764E1,2.503081E2,6.471631E1,2.1600586E1,3.745038E1,1.8044922E1,2.113623E1,2.4779266E1,3.1633728E1,2.7916346E1,8.9131775E0,8.288629E1,1.6240799E2,3.244641E1,5.80459E1,5.88125E1,6.220996E1,2.4600586E1,4.9942627E0,3.227002E1,3.612567E1,2.9372498E1,1.1534097E2,2.0502197E1,2.0144531E1,2.7867188E1,2.0631104E1,1.5402496E1,4.0346985E1,6.329534E1,3.1105412E1,3.324269E1,5.3438763E1,9.21854E0,1.9094582E0,1.1965874E2,7.407651E1,1.2538189E2,9.962494E1,5.4074936E1,5.5855957E1,1.9380493E0,2.4768457E1,6.315625E1,7.4897026E1,7.98584E1,5.1630127E1,3.1036621E1,3.315332E1,5.596924E0,1.4864502E0,0E0,0E0,0E0,0E0,0E0,0E0,0E0,0E0,0E0,0E0,0E0,0E0,0E0,0E0,0E0,0E0,0E0,0E0,0E0,0E0,0E0,0E0,0E0,0E0,0E0,0E0,0E0,0E0,0E0,0E0,0E0,0E0,0E0,0E0,0E0,0E0,0E0,0E0,0E0,0E0,0E0,0E0,0E0,0E0,0E0,0E0,0E0,0E0,0E0,0E0,0E0,0E0,0E0,0E0,0E0,0E0,0E0,0E0,0E0,0E0,0E0,0E0,0E0,0E0],"parents":[2147483647,0,0,1,1,2,2,3,3,4,4,5,5,6,6,7,7,8,8,9,9,10,10,11,11,12,12,13,13,14,14,15,15,16,16,17,17,18,18,19,19,20,20,21,21,22,22,23,23,24,24,25,25,26,26,27,27,28,28,29,29,30,30,31,31,32,32,33,33,34,34,35,35,36,36,37,37,38,38,39,39,40,40,41,41,42,42,43,43,44,44,45,45,46,46,47,47,48,48,49,49,50,50,51,51,52,52,53,53,54,54,55,55,56,56,57,57,58,58,59,59,60,60,61,61,62,62],"right_children":[2,4,6,8,10,12,14,16,18,20,22,24,26,28,30,32,34,36,38,40,42,44,46,48,50,52,54,56,58,60,62,64,66,68,70,72,74,76,78,80,82,84,86,88,90,92,94,96,98,100,102,104,106,108,110,112,114,116,118,120,122,124,126,-1,-1,-1,-1,-1,-1,-1,-1,-1,-1,-1,-1,-1,-1,-1,-1,-1,-1,-1,-1,-1,-1,-1,-1,-1,-1,-1,-1,-1,-1,-1,-1,-1,-1,-1,-1,-1,-1,-1,-1,-1,-1,-1,-1,-1,-1,-1,-1,-1,-1,-1,-1,-1,-1,-1,-1,-1,-1,-1,-1,-1,-1,-1,-1],"split_conditions":[2E0,3.9699E2,5.379264E2,4.5680836E1,6.89645E2,3E0,1.2753014E3,1.2199301E-1,1.16E3,5.627766E2,7.433655E2,1.3988022E2,6E0,4E0,1E1,5.7E1,4.4002056E1,6.112031E1,3.8E1,5.4E1,2.8E1,6.56E2,7.48E2,1.9988E1,2.847431E2,1.8997842E2,4.3E1,5.7E1,6E0,2.5E1,1.2E1,5.4E1,7.14E0,8.56E2,2E1,2E1,7.61436E1,3.3E1,1.19316466E-1,1.336E3,4.704587E2,1.1826544E-1,1.1679851E-1,1.1699827E-1,3.8E1,4.4E1,2.3E1,1.2199301E-1,1.1679851E-1,5.5E1,1.1699827E-1,4.09E2,2.3716429E2,2.781351E2,4.8520657E2,5.3E1,6.89645E2,1.9E1,5.3E1,4E0,4E0,1.1732109E-1,1.9E1,-1.0454876E-1,-1.2973522E-1,-1.4037783E-1,-7.8736596E-2,-9.595356E-2,-5.369438E-2,9.4980574E-1,-1.4398407E-2,-1.6100687E-1,-1.1827645E-1,-1.0215814E-1,-1.1247763E-1,-1.2702577E-1,-7.664533E-2,-1.4954588E-1,-1.0638156E-1,-7.6785944E-2,-2.2906633E-1,1.4243351E-3,-1.01679385E-1,-6.511015E-2,1.483911E-1,-1.4350566E-1,-2.5694296E-2,1.7656605E-1,-1.2851328E-1,-2.0792784E-1,3.6485264E-1,1.6460371E-1,3.5043395E-1,2.3263413E-1,4.1598094E-1,2.515047E-1,-2.1305858E-1,4.8814584E-3,6.101089E-2,2.034255E-3,-7.353245E-2,1.6252241E-3,5.3455014E-2,1.08509004E-1,1.2061092E-2,1.7774856E-1,1.1184115E-1,3.4926823E-1,5.325094E-1,2.1142636E-1,-2.2927657E-1,1.3759603E-1,2.161491E-1,-1.872451E-2,1.5031433E-1,4.3865776E-1,1.921981E-1,3.038013E-1,1.4653048E-1,4.9857363E-1,3.0918816E-1,1.9362412E-1,2.8204662E-1,3.2448947E-1,3.9769116E-1,2.5356174E-1,3.9707312E-1],"split_indices":[1,2,2,2,2,1,2,5,0,2,2,2,1,1,1,4,2,2,4,4,4,0,0,2,2,2,4,4,1,4,1,4,2,0,4,4,2,4,5,0,2,3,5,5,4,4,4,5,5,4,5,0,2,2,2,4,2,4,4,1,1,5,4,0,0,0,0,0,0,0,0,0,0,0,0,0,0,0,0,0,0,0,0,0,0,0,0,0,0,0,0,0,0,0,0,0,0,0,0,0,0,0,0,0,0,0,0,0,0,0,0,0,0,0,0,0,0,0,0,0,0,0,0,0,0,0,0],"split_type":[0,0,0,0,0,0,0,0,0,0,0,0,0,0,0,0,0,0,0,0,0,0,0,0,0,0,0,0,0,0,0,0,0,0,0,0,0,0,0,0,0,0,0,0,0,0,0,0,0,0,0,0,0,0,0,0,0,0,0,0,0,0,0,0,0,0,0,0,0,0,0,0,0,0,0,0,0,0,0,0,0,0,0,0,0,0,0,0,0,0,0,0,0,0,0,0,0,0,0,0,0,0,0,0,0,0,0,0,0,0,0,0,0,0,0,0,0,0,0,0,0,0,0,0,0,0,0],"sum_hessian":[1.9205427E5,1.5032495E5,4.172931E4,1.447453E5,5.579655E3,2.9282312E4,1.2446993E4,3.9575844E4,1.0516945E5,5.3899604E3,1.896942E2,2.261025E4,6.6720635E3,9.624117E3,2.8228767E3,3.5079883E4,4.495962E3,9.942692E4,5.7425317E3,4.4536714E3,9.362892E2,1.09256E2,8.043821E1,6.5007354E3,1.6109515E4,6.604066E3,6.799784E1,6.1518555E3,3.4722612E3,2.3784058E3,4.4447092E2,3.1744158E4,3.335723E3,4.359536E3,1.364257E2,1.197158E4,8.745534E4,2.6785095E3,3.0640222E3,3.689513E3,7.641585E2,2.5702548E2,6.792637E2,7.0762794E1,3.84932E1,6.0953396E1,1.9484814E1,2.108164E2,6.289919E3,8.618905E3,7.49061E3,1.4094473E3,5.1946187E3,3.3010838E1,3.4987003E1,5.6665723E3,4.852834E2,2.8577732E3,6.14488E2,4.1945087E2,1.9589548E3,2.2278993E2,2.2168098E2,2.918222E4,2.5619375E3,5.217031E2,2.8140198E3,3.3764448E3,9.830914E2,5.969565E0,1.3045615E2,5.4477094E2,1.142681E4,9.874889E3,7.758045E4,1.9965211E3,6.8198846E2,2.412635E3,6.5138715E2,3.6585361E3,3.0976767E1,4.9051514E2,2.7364334E2,1.295884E2,1.27437096E2,1.27726234E2,5.515375E2,2.6246592E1,4.4516205E1,1.0251528E1,2.824167E1,4.366187E1,1.7291525E1,3.3421774E0,1.6142637E1,1.8094408E2,2.9872332E1,1.3997764E3,4.8901426E3,7.44195E3,1.1769546E3,2.6637651E3,4.826844E3,1.047366E3,3.6208124E2,6.858046E2,4.508814E3,3.2591836E0,2.9751654E1,2.7507675E1,7.479328E0,5.144682E3,5.2188995E2,2.3980411E2,2.4547928E2,6.2193115E1,2.79558E3,4.9426205E2,1.20225945E2,4.4953854E1,3.74497E2,2.2167839E2,1.7372765E3,1.4949368E2,7.329625E1,3.6506066E0,2.1803038E2],"tree_param":{"num_deleted":"0","num_feature":"7","num_nodes":"127","size_leaf_vector":"1"}},{"base_weights":[-2.5938818E-1,-3.8117468E-1,2.6993707E-1,-4.3046406E-1,-1.8093565E-1,6.501127E-2,6.749957E-1,-4.3588963E-1,-1.2659234E-1,-2.0375659E-1,7.063986E-1,-6.030093E-2,1.6321266E-1,5.568444E-1,1.0431801E0,-4.4884574E-1,-3.6754888E-1,-2.1058178E-1,1.6921444E-1,-3.073668E-1,-1.1565865E-1,3.7003878E-1,1.0287049E0,-1.5145062E-1,4.0145125E-2,7.083464E-2,2.8864777E-1,4.2899483E-1,6.6572094E-1,9.2572474E-1,1.163388E0,-4.052914E-1,-4.727672E-1,-4.4417444E-1,-3.154104E-1,-9.70142E-2,-4.2462146E-1,-1.2533414E-1,5.4111034E-1,-1.5521194E-1,-4.071315E-1,8.776265E-2,-1.5602525E-1,7.23264E-1,-2.1188195E-1,3.1705332E-1,1.1707652E0,-5.082437E-2,-4.8238292E-1,2.4067786E-1,1.0168604E-2,1.118314E-1,-1.9782373E-1,2.761987E-1,8.2819575E-1,1.6569543E-1,5.0709194E-1,1.1139743E0,6.5480167E-1,1.0868982E0,8.533399E-1,9.902461E-1,1.2301571E0,-9.3395166E-2,-6.999283E-2,-1.03204E-1,-8.4780596E-2,-7.247952E-2,-1.03011884E-1,6.1875703E-3,-8.060677E-2,1.4507524E-3,-8.364335E-2,-1.1927757E-1,2.3534359E-1,3.4000795E-2,-1.985251E-1,-7.604126E-2,1.5636557E-1,9.6445054E-2,-4.1238494E-2,-3.269459E-2,-9.325914E-2,-2.322047E-2,3.9647404E-2,-4.0362287E-2,4.43861E-2,1.3221866E-1,3.5939935E-1,-1.8826804E-1,7.202487E-2,4.071568E-1,-9.9541396E-2,9.639988E-2,2.9658073E-1,1.1258502E-2,-3.4782957E-2,-6.391669E-2,-1.1476615E-1,7.004848E-2,-1.4937815E-1,-4.593137E-2,1.1941631E-2,1.33885965E-2,4.4910382E-2,-8.2794E-2,-3.128685E-3,4.0862665E-2,7.567791E-2,1.6353132E-1,5.926851E-1,1.4587309E-2,1.8030988E-1,8.660152E-2,1.357519E-1,2.1412237E-1,6.054999E-1,1.2558725E-1,1.558751E-1,1.8487373E-1,3.1846085E-1,1.17237985E-1,2.009441E-1,2.5036547E-1,1.2886944E-1,3.4234476E-1,2.4832359E-1],"categories":[],"categories_nodes":[],"categories_segments":[],"categories_sizes":[],"default_left":[0,0,0,0,0,0,0,0,0,0,0,0,0,0,0,0,0,0,0,0,0,0,0,0,0,0,0,0,0,0,0,0,0,0,0,0,0,0,0,0,0,0,0,0,0,0,0,0,0,0,0,0,0,0,0,0,0,0,0,0,0,0,0,0,0,0,0,0,0,0,0,0,0,0,0,0,0,0,0,0,0,0,0,0,0,0,0,0,0,0,0,0,0,0,0,0,0,0,0,0,0,0,0,0,0,0,0,0,0,0,0,0,0,0,0,0,0,0,0,0,0,0,0,0,0,0,0],"id":3,"left_children":[1,3,5,7,9,11,13,15,17,19,21,23,25,27,29,31,33,35,37,39,41,43,45,47,49,51,53,55,57,59,61,63,65,67,69,71,73,75,77,79,81,83,85,87,89,91,93,95,97,99,101,103,105,107,109,111,113,115,117,119,121,123,125,-1,-1,-1,-1,-1,-1,-1,-1,-1,-1,-1,-1,-1,-1,-1,-1,-1,-1,-1,-1,-1,-1,-1,-1,-1,-1,-1,-1,-1,-1,-1,-1,-1,-1,-1,-1,-1,-1,-1,-1,-1,-1,-1,-1,-1,-1,-1,-1,-1,-1,-1,-1,-1,-1,-1,-1,-1,-1,-1,-1,-1,-1,-1,-1],"loss_changes":[1.1727637E4,1.4596758E3,2.8245327E3,1.9566406E2,5.915811E2,2.780636E2,4.9727197E2,1.0323633E2,5.1726105E1,2.5997266E2,7.939679E1,9.089432E1,1.4679355E2,1.2045801E2,3.9170166E1,1.02115234E2,7.423389E1,3.941449E1,5.0438217E1,1.9867505E2,1.26399796E2,7.369502E1,3.7800323E1,1.7331744E2,2.8391033E1,8.035527E1,3.607968E1,8.1848145E1,2.2849121E1,1.6354126E1,1.58186035E1,8.008301E1,3.456543E1,2.7957153E1,2.2556042E2,3.207478E1,1.1081977E2,5.8072937E1,3.3816708E1,1.1409433E2,5.315625E1,4.8147324E1,1.4700421E2,2.292978E1,4.911686E1,7.655992E1,4.679773E1,4.5640076E1,1.1477417E1,4.8776722E1,4.1666748E1,3.0427101E1,3.310792E1,3.4230408E1,1.5809822E1,5.993882E1,3.976056E1,2.231694E1,2.2590942E1,3.891516E1,2.410791E1,2.5911926E1,2.707373E1,0E0,0E0,0E0,0E0,0E0,0E0,0E0,0E0,0E0,0E0,0E0,0E0,0E0,0E0,0E0,0E0,0E0,0E0,0E0,0E0,0E0,0E0,0E0,0E0,0E0,0E0,0E0,0E0,0E0,0E0,0E0,0E0,0E0,0E0,0E0,0E0,0E0,0E0,0E0,0E0,0E0,0E0,0E0,0E0,0E0,0E0,0E0,0E0,0E0,0E0,0E0,0E0,0E0,0E0,0E0,0E0,0E0,0E0,0E0,0E0,0E0,0E0,0E0,0E0],"parents":[2147483647,0,0,1,1,2,2,3,3,4,4,5,5,6,6,7,7,8,8,9,9,10,10,11,11,12,12,13,13,14,14,15,15,16,16,17,17,18,18,19,19,20,20,21,21,22,22,23,23,24,24,25,25,26,26,27,27,28,28,29,29,30,30,31,31,32,32,33,33,34,34,35,35,36,36,37,37,38,38,39,39,40,40,41,41,42,42,43,43,44,44,45,45,46,46,47,47,48,48,49,49,50,50,51,51,52,52,53,53,54,54,55,55,56,56,57,57,58,58,59,59,60,60,61,61,62,62],"right_children":[2,4,6,8,10,12,14,16,18,20,22,24,26,28,30,32,34,36,38,40,42,44,46,48,50,52,54,56,58,60,62,64,66,68,70,72,74,76,78,80,82,84,86,88,90,92,94,96,98,100,102,104,106,108,110,112,114,116,118,120,122,124,126,-1,-1,-1,-1,-1,-1,-1,-1,-1,-1,-1,-1,-1,-1,-1,-1,-1,-1,-1,-1,-1,-1,-1,-1,-1,-1,-1,-1,-1,-1,-1,-1,-1,-1,-1,-1,-1,-1,-1,-1,-1,-1,-1,-1,-1,-1,-1,-1,-1,-1,-1,-1,-1,-1,-1,-1,-1,-1,-1,-1,-1,-1,-1,-1],"split_conditions":[1.3E1,1.1E1,5.627766E2,4.2394653E2,6.89645E2,1.4E1,1.2753014E3,1E1,5.88945E2,2.9E2,8.131035E2,2.83E2,3.62604E2,7.433655E2,1.7803702E3,4.5680836E1,2.9E2,1.18524596E-1,1E1,1.13048386E2,1.3988022E2,1.19316466E-1,1.1679851E-1,2.5307596E2,2.4E1,5.5E1,6E1,1.4E1,1.9E1,1.1699827E-1,1.1699827E-1,8E0,2.5565468E2,4.4002056E1,8.5392E1,5.1E1,5.6E1,4.8E1,1.1679851E-1,2.726042E1,2.2E1,1.1699827E-1,5.0112592E2,9.92E2,1.2199301E-1,3.7E1,2.3E1,1.6352298E2,2.7453516E2,5.0112592E2,3E1,1.18524596E-1,2.847431E2,1.5E1,1.2199301E-1,1.2199301E-1,1.1732109E-1,1.2199301E-1,4E1,1.85E2,1.1712159E-1,1.1679851E-1,1.1712159E-1,-9.3395166E-2,-6.999283E-2,-1.03204E-1,-8.4780596E-2,-7.247952E-2,-1.03011884E-1,6.1875703E-3,-8.060677E-2,1.4507524E-3,-8.364335E-2,-1.1927757E-1,2.3534359E-1,3.4000795E-2,-1.985251E-1,-7.604126E-2,1.5636557E-1,9.6445054E-2,-4.1238494E-2,-3.269459E-2,-9.325914E-2,-2.322047E-2,3.9647404E-2,-4.0362287E-2,4.43861E-2,1.3221866E-1,3.5939935E-1,-1.8826804E-1,7.202487E-2,4.071568E-1,-9.9541396E-2,9.639988E-2,2.9658073E-1,1.1258502E-2,-3.4782957E-2,-6.391669E-2,-1.1476615E-1,7.004848E-2,-1.4937815E-1,-4.593137E-2,1.1941631E-2,1.33885965E-2,4.4910382E-2,-8.2794E-2,-3.128685E-3,4.0862665E-2,7.567791E-2,1.6353132E-1,5.926851E-1,1.4587309E-2,1.8030988E-1,8.660152E-2,1.357519E-1,2.1412237E-1,6.054999E-1,1.2558725E-1,1.558751E-1,1.8487373E-1,3.1846085E-1,1.17237985E-1,2.009441E-1,2.5036547E-1,1.2886944E-1,3.4234476E-1,2.4832359E-1],"split_indices":[6,6,2,2,2,6,2,6,2,0,2,0,2,2,2,2,0,5,6,2,2,5,5,2,4,4,4,6,4,5,5,6,2,2,2,4,4,4,5,2,4,5,2,0,5,4,4,2,2,2,4,5,2,6,5,5,5,5,4,0,5,5,5,0,0,0,0,0,0,0,0,0,0,0,0,0,0,0,0,0,0,0,0,0,0,0,0,0,0,0,0,0,0,0,0,0,0,0,0,0,0,0,0,0,0,0,0,0,0,0,0,0,0,0,0,0,0,0,0,0,0,0,0,0,0,0,0],"split_type":[0,0,0,0,0,0,0,0,0,0,0,0,0,0,0,0,0,0,0,0,0,0,0,0,0,0,0,0,0,0,0,0,0,0,0,0,0,0,0,0,0,0,0,0,0,0,0,0,0,0,0,0,0,0,0,0,0,0,0,0,0,0,0,0,0,0,0,0,0,0,0,0,0,0,0,0,0,0,0,0,0,0,0,0,0,0,0,0,0,0,0,0,0,0,0,0,0,0,0,0,0,0,0,0,0,0,0,0,0,0,0,0,0,0,0,0,0,0,0,0,0,0,0,0,0,0,0],"sum_hessian":[1.8192336E5,1.4789572E5,3.402765E4,1.1868182E5,2.921389E4,2.2596006E4,1.1431645E4,1.1659993E5,2.0818909E3,2.848142E4,7.3247107E2,9.927628E3,1.2668377E4,8.654491E3,2.7771533E3,9.801748E4,1.858246E4,1.6215046E3,4.6038632E2,1.3088362E4,1.5393058E4,3.5846136E2,3.7400974E2,5.204656E3,4.722972E3,7.2955537E3,5.3728237E3,3.980514E3,4.6739775E3,1.4048247E3,1.3723285E3,3.4749336E4,6.3268137E4,7.524197E3,1.1058264E4,1.0594349E3,5.6206976E2,2.5692188E2,2.0346445E2,5.183269E3,7.9050933E3,2.5487847E3,1.2844273E4,2.230578E2,1.3540355E2,6.2257103E1,3.1175262E2,3.9911235E3,1.2135321E3,6.141609E2,4.1088115E3,6.3296807E3,9.658729E2,5.2517075E3,1.2111655E2,9.106018E2,3.069912E3,1.1105824E2,4.5629194E3,4.3522226E2,9.696024E2,3.820957E2,9.9023285E2,2.5540438E4,9.2089E3,5.813737E4,5.1307656E3,1.836837E3,5.68736E3,1.6244661E3,9.433797E3,7.815454E2,2.7788953E2,5.178302E2,4.423953E1,1.8958192E2,6.733995E1,3.4970592E1,1.6849385E2,2.953691E2,4.8879E3,7.400752E2,7.165018E3,8.419043E2,1.7068804E3,1.1814397E4,1.0298761E3,2.0015492E2,2.2902887E1,6.117021E1,7.4233345E1,2.059417E1,4.1662937E1,6.96486E1,2.4210402E2,2.0673438E3,1.9237799E3,2.6227527E2,9.5125684E2,5.6304816E2,5.11127E1,6.92478E2,3.4163333E3,4.1870454E3,2.142635E3,4.7804016E2,4.8783276E2,2.4523818E3,2.7993254E3,1.17033646E2,4.0829E0,7.949191E2,1.1568271E2,1.6650963E3,1.4048158E3,1.0386745E2,7.190801E0,2.2603552E3,2.3025642E3,2.757915E2,1.5943076E2,2.0113338E2,7.6846906E2,2.6465543E2,1.1744027E2,1.7185217E2,8.183807E2],"tree_param":{"num_deleted":"0","num_feature":"7","num_nodes":"127","size_leaf_vector":"1"}},{"base_weights":[-2.1381305E-1,-3.451371E-1,1.37379E-1,-3.7789774E-1,-2.5605023E-1,-1.6999131E-2,4.969768E-1,-3.8163707E-1,-9.3699686E-2,-2.6529548E-1,2.6545328E-1,-8.569815E-2,1.0363633E-1,3.7922326E-1,7.822601E-1,-3.4314668E-1,-4.0307266E-1,4.5122214E-2,-3.7466994E-1,-3.6683333E-1,-2.2465879E-1,1.6901745E-1,9.928619E-1,-1.4248516E-1,1.806517E-2,6.3221E-2,1.9392116E-1,2.9956123E-1,4.609593E-1,6.9825137E-1,9.5678604E-1,-3.572834E-1,-2.281631E-1,-3.6309677E-1,-4.145218E-1,2.5622585E-1,-1.9959524E-1,4.123032E-2,-6.138046E-1,-1.8730563E-1,-4.097115E-1,-1.5154885E-2,-2.631411E-1,-5.3670937E-1,2.769729E-1,-1.3825675E0,1.3732268E0,-8.916172E-3,-2.5005522E-1,4.160832E-1,-4.37667E-4,8.725039E-2,-1.3733648E-1,4.041499E-1,1.3292761E-1,6.307541E-1,2.5907752E-1,4.4837677E-1,1.0100304E0,5.568711E-1,7.807884E-1,1.4892277E0,9.3045044E-1,-7.97608E-2,-5.4233972E-2,-6.299346E-2,7.648374E-2,-7.431559E-2,-1.5388721E-1,-9.9356435E-2,-8.6050056E-2,-2.4952269E-1,6.1716046E-2,-1.02406114E-1,4.1653857E-2,-5.5626463E-2,3.3589163E-1,-1.369548E-1,5.1952296E-1,-7.124965E-2,3.3021353E-2,-9.1133446E-2,-6.397889E-2,-1.5840635E-2,6.533595E-2,-7.030379E-2,-4.089526E-2,9.6316405E-2,-2.5048697E-1,5.3816915E-1,4.453581E-2,-8.145655E-2,-3.797434E-1,6.5156534E-2,3.4955987E-1,-1.54105285E-2,1.5412538E-2,-7.933658E-2,-3.679054E-2,1.2588416E-1,-1.1382376E-1,-3.1694576E-2,9.961522E-3,1.2123302E-2,4.089042E-2,-1.689469E-2,-1.2368543E-1,6.6395886E-2,4.099824E-1,5.3680073E-2,-2.501745E-3,1.7273001E-1,6.502935E-2,3.756216E-2,9.224477E-2,1.0063084E-1,1.9831665E-2,2.9992402E-1,1.0236367E-1,5.606976E-2,1.7946114E-1,3.315747E-1,1.6299692E-1,2.4271186E-1,3.5094962E-1,1.8887284E-1,2.3908246E-1],"categories":[],"categories_nodes":[],"categories_segments":[],"categories_sizes":[],"default_left":[0,0,0,0,0,0,0,0,0,0,0,0,0,0,0,0,0,0,0,0,0,0,0,0,0,0,0,0,0,0,0,0,0,0,0,0,0,0,0,0,0,0,0,0,0,0,0,0,0,0,0,0,0,0,0,0,0,0,0,0,0,0,0,0,0,0,0,0,0,0,0,0,0,0,0,0,0,0,0,0,0,0,0,0,0,0,0,0,0,0,0,0,0,0,0,0,0,0,0,0,0,0,0,0,0,0,0,0,0,0,0,0,0,0,0,0,0,0,0,0,0,0,0,0,0,0,0],"id":4,"left_children":[1,3,5,7,9,11,13,15,17,19,21,23,25,27,29,31,33,35,37,39,41,43,45,47,49,51,53,55,57,59,61,63,65,67,69,71,73,75,77,79,81,83,85,87,89,91,93,95,97,99,101,103,105,107,109,111,113,115,117,119,121,123,125,-1,-1,-1,-1,-1,-1,-1,-1,-1,-1,-1,-1,-1,-1,-1,-1,-1,-1,-1,-1,-1,-1,-1,-1,-1,-1,-1,-1,-1,-1,-1,-1,-1,-1,-1,-1,-1,-1,-1,-1,-1,-1,-1,-1,-1,-1,-1,-1,-1,-1,-1,-1,-1,-1,-1,-1,-1,-1,-1,-1,-1,-1,-1,-1],"loss_changes":[8.005729E3,3.6872656E2,2.6226929E3,9.8163086E1,1.637815E2,2.7393353E2,4.7668066E2,7.521875E1,4.6792843E1,1.3771606E2,4.1501766E1,1.2409622E2,4.3761795E1,6.5395874E1,6.0759033E1,5.3008057E1,2.6795898E1,4.1483643E1,3.9457504E1,7.343323E1,1.921814E2,3.981379E1,6.264592E1,1.9556647E2,5.485901E1,3.992715E1,4.755124E1,6.819708E1,3.423242E1,3.26427E1,1.8835571E1,4.111621E1,1.3472737E2,8.110217E1,3.1313965E1,1.8717663E1,4.0423447E1,6.603082E1,1.7439598E1,9.0186844E1,1.2012817E1,6.89698E1,9.362732E1,4.285644E1,7.0513626E1,3.651968E0,1.6061928E1,3.0676006E1,7.074704E1,5.2883743E1,4.887055E1,2.350351E1,2.2807976E1,1.1960246E2,4.8447815E1,3.1316391E1,6.497922E1,3.3444458E1,2.275576E1,8.475198E1,3.1060059E1,3.1829681E0,1.2158325E1,0E0,0E0,0E0,0E0,0E0,0E0,0E0,0E0,0E0,0E0,0E0,0E0,0E0,0E0,0E0,0E0,0E0,0E0,0E0,0E0,0E0,0E0,0E0,0E0,0E0,0E0,0E0,0E0,0E0,0E0,0E0,0E0,0E0,0E0,0E0,0E0,0E0,0E0,0E0,0E0,0E0,0E0,0E0,0E0,0E0,0E0,0E0,0E0,0E0,0E0,0E0,0E0,0E0,0E0,0E0,0E0,0E0,0E0,0E0,0E0,0E0,0E0,0E0,0E0],"parents":[2147483647,0,0,1,1,2,2,3,3,4,4,5,5,6,6,7,7,8,8,9,9,10,10,11,11,12,12,13,13,14,14,15,15,16,16,17,17,18,18,19,19,20,20,21,21,22,22,23,23,24,24,25,25,26,26,27,27,28,28,29,29,30,30,31,31,32,32,33,33,34,34,35,35,36,36,37,37,38,38,39,39,40,40,41,41,42,42,43,43,44,44,45,45,46,46,47,47,48,48,49,49,50,50,51,51,52,52,53,53,54,54,55,55,56,56,57,57,58,58,59,59,60,60,61,61,62,62],"right_children":[2,4,6,8,10,12,14,16,18,20,22,24,26,28,30,32,34,36,38,40,42,44,46,48,50,52,54,56,58,60,62,64,66,68,70,72,74,76,78,80,82,84,86,88,90,92,94,96,98,100,102,104,106,108,110,112,114,116,118,120,122,124,126,-1,-1,-1,-1,-1,-1,-1,-1,-1,-1,-1,-1,-1,-1,-1,-1,-1,-1,-1,-1,-1,-1,-1,-1,-1,-1,-1,-1,-1,-1,-1,-1,-1,-1,-1,-1,-1,-1,-1,-1,-1,-1,-1,-1,-1,-1,-1,-1,-1,-1,-1,-1,-1,-1,-1,-1,-1,-1,-1,-1,-1,-1,-1,-1],"split_conditions":[1.2E1,1E1,5.191692E2,4.2394653E2,5.88945E2,1.4E1,1.0528986E3,4.5680836E1,4.8E1,1.93E2,9.12866E2,3.84E2,3.888524E2,6.89645E2,1.7803702E3,9E0,1.1679851E-1,1.1732109E-1,4.704587E2,4.0922E1,8.73596E1,2.3E1,1.1596282E-1,1.668878E2,2E1,5.6E1,4.1409494E2,2.3E1,6E1,3.3E1,2E1,1.2199301E-1,4.84E2,5.9E1,2.8E1,1.9E1,5.379264E2,4.5646152E2,7.433655E2,1.1E1,1.2199301E-1,4.59E2,1.1E1,5.06E2,2.4E1,3.9E1,2.1E1,4.2E1,1.82E2,4.0612E2,3E1,1.19316466E-1,1.2199301E-1,5.8E1,1.1732109E-1,1.18524596E-1,1.18524596E-1,5.8E1,1.5E1,1.2753014E3,1.3E1,1.9E1,5.3E1,-7.97608E-2,-5.4233972E-2,-6.299346E-2,7.648374E-2,-7.431559E-2,-1.5388721E-1,-9.9356435E-2,-8.6050056E-2,-2.4952269E-1,6.1716046E-2,-1.02406114E-1,4.1653857E-2,-5.5626463E-2,3.3589163E-1,-1.369548E-1,5.1952296E-1,-7.124965E-2,3.3021353E-2,-9.1133446E-2,-6.397889E-2,-1.5840635E-2,6.533595E-2,-7.030379E-2,-4.089526E-2,9.6316405E-2,-2.5048697E-1,5.3816915E-1,4.453581E-2,-8.145655E-2,-3.797434E-1,6.5156534E-2,3.4955987E-1,-1.54105285E-2,1.5412538E-2,-7.933658E-2,-3.679054E-2,1.2588416E-1,-1.1382376E-1,-3.1694576E-2,9.961522E-3,1.2123302E-2,4.089042E-2,-1.689469E-2,-1.2368543E-1,6.6395886E-2,4.099824E-1,5.3680073E-2,-2.501745E-3,1.7273001E-1,6.502935E-2,3.756216E-2,9.224477E-2,1.0063084E-1,1.9831665E-2,2.9992402E-1,1.0236367E-1,5.606976E-2,1.7946114E-1,3.315747E-1,1.6299692E-1,2.4271186E-1,3.5094962E-1,1.8887284E-1,2.3908246E-1],"split_indices":[6,6,2,2,2,6,2,2,4,0,2,0,2,2,2,6,5,5,2,2,2,4,5,2,4,4,2,4,4,4,4,5,0,4,4,4,2,2,2,6,5,0,6,0,4,4,4,4,0,2,4,5,5,4,5,5,5,4,6,2,6,4,4,0,0,0,0,0,0,0,0,0,0,0,0,0,0,0,0,0,0,0,0,0,0,0,0,0,0,0,0,0,0,0,0,0,0,0,0,0,0,0,0,0,0,0,0,0,0,0,0,0,0,0,0,0,0,0,0,0,0,0,0,0,0,0,0],"split_type":[0,0,0,0,0,0,0,0,0,0,0,0,0,0,0,0,0,0,0,0,0,0,0,0,0,0,0,0,0,0,0,0,0,0,0,0,0,0,0,0,0,0,0,0,0,0,0,0,0,0,0,0,0,0,0,0,0,0,0,0,0,0,0,0,0,0,0,0,0,0,0,0,0,0,0,0,0,0,0,0,0,0,0,0,0,0,0,0,0,0,0,0,0,0,0,0,0,0,0,0,0,0,0,0,0,0,0,0,0,0,0,0,0,0,0,0,0,0,0,0,0,0,0,0,0,0,0],"sum_hessian":[1.7358481E5,1.2634109E5,4.724373E4,9.237218E4,3.396891E4,3.3053598E4,1.4190133E4,9.117257E4,1.1996089E3,3.337722E4,5.916928E2,2.1060285E4,1.19933125E4,1.0044326E4,4.1458076E3,3.2612799E4,5.855977E4,8.029269E2,3.96682E2,9.539871E3,2.3837348E4,5.2247284E2,6.922002E1,1.361121E4,7.449074E3,8.284769E3,3.7085437E3,5.0867925E3,4.9575337E3,2.7987883E3,1.3470189E3,2.9042115E4,3.5706848E3,1.3037901E4,4.5521867E4,4.3106943E2,3.7185748E2,1.4482738E2,2.5185464E2,1.8392576E3,7.7006133E3,3.6990732E3,2.0138275E4,6.9298805E1,4.53174E2,9.540292E0,5.967972E1,6.071865E3,7.5393447E3,3.308719E2,7.1182026E3,7.398372E3,8.8639636E2,8.339427E2,2.874601E3,5.540026E2,4.5327896E3,4.8465386E3,1.1099484E2,1.0317565E3,1.767032E3,6.338796E1,1.283631E3,2.5747557E4,3.2945586E3,3.2146765E3,3.5600833E2,1.2415311E4,6.2259033E2,1.0704794E4,3.4817074E4,9.100972E0,4.2196844E2,2.1835712E2,1.5350035E2,1.2099449E2,2.3832884E1,2.5000308E2,1.8515522E0,1.2932705E3,5.45987E2,6.852854E3,8.477596E2,3.1258396E3,5.732337E2,1.0762068E4,9.376206E3,2.6983711E1,4.2315098E1,1.3778326E1,4.393957E2,2.653109E0,6.8871827E0,1.1374205E1,4.830552E1,3.4140068E3,2.6578584E3,3.0134333E3,4.525911E3,2.8068387E2,5.0188026E1,1.7183014E3,5.3999014E3,5.6887983E3,1.7095741E3,7.814245E2,1.0497188E2,7.84102E2,4.984071E1,1.5912247E3,1.2833763E3,3.634815E2,1.9052112E2,3.0262554E3,1.5065343E3,4.5965103E3,2.5002864E2,6.453646E1,4.6458378E1,4.9886923E2,5.328872E2,5.212801E1,1.714904E3,1.7992283E1,4.5395676E1,9.9486066E2,2.8877036E2],"tree_param":{"num_deleted":"0","num_feature":"7","num_nodes":"127","size_leaf_vector":"1"}}]},"name":"gbtree"},"learner_model_param":{"base_score":"1.7713347E-1","boost_from_average":"1","num_class":"0","num_feature":"7","num_target":"1"},"objective":{"name":"binary:logistic","reg_loss_param":{"scale_pos_weight":"0.985024154"}}},"version":[3,0,3]}